/*!
 * The following copyright notice may not be removed under any circumstances.
 * 
 * Copyright:
 * 29-7-95 \251 m klein
 */
Cufon.registerFont({"w":214,"face":{"font-family":"Folks","font-weight":400,"font-stretch":"normal","units-per-em":"1000","panose-1":"2 0 5 3 2 0 0 2 0 4","ascent":"800","descent":"-200","bbox":"-60.0378 -897.272 908 225.66","underline-thickness":"43","underline-position":"-90","unicode-range":"U+0020-U+2122"},"glyphs":{" ":{"w":255},"!":{"d":"104,-92v-30,0,-52,25,-52,54v0,28,26,51,53,51v29,0,53,-23,53,-53v0,-30,-25,-52,-54,-52xm104,-736v-22,0,-41,20,-40,42r0,547r83,1r0,-547v1,-22,-21,-43,-43,-43","w":210},"\"":{"d":"50,-495r63,0r20,-225r-63,0xm154,-495r63,0r20,-225r-63,0","w":287},"#":{"d":"101,-473v0,12,8,21,21,21r97,0r-38,183r-101,0v-14,0,-31,13,-31,28v0,10,11,21,21,21r101,0r-41,209v3,31,41,18,45,-3r43,-208r115,0r-37,177v-4,20,-6,32,-6,36v0,18,25,22,37,11v5,-4,9,-9,10,-16r42,-205r104,0v16,0,32,-13,31,-30v0,-10,-11,-20,-21,-20r-103,0r38,-183r103,0v14,0,31,-12,30,-27v0,-10,-10,-20,-20,-20r-103,0r45,-204r-48,0r-44,204r-114,0r45,-204r-48,0r-45,204r-98,0v-14,0,-31,11,-30,26xm228,-269r39,-183r114,0r-38,183r-115,0","w":611},"$":{"d":"238,-799v-28,0,-18,47,-18,73v-84,4,-139,56,-168,118v-27,57,-17,127,18,170v35,43,92,66,150,86r0,278v-66,1,-110,-30,-146,-60r-51,62v33,54,115,76,197,80r0,65r39,1r0,-67v97,-10,163,-69,196,-145v22,-51,23,-121,-2,-166v-38,-68,-116,-99,-194,-126r0,-222v44,9,85,36,128,47v21,1,41,-21,38,-41v-10,-63,-100,-75,-167,-82v0,0,10,-71,-20,-71xm221,-443v-53,-18,-112,-68,-83,-140v13,-33,42,-59,82,-66xm259,-340v58,21,121,47,121,123v0,59,-36,100,-75,125v-15,9,-30,14,-46,16r0,-264","w":488},"%":{"d":"130,-721v-71,31,-112,126,-80,223v20,60,65,107,143,107v80,0,125,-49,147,-110v23,-66,4,-147,-31,-184v-26,-27,-62,-50,-113,-50v-25,0,-46,5,-66,14xm546,-701v3,-35,-53,-50,-67,-15r-297,720r63,27r213,-508r76,-189v8,-21,12,-32,12,-35xm433,-273v-36,36,-57,119,-33,186v21,60,67,104,146,104v78,0,127,-44,146,-104v37,-118,-19,-236,-143,-236v-51,0,-89,23,-116,50xm194,-446v-62,0,-88,-56,-88,-117v0,-63,26,-116,89,-116v61,0,86,51,86,112v0,63,-24,121,-87,121xm547,-38v-64,0,-90,-51,-90,-115v0,-64,26,-115,90,-115v64,0,87,51,87,114v0,64,-22,116,-87,116","w":742},"&":{"d":"131,-594v0,69,43,112,78,151v-85,47,-166,118,-166,242v0,107,62,171,141,202v126,49,262,-20,316,-103r112,133r62,-53r-121,-145v28,-39,60,-79,84,-121v21,-36,13,-84,-30,-77v-51,8,-57,74,-87,107r-20,29r-164,-196v60,-40,131,-78,131,-174v0,-95,-74,-138,-168,-138v-73,0,-126,32,-153,81v-10,18,-15,39,-15,62xm302,-662v39,-1,82,30,80,71v-4,62,-57,82,-97,109v-23,-35,-68,-60,-68,-114v0,-46,39,-65,85,-66xm445,-164v-35,51,-87,100,-168,100v-69,0,-114,-38,-133,-90v-39,-110,35,-195,115,-230","w":682},"'":{"d":"50,-495r63,0r20,-225r-63,0","w":183},"(":{"d":"124,-784v-36,143,-83,290,-70,466v2,25,4,53,7,84v10,89,23,192,54,258v9,18,19,27,30,27v16,0,38,-13,38,-31v0,-33,-14,-64,-20,-92v-20,-91,-37,-191,-37,-298v0,-141,28,-291,63,-402","w":204},")":{"d":"21,15v-1,22,18,36,38,36v11,0,21,-9,30,-27v45,-104,61,-263,65,-404v4,-153,-45,-283,-80,-409r-62,16v40,92,55,227,64,349v11,147,-15,279,-48,396v-5,16,-7,30,-7,43","w":204},"*":{"d":"193,-736v-18,0,-36,14,-35,32v0,36,10,77,13,110r-81,-64v-25,-20,-56,6,-57,31v0,15,6,25,19,30r96,41r-92,39v-15,7,-22,18,-22,33v1,27,32,47,59,28v26,-18,52,-39,76,-59r-11,121r70,0r-11,-121v28,20,59,62,99,67v36,5,50,-54,14,-69r-92,-39r96,-41v33,-13,17,-71,-19,-68v-6,0,-12,2,-19,7r-81,64v3,-33,13,-74,13,-110v1,-18,-17,-32,-35,-32","w":386},"+":{"d":"274,-584v-19,0,-34,17,-34,35r0,172r-194,0r0,67r193,0r0,176v-1,18,16,33,34,33v18,0,35,-14,34,-32r0,-176r171,0v18,1,35,-16,35,-34v0,-18,-16,-35,-34,-34r-172,0r0,-173v0,-18,-15,-34,-33,-34","w":545},",":{"d":"6,73v-18,37,23,78,60,55v7,-4,13,-10,16,-17r88,-180r-78,-38","w":186},"-":{"d":"321,-289v0,-21,-17,-40,-38,-39r-239,0r1,78r238,0v21,1,38,-18,38,-39","w":360},".":{"d":"89,-92v-28,0,-52,26,-52,53v0,27,26,52,53,52v28,0,53,-24,53,-52v0,-30,-25,-53,-54,-53","w":180},"\/":{"d":"379,-736v15,-32,-21,-68,-49,-43v-6,5,-12,12,-15,19r-304,767r63,27","w":407},"0":{"d":"129,-666v-124,130,-119,486,0,612v33,35,78,64,143,63v136,-3,189,-102,216,-213v49,-198,9,-441,-136,-508v-46,-22,-117,-23,-162,0v-24,12,-44,27,-61,46xm196,-100v-86,-107,-88,-377,-16,-496v19,-31,46,-56,92,-56v94,0,120,94,134,178v25,148,11,329,-82,392v-39,27,-100,18,-128,-18","w":545},"1":{"d":"328,-675v0,-22,-18,-45,-41,-45r-137,0v-22,-1,-40,18,-40,40v0,22,18,38,39,38r92,0r0,643r87,-1r0,-675","w":545},"2":{"d":"64,-39v0,26,29,39,52,39r364,0r0,-79r-297,0r65,-87r64,-89r48,-63v46,-62,108,-127,108,-227v0,-89,-53,-144,-120,-171v-51,-20,-115,-17,-162,4v-74,34,-130,100,-130,204v0,30,9,54,43,54v20,0,36,-15,38,-36v10,-86,38,-157,133,-158v89,-1,131,88,90,170v-37,73,-87,139,-134,202r-145,198v-7,9,-17,24,-17,39","w":544},"3":{"d":"489,-212v0,-83,-55,-151,-120,-175v63,-39,101,-142,65,-231v-26,-64,-79,-112,-166,-112v-93,0,-154,55,-176,131v27,6,50,27,77,32v10,-45,41,-85,95,-83v60,2,94,47,96,108v3,83,-38,113,-102,128v-20,5,-35,10,-35,35v0,19,12,37,27,39v83,9,151,42,148,134v-2,83,-53,131,-136,134v-76,2,-101,-48,-126,-97v-9,-17,-17,-33,-40,-34v-29,0,-50,33,-38,65v29,85,92,148,202,148v106,0,176,-58,211,-134v12,-27,18,-56,18,-88","w":544},"4":{"d":"435,-647v0,-45,-27,-85,-74,-83v-30,0,-53,18,-66,38r-263,445v-4,7,-6,15,-6,22v-1,35,28,40,62,39r263,0r0,188r82,0r0,-189v40,0,81,1,81,-38v-1,-38,-39,-40,-79,-39r0,-383xm132,-264r218,-387r0,387r-218,0","w":544},"5":{"d":"112,-136v-30,-24,-66,-1,-67,30v9,53,68,78,111,97v62,27,134,25,192,-2v98,-45,164,-181,120,-317v-25,-76,-84,-134,-183,-137v-29,0,-56,6,-82,17r30,-194r233,0r10,-78r-269,0v-42,1,-49,8,-54,46r-41,283v1,26,30,41,57,29v27,-11,52,-25,88,-26v106,0,151,103,121,206v-17,58,-54,109,-128,109v-63,0,-102,-34,-138,-63","w":545},"6":{"d":"193,-436v55,-107,126,-179,206,-259v-23,-11,-47,-27,-65,-42v-27,30,-63,54,-90,85v-71,82,-138,176,-172,294v-30,102,-11,226,38,290v34,44,84,81,159,80v111,-1,173,-68,203,-152v32,-88,8,-199,-36,-252v-33,-39,-79,-70,-148,-70v-34,0,-66,9,-95,26xm212,-85v-98,-59,-93,-310,58,-305v108,4,145,116,120,222v-13,55,-51,96,-120,98v-23,0,-42,-5,-58,-15","w":544},"7":{"d":"489,-661v14,-30,-9,-58,-40,-58r-383,-1r0,80r325,0r-262,592v-15,38,28,74,63,51v7,-5,13,-11,16,-19","w":545},"8":{"d":"89,-558v0,73,44,123,91,154v-76,24,-124,90,-124,186v0,106,52,177,127,212v52,24,126,24,178,0v76,-35,128,-105,128,-212v0,-97,-48,-162,-125,-186v65,-33,119,-136,78,-226v-28,-61,-84,-104,-169,-104v-85,0,-141,43,-169,104v-10,22,-15,46,-15,72xm231,-652v86,-37,170,46,136,140v-14,39,-43,71,-94,71v-77,0,-118,-76,-94,-153v8,-26,28,-48,52,-58xm272,-362v99,0,146,95,118,194v-15,53,-51,99,-118,99v-83,0,-124,-68,-124,-151v0,-82,41,-142,124,-142","w":545},"9":{"d":"351,-282v-34,69,-81,130,-133,182v-17,17,-38,37,-50,57r56,53v106,-93,199,-211,246,-363v33,-104,15,-232,-36,-297v-34,-44,-85,-82,-160,-81v-113,2,-174,69,-203,157v-30,90,-7,198,39,250v33,37,78,69,145,69v35,0,67,-9,96,-27xm398,-492v0,91,-33,164,-124,164v-91,0,-127,-73,-127,-164v0,-88,38,-157,127,-157v87,0,124,71,124,157","w":544},":":{"d":"104,-92v-28,0,-52,26,-52,53v0,27,26,52,53,52v28,0,53,-24,53,-52v0,-30,-25,-53,-54,-53xm105,-430v-29,0,-53,23,-53,52v0,29,24,53,53,53v28,0,54,-24,54,-53v0,-30,-25,-52,-54,-52","w":199},";":{"d":"122,-433v-30,0,-54,22,-54,52v0,30,24,52,54,52v28,0,52,-26,52,-53v0,-28,-24,-51,-52,-51xm20,73v-18,37,23,78,60,55v7,-4,13,-10,16,-17r84,-171r-78,-38"},"<":{"d":"50,-360r421,238r0,-71r-303,-167r303,-167r0,-71","w":521},"=":{"d":"29,-406v0,18,16,35,34,34r426,0r0,-67r-425,0v-18,0,-35,15,-35,33xm514,-280v0,-18,-17,-33,-35,-33r-425,0r-1,66r426,0v18,0,35,-15,35,-33","w":544},">":{"d":"50,-122r421,-238r-421,-238r0,71r303,167r-303,167r0,71","w":521},"?":{"d":"215,-89v-30,0,-52,24,-52,53v0,27,26,50,52,50v29,0,53,-22,53,-51v0,-30,-24,-52,-53,-52xm221,-654v63,-1,114,42,114,107v0,84,-55,103,-120,120v-20,5,-41,11,-42,34r0,247r83,1r0,-209v101,-19,173,-79,173,-195v0,-124,-89,-187,-213,-187v-88,0,-150,42,-183,104v-18,34,-14,92,30,92v32,1,36,-26,45,-49v17,-45,56,-64,113,-65","w":465},"@":{"d":"267,-336v-60,105,-76,340,81,340v53,0,87,-35,102,-77v-9,90,111,106,168,57v82,-72,131,-244,79,-376v-43,-109,-135,-187,-282,-187v-173,0,-280,104,-333,232v-37,89,-37,192,1,281v37,90,104,163,189,206v43,22,88,32,137,32r-1,-40v-24,0,-61,-10,-80,-17v-133,-48,-217,-146,-217,-316v0,-151,76,-253,181,-305v65,-33,161,-39,230,-8v99,43,161,145,145,292v-7,55,-22,110,-51,143v-16,18,-42,51,-74,51v-56,-1,-50,-74,-41,-124r49,-277r-48,0r-10,59v-8,-35,-48,-64,-89,-64v-69,0,-109,50,-136,98xm404,-391v105,0,65,170,42,245v-12,38,-30,74,-56,96v-12,10,-26,15,-41,15v-58,-1,-70,-54,-70,-111v0,-82,23,-169,65,-216v16,-19,36,-29,60,-29","w":770},"A":{"d":"15,-55v-21,41,23,84,61,57v7,-6,13,-13,16,-22r51,-135r332,0r63,165r86,-25r-251,-659v-14,-32,-23,-54,-67,-54v-35,-1,-51,28,-61,54xm167,-231r142,-393r141,393r-283,0","w":618},"B":{"d":"110,-720v-27,0,-47,14,-46,42r0,678r236,0v103,-2,168,-54,201,-127v31,-68,13,-163,-27,-205v-27,-28,-64,-53,-113,-57v58,-23,99,-70,99,-145v0,-91,-51,-147,-120,-173v-62,-23,-150,-13,-230,-13xm151,-414r0,-228v51,2,106,-6,145,8v53,18,97,87,64,152v-21,40,-63,68,-120,68r-89,0xm150,-77r0,-268v66,3,140,-8,192,10v62,21,108,100,74,177v-21,46,-63,81,-128,81r-138,0","w":545},"C":{"d":"569,-613v-37,-70,-111,-118,-212,-118v-170,0,-259,104,-300,237v-27,89,-28,191,1,279v42,128,135,225,300,225v85,0,161,-27,208,-70v26,-24,12,-78,-24,-75v-23,2,-40,21,-62,32v-31,16,-71,33,-120,32v-127,-2,-191,-82,-218,-184v-40,-152,9,-308,108,-368v50,-31,142,-33,194,-5v28,15,52,39,75,60","w":609},"D":{"d":"295,-720r-231,-2r0,680v-1,28,22,42,48,42v115,-3,239,12,318,-30v111,-59,175,-174,175,-338v0,-157,-71,-268,-179,-323v-38,-19,-82,-29,-131,-29xm150,-78r0,-564v86,3,179,-9,237,24v101,57,148,206,113,356v-16,71,-54,125,-109,159v-57,35,-153,22,-241,25","w":642},"E":{"d":"401,-681v0,-21,-19,-40,-40,-39r-274,0v-7,0,-15,-1,-22,-2r-1,675v0,27,17,48,44,47r323,0r0,-79r-279,0r0,-241r198,0v22,1,40,-18,40,-40v0,-22,-19,-39,-41,-39r-197,0r0,-242r208,0v22,1,41,-18,41,-40","w":447},"F":{"d":"113,-721v-26,0,-50,18,-49,45r0,676r87,0r0,-319r192,0v22,1,41,-18,41,-40v0,-21,-20,-40,-41,-39r-190,0r0,-244r237,0r0,-79r-277,0","w":412},"G":{"d":"403,-370v0,22,19,39,41,39r127,0v-1,110,-38,197,-109,240v-53,32,-149,26,-203,-1v-109,-55,-155,-220,-117,-374v18,-71,58,-126,115,-161v53,-33,151,-32,205,-3v29,16,57,36,85,54r50,-64v-58,-40,-128,-88,-219,-88v-174,0,-272,95,-318,227v-30,88,-31,203,-1,291v45,129,141,220,311,220v153,0,235,-90,272,-210v12,-41,17,-84,17,-129v0,-55,-11,-82,-69,-82r-145,0v-22,-1,-42,19,-42,41","w":688},"H":{"d":"108,-728v-23,0,-45,21,-44,44r0,684r86,1r0,-332r383,0r0,298v-1,22,20,42,42,42v24,0,46,-19,45,-43r0,-687r-87,0r0,314r-383,0r0,-277v1,-23,-19,-44,-42,-44","w":684},"I":{"d":"108,-728v-23,0,-45,21,-44,44r0,684r86,0r0,-684v1,-23,-19,-44,-42,-44xm106,-826v-21,-1,-36,16,-36,36v-1,18,18,35,36,35v19,0,36,-17,36,-36v0,-19,-18,-35,-36,-35"},"J":{"d":"303,-685v0,-24,-19,-44,-43,-44v-23,0,-44,20,-43,43r0,514v2,74,-41,126,-117,108v-23,-5,-41,-22,-63,-30r-25,72v47,29,133,47,192,18v61,-30,99,-91,99,-178r0,-503","w":367},"K":{"d":"106,-729v-22,0,-43,21,-42,43r0,686r87,0r0,-345r344,339v24,28,77,15,76,-24v0,-13,-5,-24,-15,-34r-325,-317r311,-290r-62,-56r-330,311r0,-270v1,-24,-20,-43,-44,-43","w":568},"L":{"d":"108,-729v-24,0,-44,21,-44,45r0,634v0,27,14,51,44,51r263,-1r-1,-80r-220,0r0,-605v1,-23,-19,-44,-42,-44","w":381},"M":{"d":"36,-47v-7,31,12,55,41,55v26,0,41,-17,45,-40r87,-586r175,594r86,0r176,-594r91,623r86,-15r-110,-664v-3,-46,-71,-71,-107,-40v-10,9,-18,22,-23,37r-156,535r-155,-535v-9,-28,-28,-51,-64,-51v-35,0,-62,23,-67,54","w":854},"N":{"d":"144,-710v-21,-36,-80,-16,-80,25r0,684r86,1r0,-572r387,563v21,35,79,17,79,-24r0,-651v0,-24,-20,-45,-44,-45v-22,0,-43,23,-42,45r1,536","w":680},"O":{"d":"117,-616v-69,82,-104,251,-60,392v27,90,81,160,158,202v76,41,195,41,271,0v109,-59,179,-176,179,-338v0,-161,-68,-279,-177,-338v-75,-41,-197,-41,-272,0v-39,21,-71,49,-99,82xm248,-93v-98,-60,-138,-216,-104,-369v23,-103,80,-189,204,-191v87,-1,140,43,174,97v64,99,65,305,-3,400v-36,50,-87,90,-171,90v-39,0,-72,-9,-100,-27","w":702},"P":{"d":"366,-708v-87,-29,-204,1,-302,-14r0,687v-1,23,21,44,44,44v23,0,43,-21,42,-44r0,-235v82,-3,166,9,228,-16v91,-37,160,-123,137,-253v-15,-85,-72,-143,-149,-169xm152,-348r0,-295v66,3,139,-9,189,11v65,25,114,110,79,194v-21,51,-67,90,-136,90r-132,0","w":537},"Q":{"d":"352,9v86,-1,155,-33,201,-82r102,102r54,-57r-106,-105v64,-88,79,-237,42,-363v-27,-89,-83,-160,-159,-202v-76,-41,-194,-40,-270,0v-110,59,-179,175,-179,337v0,162,69,281,179,339v39,21,85,31,136,31xm492,-132v-31,38,-78,66,-141,66v-164,0,-220,-139,-220,-302v0,-118,43,-211,118,-259v53,-34,147,-32,201,-1v97,56,138,198,114,348v-5,28,-13,56,-24,84v-22,-22,-45,-46,-69,-66v-36,-29,-81,18,-52,55v20,25,51,53,73,75","w":703},"R":{"d":"108,10v22,0,44,-21,43,-43r0,-285r308,342r65,-54r-272,-289v107,11,194,-31,231,-105v24,-47,23,-121,1,-170v-33,-75,-102,-123,-205,-126v-36,0,-71,1,-107,2v-36,1,-72,-1,-108,-4r0,687v0,24,20,45,44,45xm151,-387r0,-253v61,3,129,-7,177,10v59,21,106,94,74,169v-18,42,-56,74,-113,74r-138,0","w":533},"S":{"d":"360,-612v30,19,69,-2,65,-34v-9,-64,-102,-83,-171,-83v-95,0,-163,48,-198,113v-26,49,-23,129,6,170v63,88,215,88,292,160v29,28,32,83,14,124v-22,51,-66,91,-136,91v-70,0,-108,-34,-164,-51r-43,-18r-25,85r54,19r66,21v65,20,143,36,208,5v78,-37,144,-103,144,-211v0,-135,-119,-175,-226,-212v-39,-13,-75,-32,-98,-61v-12,-14,-18,-32,-18,-54v1,-93,127,-124,201,-79","w":488},"T":{"d":"442,-680v0,-22,-18,-41,-40,-40r-386,0r0,79r159,0r0,605v-1,22,21,44,44,44v23,0,43,-21,42,-44r0,-605r140,0v21,0,41,-17,41,-39","w":440},"U":{"d":"576,-727v-24,0,-43,20,-43,44r0,429v-4,119,-72,189,-191,189v-120,0,-192,-69,-192,-189r0,-469r-86,0r0,468v2,131,69,210,167,247v66,25,155,25,221,0v98,-37,167,-116,167,-247r0,-428v1,-23,-21,-44,-43,-44","w":683},"V":{"d":"556,-664v20,-42,-30,-84,-65,-54v-7,7,-12,15,-15,24r-191,555r-207,-591r-81,30r241,666v10,23,14,42,46,42v32,0,37,-18,46,-42","w":568},"W":{"d":"811,-672v12,-45,-42,-75,-73,-44v-7,8,-11,18,-13,29r-96,585r-169,-592r-87,0r-169,592r-104,-626r-85,15r119,669v4,47,65,68,106,42v12,-8,20,-19,24,-34r152,-547r153,547v7,42,73,59,107,32v11,-9,19,-23,22,-40","w":833},"X":{"d":"544,-660v30,-33,-17,-88,-56,-61v-6,5,-11,10,-16,17r-173,253r-188,-277r-73,44r210,298r-228,325v-31,36,14,88,54,63v7,-4,12,-9,16,-15r209,-304r210,304v7,10,21,22,37,22v35,1,53,-40,32,-70r-228,-325","w":599},"Y":{"d":"495,-663v21,-27,-2,-64,-34,-64v-17,0,-30,7,-39,22r-169,280r-182,-308r-72,46r5,13r205,336r0,302v0,25,18,45,44,45v25,0,45,-20,44,-45r0,-302","w":506},"Z":{"d":"533,-685v-2,-36,-44,-35,-82,-35r-406,0r0,76r371,0r-374,564v-7,10,-10,20,-10,31v-2,37,34,48,67,49r404,0v22,0,45,-17,45,-39v0,-22,-23,-39,-45,-39r-364,0r377,-566v7,-11,17,-25,17,-41","w":576},"[":{"d":"89,-763v-20,-1,-37,20,-37,40r0,726v0,20,17,40,37,40r81,0v19,1,38,-18,37,-37v0,-36,-35,-37,-71,-36r0,-660r54,0r0,-73r-101,0","w":229},"\\":{"d":"50,-720r126,720r63,0r-126,-720r-63,0","w":289},"]":{"d":"159,43v20,1,37,-20,37,-40r0,-726v0,-20,-17,-40,-37,-40r-81,0v-19,-1,-38,18,-37,37v0,36,35,37,71,36r0,660r-54,0r0,73r101,0","w":229},"^":{"d":"50,-174r72,0r166,-303r167,303r72,0r-239,-421","w":577},"_":{"d":"50,217r360,0r0,-27r-360,0r0,27","w":460},"`":{"d":"53,-708v-38,-16,-73,26,-49,59v5,7,12,12,20,15r172,67r28,-74","w":220},"a":{"d":"463,-542v-41,0,-45,31,-44,71v-32,-42,-84,-71,-151,-71v-121,0,-187,80,-216,174v-46,149,13,300,116,353v29,15,62,24,100,24v70,-1,122,-33,150,-82r0,77r85,0r0,-504v0,-21,-18,-42,-40,-42xm414,-344v21,134,-3,283,-141,280v-109,-2,-147,-96,-147,-205v0,-82,29,-149,82,-182v36,-23,105,-24,140,-1v35,23,58,60,66,108","w":567},"b":{"d":"303,-542v-67,1,-122,33,-153,76r0,-299r-86,0r0,732v-1,22,20,44,43,44v41,0,41,-38,40,-79v29,47,81,79,150,79v124,0,187,-79,217,-177v31,-104,5,-227,-44,-290v-36,-46,-88,-86,-167,-86xm297,-66v-138,0,-165,-135,-143,-269v12,-73,51,-131,138,-131v108,0,147,92,147,199v0,79,-25,149,-75,182v-18,13,-40,19,-67,19","w":565},"c":{"d":"282,-464v44,0,83,24,114,40r41,-70v-45,-24,-87,-48,-155,-48v-126,2,-196,76,-229,172v-35,105,-7,235,45,296v46,53,120,94,220,79v33,-4,64,-17,86,-33v29,-22,16,-76,-22,-73v-38,3,-64,31,-106,31v-82,0,-121,-64,-139,-132v-27,-104,7,-205,75,-244v19,-12,43,-18,70,-18","w":450},"d":{"d":"462,9v22,0,43,-20,42,-42r0,-732r-85,0r0,304v-27,-48,-78,-81,-147,-81v-123,0,-190,79,-220,175v-46,147,15,297,114,351v28,16,60,24,96,24v72,-1,126,-35,156,-84v-1,44,-1,85,44,85xm276,-463v112,2,143,97,143,208v0,104,-44,184,-148,184v-106,0,-145,-92,-145,-198v0,-81,29,-146,82,-177v19,-12,42,-17,68,-17","w":568},"e":{"d":"399,-88v-50,16,-121,34,-173,8v-54,-26,-93,-77,-95,-153r324,0v37,-1,53,-8,53,-47v0,-114,-56,-196,-134,-238v-56,-31,-140,-30,-196,0v-83,43,-141,129,-141,250v0,125,56,213,143,256v46,23,117,29,174,14v20,-6,41,-14,64,-23xm129,-299v14,-89,46,-171,148,-171v73,0,111,53,131,110v7,20,10,41,11,61r-290,0","w":538},"f":{"d":"189,-779v-64,0,-107,49,-106,112r0,133v-39,0,-83,-5,-83,36v0,43,43,42,84,39r0,672r85,0r0,-672v41,2,102,9,102,-37v0,-46,-59,-39,-102,-38r0,-138v0,-29,30,-30,61,-30v28,0,47,-9,47,-38v-1,-39,-45,-39,-88,-39","w":253},"g":{"d":"461,-542v-43,0,-43,38,-41,79v-30,-45,-85,-78,-153,-78v-124,0,-184,86,-215,184v-32,105,-7,225,43,287v37,46,89,84,169,84v72,-1,124,-33,154,-82v6,126,-42,215,-165,216v-22,0,-43,-3,-64,-9v-1,12,-3,25,-3,37v0,14,-3,30,-1,43v141,29,255,-40,297,-143v13,-30,19,-64,19,-99r0,-476v0,-21,-18,-43,-40,-43xm344,-82v-35,25,-99,20,-136,0v-87,-47,-106,-227,-47,-319v23,-35,60,-65,117,-63v86,3,134,65,140,152v6,101,-14,188,-74,230","w":565},"h":{"d":"107,-777v-23,0,-44,21,-43,44r0,735r84,0r0,-342v2,-59,33,-100,77,-117v91,-35,175,25,175,119r0,307v-1,22,19,42,41,42v23,0,44,-20,43,-43r0,-306v-1,-94,-45,-158,-112,-188v-24,-10,-51,-15,-81,-15v-62,1,-115,29,-142,70r0,-263v0,-22,-19,-43,-42,-43","w":548},"i":{"d":"109,-542v-24,0,-45,17,-44,42r0,501r84,0r0,-501v0,-21,-18,-42,-40,-42xm106,-696v-21,-1,-36,16,-36,36v-1,18,18,35,36,35v19,0,36,-17,36,-36v0,-19,-18,-35,-36,-35"},"j":{"d":"105,-544v-25,0,-41,21,-41,45r0,711r84,0r0,-712v1,-22,-20,-44,-43,-44xm106,-696v-21,-1,-36,16,-36,36v-1,18,18,35,36,35v19,0,36,-17,36,-36v0,-19,-18,-35,-36,-35","w":212},"k":{"d":"107,-780v-23,0,-44,21,-43,43r0,736r84,1r0,-256r258,264r65,-51r-264,-262r209,-163v10,-7,19,-19,19,-35v0,-25,-31,-50,-57,-34v-6,3,-11,7,-16,11r-213,176r0,-386v1,-23,-19,-44,-42,-44","w":465},"l":{"d":"106,-780v-23,0,-43,21,-42,44r0,738r84,-1r0,-737v1,-23,-19,-44,-42,-44","w":212},"m":{"d":"107,-542v-22,0,-44,21,-43,43r0,499r85,0r0,-353v1,-55,31,-92,71,-107v84,-31,163,22,163,108r0,352r83,0r0,-352v4,-70,47,-117,117,-117v69,0,115,47,115,117r0,318v-1,22,20,43,42,43v23,0,42,-21,42,-43r0,-321v2,-115,-75,-187,-189,-186v-75,1,-135,37,-162,91v-22,-54,-80,-93,-151,-93v-57,0,-109,28,-133,66v1,-35,-4,-65,-40,-65","w":846},"n":{"d":"108,-543v-23,0,-45,20,-44,43r0,501r84,0r0,-341v1,-59,33,-99,76,-117v74,-31,145,13,166,69v7,16,10,33,10,50r0,307v-1,22,19,42,41,42v23,0,44,-20,43,-43r0,-307v-1,-96,-45,-158,-114,-187v-80,-34,-187,-6,-222,55v2,-39,-2,-72,-40,-72","w":548},"o":{"d":"173,-518v-105,53,-166,200,-121,352v20,67,64,121,121,153v57,31,143,30,201,0v103,-54,167,-208,119,-355v-31,-95,-98,-174,-220,-174v-37,0,-70,9,-100,24xm204,-84v-64,-44,-93,-148,-69,-251v16,-69,54,-132,137,-132v128,0,167,141,140,270v-15,71,-55,130,-141,132v-26,0,-49,-6,-67,-19","w":547},"p":{"d":"104,-542v-22,0,-40,23,-40,44r0,710r84,0r0,-278v30,44,84,76,152,76v123,0,186,-82,214,-180v43,-149,-14,-296,-114,-349v-28,-15,-60,-24,-97,-24v-70,1,-126,34,-156,82v2,-42,2,-81,-43,-81xm144,-262v-4,-119,45,-206,151,-206v106,0,145,98,145,203v0,81,-30,147,-82,180v-36,23,-99,24,-135,1v-52,-33,-76,-97,-79,-178","w":566},"q":{"d":"462,-542v-44,0,-45,35,-44,78v-30,-45,-85,-77,-154,-78v-80,0,-133,40,-169,88v-51,66,-76,187,-43,288v20,65,60,119,116,150v28,16,61,24,97,24v68,-1,123,-33,153,-77r0,281r85,0r0,-711v1,-22,-19,-43,-41,-43xm273,-467v133,0,169,145,140,281v-15,67,-58,119,-141,119v-107,0,-146,-96,-146,-203v0,-106,39,-197,147,-197","w":567},"r":{"d":"107,-540v-22,0,-44,19,-43,42r0,500r85,-1r0,-276v0,-83,23,-134,73,-162v20,-11,47,-20,63,-34v28,-25,-1,-76,-38,-72v-55,5,-82,49,-100,91r3,-51v1,-22,-23,-37,-43,-37","w":273},"s":{"d":"341,-423v29,19,63,0,63,-31v-1,-37,-41,-55,-72,-67v-50,-19,-115,-29,-172,-11v-61,20,-115,58,-117,136v-1,58,37,89,75,112v58,35,141,50,190,91v23,19,27,55,12,81v-27,47,-121,57,-174,26v-25,-14,-47,-31,-69,-47r-54,57v50,61,158,104,266,74v68,-19,126,-61,128,-145v1,-61,-37,-95,-75,-121v-56,-37,-137,-55,-190,-92v-14,-10,-22,-21,-22,-36v0,-65,79,-83,139,-63v28,10,49,22,72,36","w":446},"t":{"d":"126,-700v-24,0,-42,23,-42,46r0,120v-40,0,-81,-3,-81,38v0,41,43,38,82,37r0,459r84,0r0,-459v38,1,85,4,85,-37v0,-43,-46,-39,-86,-38r1,-120v1,-22,-20,-46,-43,-46","w":248},"u":{"d":"275,-66v-87,0,-125,-49,-126,-134r0,-323r-85,1r0,324v-1,135,77,207,211,207v134,0,212,-72,211,-207r0,-300v1,-23,-19,-44,-42,-44v-22,0,-43,21,-42,43r0,299v-1,85,-40,134,-127,134","w":550},"v":{"d":"425,-498v2,-31,-41,-57,-67,-34v-6,6,-12,13,-15,22r-125,376r-139,-407r-80,26r174,491v6,30,48,45,72,24v23,-20,19,-35,34,-76r71,-195r64,-187v7,-23,11,-36,11,-40","w":433},"w":{"d":"750,-484v16,-39,-31,-76,-66,-50v-8,6,-14,14,-17,23r-121,384r-118,-372r-94,0r-119,372r-129,-414r-83,27r160,477v8,24,19,47,51,46v30,0,41,-21,49,-43r118,-369r117,369v8,22,19,43,49,43v33,0,43,-22,51,-46","w":761},"x":{"d":"435,-473v30,-34,-13,-89,-53,-62v-7,5,-12,10,-17,17r-127,171r-145,-194r-70,45r163,212r-166,222v-22,26,-4,72,31,70v18,0,31,-11,39,-23r148,-205r148,205v8,12,21,23,39,23v35,2,52,-42,31,-70r-166,-222","w":476},"y":{"d":"424,-501v2,-32,-45,-56,-69,-31v-7,7,-12,16,-15,25r-122,374r-134,-401r-82,26r172,491r-40,101v-10,29,-28,70,-31,97v-4,34,48,55,69,29v18,-23,17,-34,32,-73r186,-529v11,-30,19,-54,25,-74v6,-20,9,-32,9,-35","w":433},"z":{"d":"413,-473v20,-24,4,-61,-30,-61r-345,0r0,77r265,0r-268,395v-20,27,-1,62,31,62r323,0v22,0,44,-16,44,-39v0,-22,-22,-38,-44,-38r-245,0","w":451},"{":{"d":"112,-431v0,38,-25,70,-62,71v37,3,62,32,62,71r0,335v-1,69,71,69,142,66r0,-37v-34,0,-59,-1,-66,-27v-2,-8,-4,-19,-4,-34r0,-296v0,-39,-29,-76,-67,-78v38,-2,67,-39,67,-78r0,-296v-3,-56,26,-65,74,-62v9,0,13,-4,13,-15v0,-11,-5,-22,-17,-21r-64,0v-43,0,-78,20,-78,66r0,335","w":321},"|":{"d":"50,0r63,0r0,-720r-63,0r0,720","w":163},"}":{"d":"209,-766v1,-46,-34,-66,-77,-66r-65,0v-10,0,-17,9,-17,18v-2,24,22,18,43,19v34,1,44,23,44,61r0,296v0,39,30,76,68,78v-38,3,-68,38,-68,78r0,296v0,36,-6,57,-37,60v-9,1,-20,1,-33,1r0,37r65,0v43,0,77,-20,77,-66r0,-335v0,-39,25,-68,62,-71v-37,-1,-62,-33,-62,-71r0,-335","w":321},"~":{"d":"140,-418v-67,0,-91,56,-90,126r50,0v2,-24,9,-57,38,-56v71,4,109,55,181,55v67,0,91,-55,90,-125r-50,0v-2,25,-10,58,-39,56v-71,-3,-108,-56,-180,-56","w":459},"\u00a0":{"w":255},"\u00a1":{"d":"105,-735v-27,0,-53,23,-53,51v0,30,22,54,52,54v30,0,54,-22,54,-52v0,-29,-24,-53,-53,-53xm104,14v22,0,44,-21,43,-43r0,-494r-83,1r0,494v-1,22,18,42,40,42","w":210},"\u00a2":{"d":"249,-624v-33,5,-19,55,-19,86v-97,19,-155,92,-181,181v-39,136,12,268,95,327v24,18,53,29,86,33r-2,39v1,19,1,43,21,43v29,0,18,-50,18,-78v54,-2,107,-29,148,-46r-31,-62v-35,11,-69,34,-117,26r0,-388v49,-10,76,23,118,27v33,3,54,-50,23,-72v-33,-23,-86,-39,-141,-35v0,-29,11,-76,-18,-81xm230,-84v-83,-36,-116,-134,-96,-245v11,-59,42,-108,96,-126r0,371","w":450},"\u00a3":{"d":"103,-556v0,66,26,109,49,156r-81,0v-22,-1,-42,18,-42,40v0,22,20,39,42,39r104,0v12,44,8,98,-11,135v-21,42,-52,80,-79,110v-12,13,-18,25,-18,34v-1,22,21,43,43,42r446,0r-1,-80r-372,0v47,-42,84,-101,87,-185v0,-21,-6,-37,-7,-57r137,0r0,-79r-157,0v-19,-44,-51,-81,-51,-140v0,-74,53,-110,127,-113v68,-2,124,41,147,105v6,19,19,38,42,37v51,-1,49,-63,27,-102v-50,-89,-167,-152,-297,-112v-75,23,-135,75,-135,170","w":596},"\u00a4":{"d":"609,-613v-37,-70,-111,-118,-212,-118v-185,0,-273,118,-309,272v-31,-4,-53,12,-61,33v-7,19,4,35,22,34r29,0r-1,59r-57,0r-24,66r89,0v24,122,89,213,194,255v91,38,233,25,299,-25v17,-12,43,-26,43,-55v0,-33,-35,-55,-65,-33v-38,28,-87,55,-156,54v-133,-3,-193,-88,-221,-196r243,0v27,-1,59,-29,44,-57v-4,-7,-12,-9,-21,-9r-276,0v0,-20,-2,-40,0,-59r306,0r23,-67r-318,0v30,-115,109,-214,262,-185v52,10,84,45,117,76","w":609},"\u00a5":{"d":"531,-663v21,-27,-2,-64,-34,-64v-17,0,-30,7,-39,22r-169,280r-169,-280v-7,-13,-22,-22,-40,-22v-31,-1,-52,35,-34,64r153,252r-125,1r-1,48r156,-1r14,25r2,20r-172,0r0,49r171,-1r1,272r88,0r-2,-272r162,-1v13,0,25,-11,25,-24v1,-14,-12,-24,-25,-24r-162,0r0,-19r15,-25r146,-1v14,0,26,-10,26,-24v0,-14,-12,-24,-26,-24r-114,0","w":578},"\u00a6":{"d":"254,-579v30,0,54,-22,54,-52v0,-30,-25,-53,-54,-53v-28,0,-51,26,-51,53v0,26,24,52,51,52xm486,-68v26,22,69,-8,54,-42v-2,-4,-4,-8,-7,-13r-87,-143r88,-143v17,-24,5,-63,-25,-63v-17,0,-32,12,-39,24r-97,165v-11,18,5,37,12,50r85,147v4,7,10,13,16,18xm65,-579v27,0,51,-26,51,-53v0,-27,-24,-52,-51,-52v-30,0,-54,23,-54,53v0,30,24,52,54,52xm173,-542v-25,0,-45,17,-44,42r0,501r84,0r0,-501v1,-20,-19,-42,-40,-42xm88,52v-40,-21,-81,18,-58,56v5,7,11,13,18,16r118,46v13,5,27,-2,37,-5r104,-41v13,-6,24,-19,24,-37v0,-31,-32,-49,-65,-35r-88,37xm281,-629v0,7,-4,11,-11,11v-7,0,-11,-4,-11,-11v0,-7,4,-11,11,-11v7,0,11,4,11,11xm97,-626v0,7,-4,11,-11,11v-7,0,-11,-4,-11,-11v0,-7,4,-11,11,-11v7,0,11,4,11,11","w":647},"\u00a7":{"d":"75,-575v0,52,28,99,62,121v-54,35,-103,87,-106,170v-3,84,43,130,93,165v71,50,177,71,240,126v18,15,27,35,27,58v-2,65,-65,78,-129,79v-63,1,-100,-18,-115,-62v-9,-26,-7,-61,-42,-61v-58,0,-52,83,-27,119v46,67,157,101,264,76v76,-18,137,-63,138,-156v0,-53,-30,-98,-64,-121v64,-29,122,-80,122,-169v0,-79,-47,-122,-96,-156v-75,-51,-186,-74,-250,-132v-18,-16,-27,-37,-27,-60v2,-81,109,-90,185,-75v58,12,79,63,110,103r63,-42v-50,-83,-91,-149,-225,-145v-122,3,-223,39,-223,162xm204,-412r156,77v44,22,92,48,92,111v0,54,-42,79,-78,101v-14,7,-27,13,-40,17r-129,-65v-51,-24,-119,-72,-87,-149v16,-40,50,-72,86,-92","w":571},"\u00a8":{"d":"25,-684v-30,0,-54,23,-54,53v0,30,25,52,54,52v28,0,52,-26,52,-53v0,-27,-25,-52,-52,-52xm214,-684v-28,0,-51,26,-51,53v0,26,24,52,51,52v30,0,54,-22,54,-52v0,-30,-24,-53,-54,-53","w":239},"\u00a9":{"d":"86,-506v-39,89,-39,201,0,290v39,90,108,159,198,198v89,39,201,39,290,0v90,-39,159,-108,198,-198v39,-89,39,-201,0,-290v-39,-90,-108,-159,-198,-198v-89,-39,-201,-39,-290,0v-90,39,-159,108,-198,198xm128,-233v-33,-79,-33,-177,0,-256v49,-113,146,-203,301,-203v154,0,251,91,301,204v34,79,34,176,0,255v-34,80,-95,142,-174,177v-78,35,-178,35,-256,0v-79,-35,-139,-97,-172,-177xm527,-500v19,13,46,2,44,-20v-5,-53,-74,-68,-129,-68v-136,0,-201,97,-201,233v0,101,45,172,115,207v60,29,164,18,208,-15v22,-16,22,-59,-9,-60v-37,10,-63,39,-113,37v-115,-2,-156,-118,-131,-233v16,-71,77,-133,166,-107v20,6,34,15,50,26","w":858},"\u00aa":{"d":"386,-298v0,-13,-10,-24,-23,-24r-286,0r-1,46r287,0v12,0,23,-10,23,-22xm342,-732v-31,0,-31,21,-32,47v-28,-44,-110,-61,-166,-31v-68,36,-109,139,-79,237v20,64,62,118,144,118v45,0,83,-23,101,-54r0,44r62,1r0,-330v0,-16,-13,-32,-30,-32xm311,-551v0,74,-21,135,-96,135v-71,0,-96,-62,-96,-132v0,-69,28,-129,98,-129v70,0,94,57,94,126","w":436},"\u00ab":{"d":"204,-409v17,-24,5,-63,-25,-63v-17,0,-32,12,-39,24r-97,165v-7,15,-4,18,5,37v33,64,74,130,111,191r63,-37r-106,-174xm359,-409v17,-24,5,-63,-25,-63v-17,0,-32,12,-39,24r-98,165v-7,15,-4,18,5,37v33,64,74,130,111,191r64,-37r-107,-174","w":407},"\u00ac":{"d":"50,-360r414,0r0,144r54,0r0,-207r-468,0r0,63","w":568},"\u00ad":{"d":"321,-289v0,-21,-17,-40,-38,-39r-239,0r1,78r238,0v21,1,38,-18,38,-39","w":360},"\u00ae":{"d":"86,-506v-39,89,-39,201,0,290v39,90,108,159,198,198v89,39,201,39,290,0v90,-39,159,-108,198,-198v39,-89,39,-201,0,-290v-39,-90,-108,-159,-198,-198v-89,-39,-201,-39,-290,0v-90,39,-159,108,-198,198xm128,-233v-33,-79,-33,-177,0,-256v49,-113,146,-203,301,-203v154,0,251,91,301,204v34,79,34,176,0,255v-34,80,-95,142,-174,177v-78,35,-178,35,-256,0v-79,-35,-139,-97,-172,-177xm332,-586v-17,0,-31,14,-31,31r0,390v-1,15,15,31,30,30v15,0,31,-13,30,-29r0,-171r169,189v15,22,53,8,52,-18v0,-7,-3,-14,-8,-19r-145,-153v66,8,112,-21,135,-64v28,-51,3,-124,-28,-150v-24,-20,-56,-36,-98,-36r-106,0xm516,-457v2,42,-31,76,-73,76r-82,0r0,-150r75,0v46,3,78,29,80,74","w":858},"\u00af":{"d":"293,-626v0,-22,-19,-41,-41,-40r-212,0v-22,-1,-40,18,-40,40v0,22,19,39,41,39r210,1v22,1,42,-18,42,-40","w":291},"\u00b0":{"d":"235,-724v-117,-44,-218,61,-175,174v22,59,98,101,174,72v58,-23,103,-100,72,-175v-14,-32,-39,-59,-71,-71xm183,-511v-49,0,-90,-41,-90,-90v0,-49,41,-90,90,-90v49,0,90,41,90,90v0,49,-41,90,-90,90","w":366},"\u00b1":{"d":"506,-87r-462,0r0,68r462,0r0,-68xm309,-453r-68,0r0,122r-197,0r0,68r197,0r0,122r68,0r0,-122r197,0r0,-68r-197,0r0,-122","w":618},"\u00b4":{"d":"8,-638v-20,26,3,68,34,63v63,-11,125,-47,182,-69r-28,-75r-168,66v-8,3,-15,8,-20,15","w":224},"\u00b5":{"d":"230,-34v-61,1,-65,-59,-64,-119r0,-296r-92,0r0,248r3,193r-4,145v0,38,6,71,43,72v44,0,48,-43,32,-82r-22,-55v-18,-45,-38,-101,-31,-166v15,56,43,105,113,103v104,-2,133,-89,158,-172v2,85,16,172,102,172v73,0,94,-64,89,-139r-21,0v0,43,-2,96,-43,96v-37,0,-38,-49,-38,-87r0,-328r-92,0v0,27,0,55,1,84v2,125,-14,239,-76,305v-14,14,-32,26,-58,26","w":604},"\u00b6":{"d":"561,-694v0,-14,-13,-26,-27,-26r-290,0v-92,3,-149,53,-179,120v-20,47,-20,105,0,152v30,67,87,117,179,120r69,0r0,539r55,0r1,-878r66,-1r-1,880r56,-1r1,-879v29,0,70,6,70,-26","w":611},"\u00b7":{"d":"106,-315v-28,0,-52,26,-52,53v0,27,26,52,53,52v28,0,53,-24,53,-52v0,-30,-25,-53,-54,-53"},"\u00b8":{"d":"18,116v-1,25,31,47,54,30v6,-4,11,-9,14,-15r76,-161r-77,0r-55,99v-8,14,-12,30,-12,47","w":162},"\u00ba":{"d":"377,-300v0,-13,-11,-23,-24,-23r-278,0r0,47r278,0v13,0,24,-11,24,-24xm148,-716v-72,35,-116,134,-83,237v21,65,67,119,150,119v82,0,129,-53,150,-116v33,-101,-12,-203,-81,-240v-38,-20,-97,-19,-136,0xm310,-540v0,68,-29,124,-97,124v-129,0,-120,-262,0,-260v72,2,97,64,97,136","w":427},"\u00bb":{"d":"48,-122v-17,24,-6,64,25,63v17,0,32,-12,39,-24r97,-164v7,-16,4,-18,-5,-38v-32,-68,-79,-132,-116,-197r-63,38r111,179xm203,-122v-16,24,-7,64,25,63v18,0,32,-11,39,-24r97,-164v7,-16,6,-19,-5,-38r-52,-93r-64,-104r-64,38r112,179","w":407},"\u00bf":{"d":"217,-735v-26,0,-52,23,-52,50v0,29,22,54,52,54v28,0,53,-24,53,-52v0,-30,-24,-52,-53,-52xm88,-172v-26,-24,-64,4,-64,39v0,34,21,60,36,81v56,81,232,86,307,19v35,-31,66,-75,64,-139v-3,-114,-73,-176,-173,-195r0,-156r-83,0r0,195v3,36,51,34,81,44v47,16,81,45,81,110v0,117,-182,144,-223,50v-7,-17,-14,-37,-26,-48","w":464},"\u00c0":{"d":"350,-770v44,25,88,-14,62,-54v-12,-19,-26,-17,-52,-28r-47,-20v-24,-9,-55,-22,-78,-25v-32,-3,-50,37,-31,62v12,16,33,22,52,29xm15,-55v-21,41,23,84,61,57v7,-6,13,-13,16,-22r51,-135r332,0r63,165r86,-25r-251,-659v-14,-32,-23,-54,-67,-54v-35,-1,-51,28,-61,54xm167,-231r142,-393r141,393r-283,0","w":618},"\u00c1":{"d":"414,-834v19,-26,-1,-67,-32,-63v-54,8,-107,41,-157,58v-14,6,-27,20,-27,39v0,35,36,48,72,32v14,-6,30,-11,46,-18r79,-33v8,-3,14,-8,19,-15xm15,-55v-21,41,23,84,61,57v7,-6,13,-13,16,-22r51,-135r332,0r63,165r86,-25r-251,-659v-14,-32,-23,-54,-67,-54v-35,-1,-51,28,-61,54xm167,-231r142,-393r141,393r-283,0","w":618},"\u00c2":{"d":"398,-768v33,16,65,-4,66,-35v0,-19,-8,-31,-25,-38r-119,-45v-13,-5,-25,1,-34,5r-106,42v-17,7,-26,19,-26,38v-1,22,18,41,39,39v41,-4,82,-30,116,-43xm15,-55v-21,41,23,84,61,57v7,-6,13,-13,16,-22r51,-135r332,0r63,165r86,-25r-251,-659v-14,-32,-23,-54,-67,-54v-35,-1,-51,28,-61,54xm167,-231r142,-393r141,393r-283,0","w":618},"\u00c3":{"d":"456,-812v0,-22,-19,-41,-41,-40r-212,0v-22,-1,-40,18,-40,40v0,22,19,41,41,40r210,0v22,1,42,-18,42,-40xm167,-231r142,-393r141,393r-283,0xm15,-55v-21,41,23,84,61,57v7,-6,13,-13,16,-22r51,-135r332,0r63,165r86,-25r-251,-659v-14,-32,-23,-54,-67,-54v-35,-1,-51,28,-61,54","w":618},"\u00c4":{"d":"191,-786v-29,0,-52,23,-52,52v0,28,24,50,52,50v26,0,50,-25,50,-51v0,-26,-24,-51,-50,-51xm427,-786v-30,0,-51,24,-51,53v0,26,24,49,50,49v29,0,52,-20,52,-50v0,-27,-24,-52,-51,-52xm15,-55v-21,41,23,84,61,57v7,-6,13,-13,16,-22r51,-135r332,0r63,165r86,-25r-251,-659v-14,-32,-23,-54,-67,-54v-35,-1,-51,28,-61,54xm167,-231r142,-393r141,393r-283,0","w":618},"\u00c5":{"d":"223,-801v0,39,26,70,58,79v-18,8,-29,29,-36,48r-230,619v-21,41,23,84,61,57v7,-6,13,-13,16,-22r51,-135r332,0r63,165r86,-25r-251,-659v-7,-19,-16,-41,-37,-48v32,-10,60,-39,59,-79v-2,-51,-36,-82,-86,-84v-45,-2,-86,39,-86,84xm309,-763v-21,1,-38,-18,-38,-39v0,-21,18,-37,39,-37v21,-1,38,17,38,38v0,22,-18,38,-39,38xm167,-231r142,-393r141,393r-283,0","w":617},"\u00c6":{"d":"709,-359v0,-21,-15,-41,-37,-40r-199,0r0,-242r210,0r0,-79r-307,0v-33,0,-38,14,-50,38r-336,658r75,34r86,-164r234,0r0,108v0,26,19,47,45,46r260,0v21,0,40,-18,40,-40v0,-22,-18,-39,-40,-39r-219,0r0,-240r198,0v21,0,41,-18,40,-40xm188,-229r197,-390r0,390r-197,0","w":766},"\u00c7":{"d":"569,-613v-37,-70,-111,-118,-212,-118v-170,0,-258,104,-300,237v-42,135,-12,299,53,381v48,61,116,112,214,121v-19,23,-52,41,-56,76v-3,33,46,38,65,14r69,-90v56,-8,120,-32,158,-60v33,-25,24,-83,-18,-83v-23,0,-41,21,-63,32v-32,15,-69,33,-119,32v-127,-2,-191,-82,-218,-184v-40,-152,9,-308,108,-368v50,-31,142,-33,194,-5v28,15,52,39,75,60","w":596},"\u00c8":{"d":"264,-770v44,25,88,-14,62,-54v-12,-19,-26,-17,-52,-28r-47,-20v-24,-9,-55,-22,-78,-25v-32,-3,-50,37,-31,62v12,16,33,22,52,29xm401,-681v0,-21,-19,-40,-40,-39r-274,0v-7,0,-15,-1,-22,-2r-1,675v0,27,17,48,44,47r323,0r0,-79r-279,0r0,-241r198,0v22,1,40,-18,40,-40v0,-22,-19,-39,-41,-39r-197,0r0,-242r208,0v22,1,41,-18,41,-40","w":447},"\u00c9":{"d":"328,-834v19,-26,-1,-67,-32,-63v-54,8,-107,41,-157,58v-14,6,-27,20,-27,39v0,35,36,48,72,32v14,-6,30,-11,46,-18r79,-33v8,-3,14,-8,19,-15xm401,-681v0,-21,-19,-40,-40,-39r-274,0v-7,0,-15,-1,-22,-2r-1,675v0,27,17,48,44,47r323,0r0,-79r-279,0r0,-241r198,0v22,1,40,-18,40,-40v0,-22,-19,-39,-41,-39r-197,0r0,-242r208,0v22,1,41,-18,41,-40","w":447},"\u00ca":{"d":"109,-720v-25,-1,-46,20,-45,45r0,628v0,27,17,48,44,47r263,0v21,1,40,-18,40,-39v0,-22,-19,-41,-41,-40r-218,0r0,-241r198,0v22,1,40,-18,40,-40v0,-22,-19,-39,-41,-39r-197,0r0,-242r208,0v22,1,41,-18,41,-40v0,-21,-19,-40,-40,-39r-252,0xm312,-768v33,16,65,-4,66,-35v0,-19,-8,-31,-25,-38r-119,-45v-13,-5,-25,1,-34,5r-106,42v-17,7,-26,19,-26,38v-1,22,18,41,39,39v41,-4,82,-30,116,-43","w":447},"\u00cb":{"d":"129,-870v-30,0,-54,23,-54,53v0,30,25,52,54,52v28,0,52,-26,52,-53v0,-27,-25,-52,-52,-52xm318,-870v-28,0,-51,26,-51,53v0,26,24,52,51,52v30,0,54,-22,54,-52v0,-30,-24,-53,-54,-53xm401,-681v0,-21,-19,-40,-40,-39r-274,0v-7,0,-15,-1,-22,-2r-1,675v0,27,17,48,44,47r323,0r0,-79r-279,0r0,-241r198,0v22,1,40,-18,40,-40v0,-22,-19,-39,-41,-39r-197,0r0,-242r208,0v22,1,41,-18,41,-40","w":447},"\u00cc":{"d":"148,-770v44,25,88,-14,62,-54v-12,-19,-26,-17,-52,-28r-47,-20v-24,-9,-55,-22,-78,-25v-32,-3,-50,37,-31,62v12,16,33,22,52,29xm108,-728v-23,0,-45,21,-44,44r0,684r86,0r0,-684v1,-23,-19,-44,-42,-44"},"\u00cd":{"d":"212,-834v19,-26,-1,-67,-32,-63v-54,8,-107,41,-157,58v-14,6,-27,20,-27,39v0,35,36,48,72,32v14,-6,30,-11,46,-18r79,-33v8,-3,14,-8,19,-15xm108,-728v-23,0,-45,21,-44,44r0,684r86,0r0,-684v1,-23,-19,-44,-42,-44"},"\u00ce":{"d":"196,-768v33,16,65,-4,66,-35v0,-19,-8,-31,-25,-38r-119,-45v-13,-5,-25,1,-34,5r-106,42v-17,7,-26,19,-26,38v-1,22,18,41,39,39v41,-4,82,-30,116,-43xm108,-728v-23,0,-45,21,-44,44r0,684r86,0r0,-684v1,-23,-19,-44,-42,-44"},"\u00cf":{"d":"13,-870v-30,0,-54,23,-54,53v0,30,25,52,54,52v28,0,52,-26,52,-53v0,-27,-25,-52,-52,-52xm202,-870v-28,0,-51,26,-51,53v0,26,24,52,51,52v30,0,54,-22,54,-52v0,-30,-24,-53,-54,-53xm108,-728v-23,0,-45,21,-44,44r0,684r86,0r0,-684v1,-23,-19,-44,-42,-44"},"\u00d1":{"d":"487,-812v0,-22,-19,-41,-41,-40r-212,0v-22,-1,-40,18,-40,40v0,22,19,39,41,39r210,1v22,1,42,-18,42,-40xm144,-710v-21,-36,-80,-16,-80,25r0,684r86,1r0,-572r387,563v21,35,79,17,79,-24r0,-651v0,-24,-20,-45,-44,-45v-22,0,-43,23,-42,45r1,536","w":680},"\u00d2":{"d":"117,-616v-69,82,-104,251,-60,392v27,90,81,160,158,202v76,41,195,41,271,0v109,-59,179,-176,179,-338v0,-161,-68,-279,-177,-338v-75,-41,-197,-41,-272,0v-39,21,-71,49,-99,82xm392,-770v44,25,88,-14,62,-54v-12,-19,-26,-17,-52,-28r-47,-20v-24,-9,-55,-22,-78,-25v-32,-3,-50,37,-31,62v12,16,33,22,52,29xm248,-93v-98,-60,-138,-216,-104,-369v23,-103,80,-189,204,-191v87,-1,140,43,174,97v64,99,65,305,-3,400v-36,50,-87,90,-171,90v-39,0,-72,-9,-100,-27","w":702},"\u00d3":{"d":"117,-616v-69,82,-104,251,-60,392v27,90,81,160,158,202v76,41,195,41,271,0v109,-59,179,-176,179,-338v0,-161,-68,-279,-177,-338v-75,-41,-197,-41,-272,0v-39,21,-71,49,-99,82xm456,-834v19,-26,-1,-67,-32,-63v-54,8,-107,41,-157,58v-14,6,-27,20,-27,39v0,35,36,48,72,32v14,-6,30,-11,46,-18r79,-33v8,-3,14,-8,19,-15xm248,-93v-98,-60,-138,-216,-104,-369v23,-103,80,-189,204,-191v87,-1,140,43,174,97v64,99,65,305,-3,400v-36,50,-87,90,-171,90v-39,0,-72,-9,-100,-27","w":702},"\u00d4":{"d":"117,-616v-69,82,-104,251,-60,392v27,90,81,160,158,202v76,41,195,41,271,0v109,-59,179,-176,179,-338v0,-161,-68,-279,-177,-338v-75,-41,-197,-41,-272,0v-39,21,-71,49,-99,82xm440,-768v33,16,65,-4,66,-35v0,-19,-8,-31,-25,-38r-119,-45v-13,-5,-25,1,-34,5r-106,42v-17,7,-26,19,-26,38v-1,22,18,41,39,39v41,-4,82,-30,116,-43xm248,-93v-98,-60,-138,-216,-104,-369v23,-103,80,-189,204,-191v87,-1,140,43,174,97v64,99,65,305,-3,400v-36,50,-87,90,-171,90v-39,0,-72,-9,-100,-27","w":702},"\u00d5":{"d":"117,-616v-69,82,-104,251,-60,392v27,90,81,160,158,202v76,41,195,41,271,0v109,-59,179,-176,179,-338v0,-161,-68,-279,-177,-338v-75,-41,-197,-41,-272,0v-39,21,-71,49,-99,82xm498,-812v0,-22,-19,-41,-41,-40r-212,0v-22,-1,-40,18,-40,40v0,22,19,39,41,39r210,1v22,1,42,-18,42,-40xm248,-93v-98,-60,-138,-216,-104,-369v23,-103,80,-189,204,-191v87,-1,140,43,174,97v64,99,65,305,-3,400v-36,50,-87,90,-171,90v-39,0,-72,-9,-100,-27","w":702},"\u00d6":{"d":"117,-616v-69,82,-104,251,-60,392v27,90,81,160,158,202v76,41,195,41,271,0v109,-59,179,-176,179,-338v0,-161,-68,-279,-177,-338v-75,-41,-197,-41,-272,0v-39,21,-71,49,-99,82xm115,-790v-27,0,-51,23,-50,49v0,28,21,52,49,52v27,0,51,-24,51,-50v0,-27,-24,-51,-50,-51xm588,-791v-30,0,-51,24,-51,53v0,26,25,49,51,49v27,0,50,-25,50,-52v0,-26,-23,-50,-50,-50xm248,-93v-98,-60,-138,-216,-104,-369v23,-103,80,-189,204,-191v87,-1,140,43,174,97v64,99,65,305,-3,400v-36,50,-87,90,-171,90v-39,0,-72,-9,-100,-27","w":702},"\u00d8":{"d":"667,-682v28,-31,-11,-72,-39,-42v-21,23,-49,55,-68,79v-50,-50,-121,-85,-212,-85v-164,0,-251,105,-291,234v-42,134,-18,291,53,380r-85,103r42,40r82,-99v46,49,113,82,199,82v164,0,254,-103,296,-230v43,-130,18,-288,-45,-381r45,-51v9,-11,15,-21,23,-30xm170,-185v-58,-98,-47,-279,10,-369v33,-53,83,-98,167,-97v68,1,124,29,158,70xm538,-531v47,106,44,283,-17,371v-34,49,-85,90,-166,90v-67,-1,-117,-26,-152,-64","w":703},"\u00d9":{"d":"382,-770v44,25,88,-14,62,-54v-12,-19,-26,-17,-52,-28r-47,-20v-24,-9,-55,-22,-78,-25v-32,-3,-50,37,-31,62v12,16,33,22,52,29xm576,-727v-24,0,-43,20,-43,44r0,429v-4,119,-72,189,-191,189v-120,0,-192,-69,-192,-189r0,-469r-86,0r0,468v2,131,71,210,168,247v66,25,154,25,220,0v98,-37,167,-116,167,-247r0,-428v1,-23,-21,-44,-43,-44","w":683},"\u00da":{"d":"446,-834v19,-26,-1,-67,-32,-63v-54,8,-107,41,-157,58v-14,6,-27,20,-27,39v0,35,36,48,72,32v14,-6,30,-11,46,-18r79,-33v8,-3,14,-8,19,-15xm576,-727v-24,0,-43,20,-43,44r0,429v-4,119,-72,189,-191,189v-120,0,-192,-69,-192,-189r0,-469r-86,0r0,468v2,131,71,210,168,247v66,25,154,25,220,0v98,-37,167,-116,167,-247r0,-428v1,-23,-21,-44,-43,-44","w":683},"\u00db":{"d":"430,-768v33,16,65,-4,66,-35v0,-19,-8,-31,-25,-38r-119,-45v-13,-5,-25,1,-34,5r-106,42v-17,7,-26,19,-26,38v-1,22,18,41,39,39v41,-4,82,-30,116,-43xm576,-727v-24,0,-43,20,-43,44r0,429v-4,119,-72,189,-191,189v-120,0,-192,-69,-192,-189r0,-469r-86,0r0,468v2,131,71,210,168,247v66,25,154,25,220,0v98,-37,167,-116,167,-247r0,-428v1,-23,-21,-44,-43,-44","w":683},"\u00dc":{"d":"262,-787v-27,0,-51,24,-51,51v0,29,20,52,50,52v28,0,51,-24,51,-52v0,-26,-23,-51,-50,-51xm421,-786v-28,0,-50,23,-50,51v0,26,24,51,50,51v27,0,51,-24,51,-51v0,-27,-24,-51,-51,-51xm576,-727v-24,0,-43,20,-43,44r0,429v-4,119,-72,189,-191,189v-120,0,-192,-69,-192,-189r0,-469r-86,0r0,468v2,131,71,210,168,247v66,25,154,25,220,0v98,-37,167,-116,167,-247r0,-428v1,-23,-21,-44,-43,-44","w":683},"\u00df":{"d":"267,-777v-138,0,-203,87,-203,224r0,765r84,0r0,-777v2,-80,36,-135,117,-135v73,0,108,58,108,131v0,74,-30,103,-93,120v-13,14,-23,10,-23,36v0,40,51,35,84,47v55,21,84,62,84,142v0,81,-23,125,-82,142v-35,10,-82,4,-82,47v0,34,32,45,65,45v101,0,152,-73,176,-152v39,-128,-16,-254,-120,-283v65,-35,95,-142,62,-229v-27,-70,-83,-123,-177,-123","w":559},"\u00e0":{"d":"324,-584v44,25,88,-14,62,-54v-12,-19,-26,-17,-52,-28r-47,-20v-24,-9,-55,-22,-78,-25v-32,-3,-50,37,-31,62v12,16,33,22,52,29xm463,-542v-41,0,-45,31,-44,71v-32,-42,-84,-71,-151,-71v-121,0,-187,80,-216,174v-46,149,13,300,116,353v29,15,62,24,100,24v70,-1,122,-33,150,-82r0,77r85,0r0,-504v0,-21,-18,-42,-40,-42xm414,-344v21,134,-3,283,-141,280v-109,-2,-147,-96,-147,-205v0,-82,29,-149,82,-182v36,-23,105,-24,140,-1v35,23,58,60,66,108","w":567},"\u00e1":{"d":"388,-648v19,-26,-1,-67,-32,-63v-54,8,-107,41,-157,58v-14,6,-27,20,-27,39v0,35,36,48,72,32v14,-6,30,-11,46,-18r79,-33v8,-3,14,-8,19,-15xm463,-542v-41,0,-45,31,-44,71v-32,-42,-84,-71,-151,-71v-121,0,-187,80,-216,174v-46,149,13,300,116,353v29,15,62,24,100,24v70,-1,122,-33,150,-82r0,77r85,0r0,-504v0,-21,-18,-42,-40,-42xm414,-344v21,134,-3,283,-141,280v-109,-2,-147,-96,-147,-205v0,-82,29,-149,82,-182v36,-23,105,-24,140,-1v35,23,58,60,66,108","w":567},"\u00e2":{"d":"372,-582v33,16,65,-4,66,-35v0,-19,-8,-31,-25,-38r-119,-45v-13,-5,-25,1,-34,5r-106,42v-17,7,-26,19,-26,38v-1,22,18,41,39,39v41,-4,82,-30,116,-43xm463,-542v-41,0,-45,31,-44,71v-32,-42,-84,-71,-151,-71v-121,0,-187,80,-216,174v-46,149,13,300,116,353v29,15,62,24,100,24v70,-1,122,-33,150,-82r0,77r85,0r0,-504v0,-21,-18,-42,-40,-42xm414,-344v21,134,-3,283,-141,280v-109,-2,-147,-96,-147,-205v0,-82,29,-149,82,-182v36,-23,105,-24,140,-1v35,23,58,60,66,108","w":567},"\u00e3":{"d":"430,-626v0,-22,-19,-41,-41,-40r-212,0v-22,-1,-40,18,-40,40v0,22,19,39,41,39r210,1v22,1,42,-18,42,-40xm463,-542v-41,0,-45,31,-44,71v-32,-42,-84,-71,-151,-71v-121,0,-187,80,-216,174v-46,149,13,300,116,353v29,15,62,24,100,24v70,-1,122,-33,150,-82r0,77r85,0r0,-504v0,-21,-18,-42,-40,-42xm414,-344v21,134,-3,283,-141,280v-109,-2,-147,-96,-147,-205v0,-82,29,-149,82,-182v36,-23,105,-24,140,-1v35,23,58,60,66,108","w":567},"\u00e4":{"d":"194,-706v-27,0,-53,24,-53,52v0,30,23,55,53,55v30,0,53,-24,53,-53v0,-29,-23,-54,-53,-54xm384,-706v-29,0,-53,24,-53,53v0,30,23,54,53,54v30,0,53,-24,53,-53v0,-30,-24,-54,-53,-54xm463,-542v-41,0,-45,31,-44,71v-32,-42,-84,-71,-151,-71v-121,0,-187,80,-216,174v-46,149,13,300,116,353v29,15,62,24,100,24v70,-1,122,-33,150,-82r0,77r85,0r0,-504v0,-21,-18,-42,-40,-42xm414,-344v21,134,-3,283,-141,280v-109,-2,-147,-96,-147,-205v0,-82,29,-149,82,-182v36,-23,105,-24,140,-1v35,23,58,60,66,108","w":567},"\u00e5":{"d":"278,-740v-45,-2,-84,34,-82,79v2,47,33,77,80,77v49,0,83,-30,83,-78v0,-47,-34,-76,-81,-78xm277,-625v-19,0,-36,-19,-36,-37v-1,-21,16,-35,36,-35v20,0,37,15,37,36v0,18,-18,36,-37,36xm463,-542v-41,0,-45,31,-44,71v-32,-42,-84,-71,-151,-71v-121,0,-187,80,-216,174v-46,149,13,300,116,353v29,15,62,24,100,24v70,-1,122,-33,150,-82r0,77r85,0r0,-504v0,-21,-18,-42,-40,-42xm414,-344v21,134,-3,283,-141,280v-109,-2,-147,-96,-147,-205v0,-82,29,-149,82,-182v36,-23,105,-24,140,-1v35,23,58,60,66,108","w":567},"\u00e6":{"d":"458,-543v-41,0,-41,37,-40,77v-29,-44,-85,-74,-152,-74v-122,0,-184,82,-214,178v-32,104,-6,225,44,286v38,46,91,84,170,84v69,0,128,-34,153,-84r0,77r78,0r0,-66v43,68,165,94,255,55v9,-4,20,-8,33,-12r-26,-71v-41,23,-110,36,-160,12v-57,-26,-97,-76,-99,-155r352,1v21,-7,24,-21,24,-46v0,-111,-57,-193,-131,-237v-84,-50,-205,-11,-249,52v1,-38,3,-77,-38,-77xm269,-462v131,0,168,131,143,260v-13,71,-52,130,-135,130v-130,0,-170,-132,-144,-261v10,-48,35,-87,70,-111v18,-12,40,-18,66,-18xm500,-299v-4,-81,35,-128,90,-155v36,-16,87,-15,118,3v49,29,71,87,82,152r-290,0","w":905},"\u00e7":{"d":"282,-464v45,0,82,24,114,40r41,-70v-45,-24,-87,-48,-155,-48v-126,2,-196,76,-229,172v-32,95,-11,215,33,278v33,47,80,85,147,96r-34,49v-9,14,-25,34,-26,50v-3,34,49,39,65,14r70,-111v50,-7,113,-17,113,-69v0,-27,-31,-46,-60,-33v-26,11,-51,26,-85,26v-82,0,-121,-64,-139,-132v-27,-104,7,-205,75,-244v19,-12,43,-18,70,-18","w":449},"\u00e8":{"d":"310,-584v44,25,88,-14,62,-54v-12,-19,-26,-17,-52,-28r-47,-20v-24,-9,-55,-22,-78,-25v-32,-3,-50,37,-31,62v12,16,33,22,52,29xm399,-88v-50,16,-121,34,-173,8v-54,-26,-93,-77,-95,-153r324,0v37,-1,53,-8,53,-47v0,-114,-56,-196,-134,-238v-56,-31,-140,-30,-196,0v-83,43,-141,129,-141,250v0,125,56,213,143,256v46,23,117,29,174,14v20,-6,41,-14,64,-23xm129,-299v14,-89,46,-171,148,-171v73,0,111,53,131,110v7,20,10,41,11,61r-290,0","w":538},"\u00e9":{"d":"374,-648v19,-26,-1,-67,-32,-63v-54,8,-107,41,-157,58v-14,6,-27,20,-27,39v0,35,36,48,72,32v14,-6,30,-11,46,-18r79,-33v8,-3,14,-8,19,-15xm399,-88v-50,16,-121,34,-173,8v-54,-26,-93,-77,-95,-153r324,0v37,-1,53,-8,53,-47v0,-114,-56,-196,-134,-238v-56,-31,-140,-30,-196,0v-83,43,-141,129,-141,250v0,125,56,213,143,256v46,23,117,29,174,14v20,-6,41,-14,64,-23xm129,-299v14,-89,46,-171,148,-171v73,0,111,53,131,110v7,20,10,41,11,61r-290,0","w":538},"\u00ea":{"d":"358,-582v33,16,65,-4,66,-35v0,-19,-8,-31,-25,-38r-119,-45v-13,-5,-25,1,-34,5r-106,42v-17,7,-26,19,-26,38v-1,22,18,41,39,39v41,-4,82,-30,116,-43xm399,-88v-50,16,-121,34,-173,8v-54,-26,-93,-77,-95,-153r324,0v37,-1,53,-8,53,-47v0,-114,-56,-196,-134,-238v-56,-31,-140,-30,-196,0v-83,43,-141,129,-141,250v0,125,56,213,143,256v46,23,117,29,174,14v20,-6,41,-14,64,-23xm129,-299v14,-89,46,-171,148,-171v73,0,111,53,131,110v7,20,10,41,11,61r-290,0","w":538},"\u00eb":{"d":"175,-684v-30,0,-54,23,-54,53v0,30,25,52,54,52v28,0,52,-26,52,-53v0,-27,-25,-52,-52,-52xm364,-684v-28,0,-51,26,-51,53v0,26,24,52,51,52v30,0,54,-22,54,-52v0,-30,-24,-53,-54,-53xm399,-88v-50,16,-121,34,-173,8v-54,-26,-93,-77,-95,-153r324,0v37,-1,53,-8,53,-47v0,-114,-56,-196,-134,-238v-56,-31,-140,-30,-196,0v-83,43,-141,129,-141,250v0,125,56,213,143,256v46,23,117,29,174,14v20,-6,41,-14,64,-23xm129,-299v14,-89,46,-171,148,-171v73,0,111,53,131,110v7,20,10,41,11,61r-290,0","w":538},"\u00ec":{"d":"136,-584v44,25,88,-14,62,-54v-12,-19,-26,-17,-52,-28r-47,-20v-24,-9,-55,-22,-78,-25v-32,-3,-50,37,-31,62v12,16,33,22,52,29xm109,-542v-24,0,-45,17,-44,42r0,501r84,0r0,-501v0,-21,-18,-42,-40,-42","w":190},"\u00ed":{"d":"200,-648v19,-26,-1,-67,-32,-63v-54,8,-107,41,-157,58v-14,6,-27,20,-27,39v0,35,36,48,72,32v14,-6,30,-11,46,-18r79,-33v8,-3,14,-8,19,-15xm109,-542v-24,0,-45,17,-44,42r0,501r84,0r0,-501v0,-21,-18,-42,-40,-42","w":190},"\u00ee":{"d":"184,-582v33,16,65,-4,66,-35v0,-19,-8,-31,-25,-38r-119,-45v-13,-5,-25,1,-34,5r-106,42v-17,7,-26,19,-26,38v-1,22,18,41,39,39v41,-4,82,-30,116,-43xm109,-542v-24,0,-45,17,-44,42r0,501r84,0r0,-501v0,-21,-18,-42,-40,-42","w":190},"\u00ef":{"d":"1,-684v-30,0,-54,23,-54,53v0,30,25,52,54,52v28,0,52,-26,52,-53v0,-27,-25,-52,-52,-52xm190,-684v-28,0,-51,26,-51,53v0,26,24,52,51,52v30,0,54,-22,54,-52v0,-30,-24,-53,-54,-53xm109,-542v-24,0,-45,17,-44,42r0,501r84,0r0,-501v0,-21,-18,-42,-40,-42","w":190},"\u00f1":{"d":"421,-626v0,-22,-19,-41,-41,-40r-212,0v-22,-1,-40,18,-40,40v0,22,19,39,41,39r210,1v22,1,42,-18,42,-40xm108,-543v-23,0,-45,20,-44,43r0,501r84,0r0,-341v1,-59,33,-99,76,-117v74,-31,145,13,166,69v7,16,10,33,10,50r0,307v-1,22,19,42,41,42v23,0,44,-20,43,-43r0,-307v-1,-96,-45,-158,-114,-187v-80,-34,-187,-6,-222,55v2,-39,-2,-72,-40,-72","w":548},"\u00f2":{"d":"173,-518v-105,53,-166,200,-121,352v20,67,64,121,121,153v57,31,143,30,201,0v103,-54,167,-208,119,-355v-31,-95,-98,-174,-220,-174v-37,0,-70,9,-100,24xm314,-584v44,25,88,-14,62,-54v-12,-19,-26,-17,-52,-28r-47,-20v-24,-9,-55,-22,-78,-25v-32,-3,-50,37,-31,62v12,16,33,22,52,29xm204,-84v-64,-44,-93,-148,-69,-251v16,-69,54,-132,137,-132v128,0,167,141,140,270v-15,71,-55,130,-141,132v-26,0,-49,-6,-67,-19","w":547},"\u00f3":{"d":"173,-518v-105,53,-166,200,-121,352v20,67,64,121,121,153v57,31,143,30,201,0v103,-54,167,-208,119,-355v-31,-95,-98,-174,-220,-174v-37,0,-70,9,-100,24xm378,-648v19,-26,-1,-67,-32,-63v-54,8,-107,41,-157,58v-14,6,-27,20,-27,39v0,35,36,48,72,32v14,-6,30,-11,46,-18r79,-33v8,-3,14,-8,19,-15xm204,-84v-64,-44,-93,-148,-69,-251v16,-69,54,-132,137,-132v128,0,167,141,140,270v-15,71,-55,130,-141,132v-26,0,-49,-6,-67,-19","w":547},"\u00f4":{"d":"173,-518v-105,53,-166,200,-121,352v20,67,64,121,121,153v57,31,143,30,201,0v103,-54,167,-208,119,-355v-31,-95,-98,-174,-220,-174v-37,0,-70,9,-100,24xm362,-582v33,16,65,-4,66,-35v0,-19,-8,-31,-25,-38r-119,-45v-13,-5,-25,1,-34,5r-106,42v-17,7,-26,19,-26,38v-1,22,18,41,39,39v41,-4,82,-30,116,-43xm204,-84v-64,-44,-93,-148,-69,-251v16,-69,54,-132,137,-132v128,0,167,141,140,270v-15,71,-55,130,-141,132v-26,0,-49,-6,-67,-19","w":547},"\u00f5":{"d":"173,-518v-105,53,-166,200,-121,352v20,67,64,121,121,153v57,31,143,30,201,0v103,-54,167,-208,119,-355v-31,-95,-98,-174,-220,-174v-37,0,-70,9,-100,24xm420,-626v0,-22,-19,-41,-41,-40r-212,0v-22,-1,-40,18,-40,40v0,22,19,39,41,39r210,1v22,1,42,-18,42,-40xm204,-84v-64,-44,-93,-148,-69,-251v16,-69,54,-132,137,-132v128,0,167,141,140,270v-15,71,-55,130,-141,132v-26,0,-49,-6,-67,-19","w":547},"\u00f6":{"d":"173,-518v-105,53,-166,200,-121,352v20,67,64,121,121,153v57,31,143,30,201,0v103,-54,167,-208,119,-355v-31,-95,-98,-174,-220,-174v-37,0,-70,9,-100,24xm177,-710v-30,0,-51,24,-51,53v0,29,23,52,52,52v29,0,53,-23,53,-52v0,-29,-26,-53,-54,-53xm370,-710v-29,0,-53,24,-53,53v0,29,22,52,51,52v29,0,53,-24,53,-53v0,-28,-23,-52,-51,-52xm204,-84v-64,-44,-92,-146,-69,-250v16,-70,54,-133,137,-133v108,0,148,94,148,201v0,82,-28,148,-80,182v-36,23,-100,25,-136,0","w":547},"\u00f7":{"d":"331,-101v0,-33,-23,-57,-56,-57v-31,0,-57,26,-57,57v0,31,26,57,57,57v30,0,56,-27,56,-57xm506,-270r-463,0r0,68r463,0r0,-68xm331,-370v0,-30,-26,-57,-56,-57v-31,0,-57,26,-57,57v0,31,26,57,57,57v30,0,56,-27,56,-57","w":618},"\u00f8":{"d":"419,-491v-55,-48,-170,-70,-247,-27v-80,45,-135,131,-135,250v0,65,17,125,51,180r-67,96r39,33r69,-88v48,56,165,75,243,34v82,-44,137,-130,137,-250v0,-74,-21,-132,-53,-181v18,-22,38,-47,55,-70v16,-22,4,-48,-21,-48v-32,9,-52,49,-71,71xm365,-427r-217,268v-44,-100,-15,-244,57,-289v31,-19,81,-25,119,-9v16,7,30,17,41,30xm398,-375v33,70,23,186,-14,244v-29,45,-95,82,-163,55v-16,-6,-30,-16,-42,-29","w":546},"\u00f9":{"d":"316,-584v44,25,88,-14,62,-54v-12,-19,-26,-17,-52,-28r-47,-20v-24,-9,-55,-22,-78,-25v-32,-3,-50,37,-31,62v12,16,33,22,52,29xm275,-66v-87,0,-125,-49,-126,-134r0,-323r-85,1r0,324v-1,135,77,207,211,207v134,0,212,-72,211,-207r0,-300v1,-23,-19,-44,-42,-44v-22,0,-43,21,-42,43r0,299v-1,85,-40,134,-127,134","w":550},"\u00fa":{"d":"380,-648v19,-26,-1,-67,-32,-63v-54,8,-107,41,-157,58v-14,6,-27,20,-27,39v0,35,36,48,72,32v14,-6,30,-11,46,-18r79,-33v8,-3,14,-8,19,-15xm275,-66v-87,0,-125,-49,-126,-134r0,-323r-85,1r0,324v-1,135,77,207,211,207v134,0,212,-72,211,-207r0,-300v1,-23,-19,-44,-42,-44v-22,0,-43,21,-42,43r0,299v-1,85,-40,134,-127,134","w":550},"\u00fb":{"d":"364,-582v33,16,65,-4,66,-35v0,-19,-8,-31,-25,-38r-119,-45v-13,-5,-25,1,-34,5r-106,42v-17,7,-26,19,-26,38v-1,22,18,41,39,39v41,-4,82,-30,116,-43xm275,-66v-87,0,-125,-49,-126,-134r0,-323r-85,1r0,324v-1,135,77,207,211,207v134,0,212,-72,211,-207r0,-300v1,-23,-19,-44,-42,-44v-22,0,-43,21,-42,43r0,299v-1,85,-40,134,-127,134","w":550},"\u00fc":{"d":"180,-711v-30,0,-52,24,-52,54v0,28,24,51,52,51v28,0,53,-24,53,-52v0,-30,-24,-53,-53,-53xm371,-711v-29,0,-53,24,-53,53v0,29,23,52,52,52v30,0,53,-23,53,-52v0,-30,-23,-53,-52,-53xm275,-66v-87,0,-125,-49,-126,-134r0,-323r-85,1r0,324v-1,135,77,207,211,207v134,0,212,-72,211,-207r0,-300v1,-23,-19,-44,-42,-44v-22,0,-43,21,-42,43r0,299v-1,85,-40,134,-127,134","w":550},"\u00ff":{"d":"122,-684v-30,0,-54,23,-54,53v0,30,25,52,54,52v28,0,52,-26,52,-53v0,-27,-25,-52,-52,-52xm311,-684v-28,0,-51,26,-51,53v0,26,24,52,51,52v30,0,54,-22,54,-52v0,-30,-24,-53,-54,-53xm424,-501v2,-32,-45,-56,-69,-31v-7,7,-12,16,-15,25r-122,374r-134,-401r-82,26r172,491r-40,101v-10,29,-28,70,-31,97v-4,34,48,55,69,29v18,-23,17,-34,32,-73r186,-529v11,-30,19,-54,25,-74v6,-20,9,-32,9,-35","w":433},"\u0152":{"d":"611,-720v-53,-2,-44,59,-42,106v-42,-69,-112,-116,-219,-117v-113,-2,-188,52,-238,119v-67,91,-98,260,-54,396v28,87,82,156,158,195v39,20,83,30,132,30v100,-1,182,-49,220,-120r0,76v-1,22,19,35,40,35r259,0v22,0,41,-17,41,-39v0,-22,-18,-39,-40,-39r-219,0r0,-242r198,0v22,1,42,-18,42,-40v0,-22,-19,-39,-41,-39r-198,0r0,-242r209,0v22,0,40,-17,40,-39v0,-22,-19,-41,-41,-40r-247,0xm246,-98v-99,-58,-139,-212,-105,-364v16,-70,54,-127,108,-161v53,-33,148,-32,201,1v97,61,140,217,106,366v-23,103,-85,181,-210,183v-39,0,-72,-9,-100,-25","w":945},"\u0153":{"d":"654,-543v-88,1,-159,52,-191,115v-35,-64,-97,-114,-191,-114v-121,0,-191,77,-220,172v-46,149,14,300,116,353v29,15,63,24,100,24v94,0,159,-48,195,-112v40,80,141,133,261,107v20,-5,40,-11,59,-19v-10,-24,-27,-45,-32,-73v-46,22,-101,27,-147,6v-55,-25,-91,-78,-94,-154r321,0v40,-1,54,-5,54,-47v0,-115,-55,-197,-135,-237v-29,-14,-61,-21,-96,-21xm206,-84v-67,-41,-94,-141,-72,-246v15,-72,49,-141,134,-141v134,0,167,136,144,269v-13,74,-51,135,-138,136v-27,0,-49,-6,-68,-18xm509,-301v16,-85,43,-167,141,-167v95,0,142,71,146,167r-287,0","w":914},"\u0178":{"d":"159,-870v-30,0,-54,23,-54,53v0,30,25,52,54,52v28,0,52,-26,52,-53v0,-27,-25,-52,-52,-52xm348,-870v-28,0,-51,26,-51,53v0,26,24,52,51,52v30,0,54,-22,54,-52v0,-30,-24,-53,-54,-53xm495,-663v21,-27,-2,-64,-34,-64v-17,0,-30,7,-39,22r-169,280r-182,-308r-72,46r5,13r205,336r0,302v0,25,18,45,44,45v25,0,45,-20,44,-45r0,-302","w":506},"\u02c6":{"d":"242,-582v33,16,65,-4,66,-35v0,-19,-8,-31,-25,-38r-119,-45v-13,-5,-25,1,-34,5r-106,42v-17,7,-26,19,-26,38v-1,22,18,41,39,39v41,-4,82,-30,116,-43","w":306},"\u02dc":{"d":"291,-626v0,-22,-19,-41,-41,-40r-212,0v-22,-1,-40,18,-40,40v0,22,19,39,41,39r210,1v22,1,42,-18,42,-40","w":289},"\u2013":{"d":"513,-339v0,-16,-13,-33,-30,-32r-421,0v-17,-1,-33,15,-32,32v0,17,13,34,31,33r422,0v18,1,30,-16,30,-33","w":544},"\u2014":{"d":"47,-195r440,0r0,-85r-440,0r0,85","w":536},"\u2018":{"d":"160,-694v1,-31,-37,-57,-66,-38v-18,10,-23,32,-32,50r-24,48v-11,23,-27,52,-29,76v-2,31,37,57,65,38v16,-11,23,-32,32,-50v19,-38,43,-80,54,-124xm6,-567v-18,37,23,78,60,55v7,-4,13,-10,16,-17r88,-180r-78,-38","w":193},"\u2019":{"d":"170,-689v20,-37,-23,-78,-60,-55v-7,4,-13,10,-16,17r-88,180r78,38","w":193},"\u201a":{"d":"153,-45v4,-42,-63,-59,-82,-20r-39,79v-11,22,-28,55,-30,78v-2,30,36,55,64,36v17,-11,23,-31,32,-49r24,-47v11,-22,29,-54,31,-77","w":186},"\u201c":{"d":"6,-567v-18,37,23,78,60,55v7,-4,13,-10,16,-17r88,-180r-78,-38xm156,-567v-18,37,23,78,60,55v7,-4,13,-10,16,-17r88,-180r-78,-38","w":340},"\u201d":{"d":"320,-689v20,-37,-23,-78,-60,-55v-7,4,-13,10,-16,17r-88,180r78,38xm170,-689v20,-37,-23,-78,-60,-55v-7,4,-13,10,-16,17r-88,180r78,38","w":340},"\u201e":{"d":"6,73v-18,37,23,78,60,55v7,-4,13,-10,16,-17r88,-180r-78,-38xm146,73v-18,37,23,78,60,55v7,-4,13,-10,16,-17r88,-180r-78,-38","w":328},"\u2022":{"d":"97,-448v-52,2,-88,36,-88,88v0,53,36,86,88,88v48,2,88,-40,88,-88v0,-48,-40,-90,-88,-88","w":248},"\u2026":{"d":"95,-99v-30,0,-54,24,-54,54v0,30,24,54,54,54v30,0,54,-24,54,-54v0,-30,-24,-54,-54,-54xm286,-99v-30,0,-54,24,-54,54v0,30,24,54,54,54v30,0,54,-24,54,-54v0,-30,-24,-54,-54,-54xm477,-99v-30,0,-54,24,-54,54v0,30,24,54,54,54v28,0,54,-26,54,-54v0,-28,-26,-54,-54,-54","w":572},"\u2039":{"d":"204,-409v17,-24,5,-63,-25,-63v-17,0,-32,12,-39,24r-97,165v-11,18,5,37,12,50r85,147v7,13,19,26,38,26v22,0,44,-26,32,-50v-2,-4,-4,-8,-7,-13r-87,-143","w":252},"\u203a":{"d":"48,-122v-17,24,-6,64,25,63v17,0,32,-12,39,-24r97,-164v12,-19,-5,-38,-12,-51r-85,-147v-7,-12,-19,-25,-37,-25v-31,-1,-42,37,-26,63r87,142","w":252},"\u2122":{"d":"296,-695v0,-13,-11,-25,-24,-25r-199,0v-13,0,-24,11,-24,24v0,13,11,25,24,25r72,0r0,319r53,0r0,-319v37,-4,96,14,98,-24xm287,-347r0,-12r56,-333v2,-17,18,-33,37,-33v21,0,35,10,41,31r81,277r81,-277v7,-43,70,-38,77,2r57,345r-54,-1r-44,-303r-90,305r-54,0r-90,-305r-45,303","w":770}}});
