/*!
 * The following copyright notice may not be removed under any circumstances.
 * 
 * Copyright:
 * 29-7-95 \251 m klein
 */
Cufon.registerFont({"w":214,"face":{"font-family":"Folks-Light","font-weight":300,"font-stretch":"normal","units-per-em":"1000","panose-1":"2 0 4 3 2 0 0 2 0 4","ascent":"800","descent":"-200","bbox":"-48.4989 -874.149 897 225.642","underline-thickness":"43","underline-position":"-90","unicode-range":"U+0020-U+2122"},"glyphs":{" ":{"w":255},"!":{"d":"104,-714v-16,0,-30,15,-29,31r0,536r61,1r0,-536v1,-17,-15,-33,-32,-32xm63,-27v0,22,20,40,42,40v22,0,42,-20,42,-42v0,-22,-20,-41,-43,-41v-22,0,-41,20,-41,43","w":210},"\"":{"d":"207,-495r18,-203r-41,0r-18,203r41,0xm103,-495r18,-203r-41,0r-18,203r41,0","w":287},"#":{"d":"101,-473v0,12,8,21,21,21r97,0r-38,183r-101,0v-14,0,-31,13,-31,28v0,10,11,21,21,21r101,0r-41,209v3,31,41,18,45,-3r43,-208r115,0r-37,177v-4,20,-6,32,-6,36v0,18,25,22,37,11v5,-4,9,-9,10,-16r42,-205r104,0v16,0,32,-13,31,-30v0,-10,-11,-20,-21,-20r-103,0r38,-183r103,0v14,0,31,-12,30,-27v0,-10,-10,-20,-20,-20r-103,0r45,-204r-48,0r-44,204r-114,0r45,-204r-48,0r-45,204r-98,0v-14,0,-31,11,-30,26xm228,-269r39,-183r114,0r-38,183r-115,0","w":611},"$":{"d":"238,-777v-14,3,-8,29,-8,45v0,9,1,19,1,28v-85,3,-140,52,-169,112v-25,53,-15,118,17,158v35,44,94,64,152,86r0,296v-71,3,-117,-25,-156,-55r-39,47v37,46,115,66,195,68r0,65r17,1r0,-66v98,-9,163,-65,196,-140v21,-48,24,-113,-1,-156v-37,-67,-116,-96,-195,-123r0,-243v53,9,92,35,139,49v15,0,30,-4,27,-20v-11,-61,-99,-74,-167,-81v0,0,5,-51,-3,-68v-2,-2,-3,-3,-6,-3xm232,-416v-55,-23,-113,-48,-113,-121v0,-60,56,-106,112,-114xm248,-344v69,24,143,49,143,138v0,65,-41,108,-86,134v-17,10,-36,16,-57,19r0,-291","w":488},"%":{"d":"134,-404v34,18,85,16,120,0v65,-30,105,-125,75,-214v-19,-55,-61,-95,-133,-95v-95,0,-146,67,-146,162v0,72,35,122,84,147xm535,-690v2,-24,-36,-35,-46,-11r-293,711r43,18r209,-499r76,-186v8,-20,12,-31,11,-33xm485,4v35,15,85,15,121,0v66,-28,105,-119,76,-208v-18,-56,-60,-97,-133,-97v-74,0,-118,41,-137,97v-31,88,7,180,73,208xm95,-552v0,-69,30,-127,100,-127v69,0,97,55,97,123v0,69,-28,132,-98,132v-69,0,-99,-60,-99,-128xm446,-142v0,-71,29,-126,101,-126v72,0,98,55,98,125v0,70,-26,127,-98,127v-72,0,-101,-57,-101,-126","w":742},"&":{"d":"188,2v131,45,253,-25,311,-111r114,136r45,-39r-119,-144v29,-40,63,-83,88,-126v16,-28,16,-61,-19,-61v-37,13,-57,73,-80,104v-8,10,-16,24,-27,39r-182,-217v62,-41,137,-75,137,-171v0,-106,-113,-146,-216,-118v-55,15,-98,54,-98,123v0,66,48,112,85,154v-72,36,-133,90,-160,167v-43,122,27,231,121,264xm206,-585v2,-54,43,-77,96,-77v52,0,91,30,91,82v0,70,-66,94,-111,124v-22,-34,-50,-55,-68,-92v-6,-11,-8,-24,-8,-37xm459,-154v-42,68,-139,141,-243,100v-68,-27,-117,-116,-83,-205v23,-60,72,-101,129,-127","w":682},"'":{"d":"103,-495r18,-203r-41,0r-18,203r41,0","w":183},"(":{"d":"145,51v44,-1,21,-60,13,-87v-26,-96,-43,-206,-43,-323v0,-139,26,-283,60,-393r-53,-8v-43,159,-74,337,-53,534v9,86,18,186,47,250v8,18,18,27,29,27","w":204},")":{"d":"46,-37v-8,27,-30,87,13,88v11,0,21,-9,29,-27v41,-102,53,-255,55,-393v3,-148,-31,-275,-66,-396r-50,10v38,102,62,263,62,397v0,116,-15,226,-43,321","w":204},"*":{"d":"296,-456v19,17,44,5,45,-17v0,-11,-5,-18,-15,-23r-116,-49r120,-51v24,-10,8,-49,-15,-47v-5,0,-9,2,-12,5r-102,80v4,-52,15,-88,16,-135v0,-11,-12,-21,-24,-21v-12,0,-24,10,-24,21v1,47,12,84,16,135r-102,-80v-15,-14,-40,4,-39,22v0,10,4,17,12,20r120,51r-116,49v-25,9,-15,52,10,48v30,-4,52,-34,74,-50r38,-30r-12,134r46,0r-12,-134r67,54","w":386},"+":{"d":"273,-101v12,0,23,-10,23,-21r0,-187r182,0v13,1,24,-11,24,-23v0,-10,-12,-24,-23,-23r-183,0r0,-184v0,-12,-10,-23,-22,-23v-14,0,-23,10,-23,24r0,183r-194,0r0,45r193,0r0,187v0,12,10,22,23,22","w":545},",":{"d":"16,89v-10,21,6,47,28,46v13,0,23,-6,28,-18r84,-170r-59,-28","w":186},"-":{"d":"310,-281v0,-14,-13,-29,-27,-28r-228,0r1,56r227,0v14,1,27,-14,27,-28","w":360},".":{"d":"5,-28v0,22,20,41,42,41v22,0,42,-19,42,-41v0,-23,-20,-42,-43,-42v-22,0,-41,20,-41,42","w":180},"\/":{"d":"369,-729v10,-25,-14,-47,-34,-30v-5,4,-8,9,-10,14r-299,757r42,18","w":407},"0":{"d":"196,-8v58,28,141,17,186,-19v152,-122,151,-531,-3,-646v-46,-34,-127,-45,-183,-17v-122,62,-163,234,-144,418v12,118,55,220,144,264xm216,-636v31,-22,83,-21,114,0v110,77,118,325,68,474v-20,59,-54,117,-129,117v-98,0,-123,-98,-140,-185v-25,-128,-8,-281,45,-364v11,-17,26,-31,42,-42","w":545},"1":{"d":"121,-669v0,15,13,28,28,27r103,0r0,643r65,-1r0,-664v0,-18,-13,-34,-30,-34r-137,0v-16,0,-29,13,-29,29","w":545},"2":{"d":"99,-454v17,1,28,-15,28,-34v0,-88,45,-159,143,-160v97,0,145,96,100,185v-38,74,-88,140,-135,204r-145,198v-6,8,-15,21,-15,33v0,19,21,28,41,28r353,0r0,-57r-308,0r77,-103r65,-90r48,-63v45,-61,106,-124,106,-221v0,-84,-49,-138,-113,-161v-119,-43,-230,24,-262,115v-9,26,-15,54,-15,83v0,26,6,43,32,43","w":544},"3":{"d":"346,-373v70,-44,115,-133,78,-229v-23,-60,-75,-106,-156,-106v-84,0,-138,47,-162,113v18,9,39,16,55,27v14,-44,45,-83,103,-82v85,2,121,87,100,174v-14,56,-61,73,-115,87v-24,7,-15,48,4,50v89,9,157,47,156,144v-1,70,-38,114,-89,135v-43,18,-107,9,-136,-13v-31,-23,-47,-59,-65,-92v-16,-30,-56,-12,-53,17v6,61,41,97,84,126v55,37,129,42,194,16v75,-31,134,-93,134,-195v0,-87,-57,-146,-132,-172","w":544},"4":{"d":"422,-187v35,0,81,5,81,-27v0,-32,-45,-28,-79,-28r0,-394v4,-53,-49,-90,-96,-63v-10,6,-18,14,-24,24r-262,443v-14,23,0,46,28,46r292,0r0,188r60,0r0,-189xm361,-662r0,420r-248,0","w":544},"5":{"d":"106,-116v-23,-18,-49,-4,-50,21v9,48,64,70,104,87v53,22,131,23,183,-2v93,-45,155,-173,114,-304v-26,-82,-102,-146,-214,-124v-15,3,-33,10,-54,19r35,-223r232,0r8,-56r-278,1v-18,3,-19,17,-22,36r-41,281v1,25,35,28,54,14v22,-10,49,-21,80,-22v114,0,163,108,132,220v-17,63,-60,117,-139,117v-64,0,-107,-36,-144,-65","w":545},"6":{"d":"381,-681v-14,-7,-34,-21,-46,-30r-62,56v-82,84,-153,184,-190,311v-29,99,-12,219,36,280v32,42,79,77,150,76v105,-1,165,-64,193,-144v30,-84,7,-191,-35,-242v-38,-46,-110,-83,-189,-58v-18,6,-43,18,-74,37v13,-24,24,-45,35,-63v11,-18,20,-34,29,-47v43,-68,98,-120,153,-176xm400,-276v26,113,-15,228,-130,228v-115,0,-152,-121,-127,-234v13,-60,52,-108,127,-108v77,0,115,52,130,114","w":544},"7":{"d":"139,-33v-11,28,21,55,47,37v5,-4,9,-8,12,-13r281,-645v10,-23,-5,-43,-30,-43r-372,-1r0,58r331,0","w":545},"8":{"d":"206,-389v-82,25,-139,81,-139,182v0,101,49,169,121,202v49,23,119,23,168,0v72,-33,122,-100,122,-202v0,-103,-58,-158,-142,-183v75,-37,138,-126,96,-224v-25,-58,-78,-98,-159,-98v-81,0,-133,40,-159,98v-9,20,-14,43,-14,67v0,80,48,119,106,158xm273,-419v-85,-1,-132,-85,-104,-168v14,-42,47,-73,103,-73v55,0,88,32,104,72v26,67,-8,136,-56,158v-14,7,-30,11,-47,11xm213,-349v32,-16,84,-17,117,-1v61,28,96,111,70,196v-18,58,-54,107,-128,107v-72,0,-109,-49,-126,-105v-26,-85,7,-168,67,-197","w":545},"9":{"d":"459,-344v30,-100,15,-225,-35,-288v-33,-42,-79,-78,-150,-77v-107,1,-165,66,-192,149v-29,85,-7,190,36,240v38,45,111,82,188,56v18,-6,42,-18,72,-37v-54,110,-107,181,-187,255v-5,4,-8,8,-10,11r46,44v92,-99,188,-205,232,-353xm409,-481v0,97,-36,175,-135,175v-98,0,-138,-78,-138,-175v0,-94,42,-168,138,-168v93,0,135,76,135,168","w":544},":":{"d":"63,-367v0,22,20,42,42,42v22,0,43,-20,43,-42v0,-22,-21,-41,-43,-41v-22,0,-42,19,-42,41xm63,-28v0,22,20,41,42,41v22,0,42,-19,42,-41v0,-23,-20,-42,-43,-42v-22,0,-41,20,-41,42","w":199},";":{"d":"79,-370v0,24,20,41,43,41v22,0,41,-20,41,-42v0,-22,-19,-41,-41,-40v-23,0,-43,17,-43,41xm30,89v-10,21,6,47,28,46v13,0,23,-6,28,-18r79,-161r-58,-28"},"<":{"d":"72,-249r388,219r0,-46r-315,-173r315,-173r0,-46","w":521},"=":{"d":"40,-295v0,13,10,23,23,23r415,0r0,-45r-414,0v-13,0,-24,10,-24,22xm503,-169v0,-12,-11,-22,-24,-22r-414,0r-1,44r415,0v14,0,24,-9,24,-22","w":544},">":{"d":"61,-30r388,-219r-388,-219r0,46r315,173r-315,173r0,46","w":521},"?":{"d":"221,-654v75,0,123,43,125,118v2,83,-51,112,-118,128v-18,4,-44,7,-44,26r0,236r61,1r0,-207v98,-15,173,-79,173,-186v0,-91,-54,-141,-124,-164v-51,-16,-111,-16,-161,3v-40,15,-71,47,-91,83v-14,27,-14,76,21,76v22,0,28,-22,34,-40v18,-51,62,-74,124,-74xm174,-25v-1,21,19,39,41,39v22,0,42,-18,42,-40v0,-24,-19,-41,-42,-41v-24,-1,-41,19,-41,42","w":465},"@":{"d":"267,-348v-60,105,-76,341,81,341v53,0,87,-35,102,-77v-9,90,111,105,168,56v82,-72,131,-243,79,-375v-43,-109,-135,-187,-282,-187v-173,0,-280,104,-333,232v-37,89,-37,193,1,282v37,90,104,161,189,204v43,22,88,33,137,33r-1,-40v-24,0,-61,-10,-80,-17v-133,-48,-217,-146,-217,-316v0,-151,76,-254,181,-306v65,-33,161,-37,230,-6v99,43,161,145,145,292v-7,55,-22,109,-51,142v-16,18,-42,51,-74,51v-56,-1,-50,-75,-41,-125r49,-276r-48,0r-10,59v-8,-35,-48,-64,-89,-64v-69,0,-109,49,-136,97xm404,-402v105,0,65,169,42,244v-12,38,-30,74,-56,96v-12,10,-26,16,-41,16v-58,-1,-70,-54,-70,-111v0,-82,23,-170,65,-217v16,-19,36,-28,60,-28","w":770},"A":{"d":"25,-40v-16,30,15,65,45,44v6,-4,9,-10,12,-17r53,-142r348,0r62,163r65,-19r-247,-648v-14,-30,-18,-47,-57,-47v-31,0,-42,23,-51,47xm309,-645r157,436r-315,0","w":618},"B":{"d":"507,-202v-3,-112,-76,-159,-185,-169v70,-29,127,-59,127,-152v0,-87,-48,-139,-113,-163v-61,-23,-148,-12,-226,-12v-23,0,-35,10,-35,31r0,667r225,0v97,-2,160,-50,191,-120v11,-25,16,-52,16,-82xm251,-642v76,4,132,46,132,123v0,82,-62,127,-143,127r-100,0r0,-250r111,0xm139,-345v71,3,151,-9,207,11v66,23,117,109,80,192v-23,50,-68,87,-138,87r-149,0r0,-290","w":545},"C":{"d":"555,-605v-39,-62,-113,-104,-208,-104v-162,0,-245,100,-281,229v-24,87,-26,189,2,273v42,123,131,217,290,217v81,0,152,-25,199,-64v21,-17,14,-60,-15,-59v-55,23,-98,66,-182,64v-133,-3,-201,-87,-229,-193v-42,-158,9,-318,113,-379v30,-18,66,-28,107,-28v83,-1,126,36,168,77","w":609},"D":{"d":"75,-31v0,21,16,31,37,31v113,-3,235,12,313,-28v108,-56,169,-170,169,-329v0,-152,-68,-259,-172,-313v-86,-45,-219,-21,-347,-29r0,668xm139,-642v92,3,191,-9,253,25v105,58,155,213,118,369v-17,74,-55,131,-113,166v-60,37,-164,23,-258,26r0,-586","w":642},"E":{"d":"75,-36v0,22,11,36,33,36r312,0r0,-57r-279,0r0,-263r209,0v16,0,29,-13,29,-29v0,-16,-13,-28,-30,-28r-208,0r0,-264r219,0v17,0,30,-12,30,-29v0,-15,-14,-29,-29,-28r-285,-1","w":447},"F":{"d":"373,-348v0,-15,-15,-29,-30,-28r-201,0r0,-266r237,0r0,-57r-266,0v-22,0,-38,12,-38,34r0,665r65,0r0,-319r203,0v15,0,31,-13,30,-29","w":412},"G":{"d":"582,-627v-56,-38,-118,-79,-204,-79v-168,0,-264,91,-308,220v-28,86,-29,197,-1,283v43,126,137,213,301,213v147,0,226,-86,261,-202v11,-40,17,-82,17,-126v0,-52,-6,-70,-58,-71r-145,0v-15,-1,-32,15,-31,30v0,16,13,28,30,28r138,0v-1,119,-38,213,-114,260v-55,34,-157,28,-214,-1v-112,-57,-162,-225,-122,-385v19,-74,60,-133,119,-169v56,-35,159,-33,216,-3v28,15,51,33,78,49","w":688},"H":{"d":"544,-22v-1,15,16,32,31,31v18,0,35,-14,34,-32r0,-676r-65,0r0,314r-405,0r0,-288v1,-18,-14,-33,-31,-33v-18,0,-33,15,-33,33r0,673r64,1r0,-332r405,0r0,309","w":684},"I":{"d":"81,-779v0,13,11,24,25,24v14,0,25,-11,25,-25v0,-13,-11,-24,-25,-24v-14,0,-25,11,-25,25xm108,-706v-18,0,-33,15,-33,33r0,673r64,0r0,-673v1,-18,-14,-33,-31,-33"},"J":{"d":"25,-16v45,24,121,39,174,13v58,-27,92,-85,93,-168r0,-503v0,-18,-14,-33,-32,-33v-18,0,-32,14,-32,32r0,514v-1,72,-30,122,-104,122v-36,0,-55,-18,-80,-30","w":367},"K":{"d":"106,-707v-17,-1,-31,15,-31,32r0,675r65,0r0,-360r363,357v20,22,55,11,57,-16v0,-10,-4,-19,-12,-26r-333,-325r310,-290r-45,-41r-341,322r0,-296v0,-18,-15,-32,-33,-32","w":568},"L":{"d":"75,-39v0,22,11,40,33,40r252,-1r-1,-58r-220,0r0,-616v1,-18,-14,-33,-31,-33v-18,-1,-33,16,-33,34r0,634","w":381},"M":{"d":"47,-34v-5,23,7,42,30,42v19,0,31,-10,34,-31r94,-635r187,634r70,0r188,-634r96,661r64,-11r-108,-653v-3,-25,-28,-45,-56,-45v-26,0,-43,14,-52,43r-167,571r-166,-571v-10,-43,-56,-55,-89,-31v-10,8,-17,20,-20,33","w":854},"N":{"d":"135,-693v-15,-26,-60,-13,-60,19r0,673r64,1r0,-596r407,592v14,25,59,14,59,-18r0,-651v0,-18,-15,-35,-33,-34v-17,0,-32,16,-31,34r1,571","w":680},"O":{"d":"220,-21v73,39,188,39,261,0v107,-57,173,-171,173,-328v0,-156,-66,-271,-172,-328v-73,-39,-187,-40,-260,-1v-107,57,-174,171,-174,328v0,157,66,272,172,329xm242,-624v56,-38,161,-35,218,0v103,63,147,235,109,390v-26,105,-91,188,-221,190v-88,1,-142,-47,-177,-102v-65,-102,-65,-304,0,-406v19,-29,42,-52,71,-72","w":702},"P":{"d":"108,9v17,0,32,-15,31,-33r0,-246v83,-3,172,8,235,-16v87,-33,153,-117,130,-240v-20,-104,-95,-172,-218,-172v-35,0,-70,1,-106,2v-36,1,-70,0,-105,-3r0,675v0,18,15,33,33,33xm141,-643v71,3,151,-10,204,13v55,24,98,71,98,146v0,75,-43,122,-97,146v-53,24,-134,8,-205,12r0,-317","w":537},"Q":{"d":"352,9v88,-1,151,-36,201,-87r102,102r39,-41r-105,-103v65,-90,85,-234,45,-362v-39,-124,-124,-225,-282,-225v-159,0,-244,100,-284,223v-44,136,-8,303,58,383v50,60,121,111,226,110xm507,-122v-36,46,-85,78,-156,78v-171,0,-231,-144,-231,-313v0,-121,45,-219,123,-269v55,-35,156,-33,213,0v101,59,143,206,118,362v-5,30,-15,62,-30,98r-55,-56v-11,-10,-25,-28,-41,-28v-23,0,-37,27,-20,48v22,28,54,54,79,80","w":703},"R":{"d":"108,10v17,0,33,-15,32,-32r0,-314r320,355r48,-39r-286,-299v149,12,268,-34,268,-177v0,-99,-55,-160,-128,-188v-78,-30,-189,-4,-287,-15r0,675v0,18,15,34,33,34xm140,-640v66,3,141,-8,192,11v63,24,114,101,80,183v-19,46,-61,81,-123,81r-149,0r0,-275","w":533},"S":{"d":"13,-51v65,23,145,60,227,60v102,0,169,-61,203,-135v21,-45,26,-104,4,-148v-37,-75,-119,-108,-205,-137v-58,-20,-123,-47,-123,-126v0,-73,61,-112,133,-112v49,0,80,21,113,38v22,11,48,6,49,-19v-12,-59,-96,-77,-160,-77v-91,0,-154,45,-188,107v-21,39,-23,100,-4,140v49,105,209,99,292,170v21,19,37,43,37,81v-2,75,-42,124,-97,147v-83,35,-158,-14,-222,-36r-40,-16","w":488},"T":{"d":"219,8v17,0,32,-15,31,-33r0,-616r151,0v15,1,30,-13,30,-28v0,-17,-12,-29,-29,-29r-375,0r0,57r159,0r0,616v0,18,15,33,33,33","w":440},"U":{"d":"576,-705v-18,0,-32,15,-32,33r0,429v-2,97,-49,157,-120,185v-48,19,-115,20,-164,1v-72,-28,-121,-89,-121,-186r0,-458r-64,0r0,457v2,125,66,201,160,236v64,24,149,24,213,0v94,-36,160,-111,160,-236r0,-428v1,-18,-15,-33,-32,-33","w":683},"V":{"d":"546,-657v10,-24,-4,-50,-29,-49v-14,0,-24,9,-31,27r-201,585r-213,-610r-61,22r237,655v9,22,10,35,36,35v26,0,28,-13,36,-35","w":568},"W":{"d":"800,-663v10,-34,-30,-58,-54,-35v-5,6,-9,14,-10,24r-104,633r-180,-631r-71,0r-180,631r-110,-663r-63,11r117,658v3,42,55,55,89,35v9,-6,16,-16,19,-28r163,-585r164,585v6,23,25,37,53,37v31,0,49,-15,54,-44","w":833},"X":{"d":"29,-44v-18,23,-3,53,24,53v11,0,20,-6,28,-17r218,-317r219,317v15,28,58,18,59,-12v0,-7,-3,-15,-8,-24r-232,-331r198,-280v25,-26,-12,-65,-41,-45v-5,4,-9,8,-13,13r-182,267r-191,-282r-54,33r207,294","w":599},"Y":{"d":"486,-658v15,-21,0,-48,-25,-47v-13,0,-23,6,-30,17r-178,295r-186,-314r-54,35r207,342r0,305v0,18,15,34,33,34v18,0,33,-16,33,-34r0,-305","w":506},"Z":{"d":"43,-38v0,30,26,38,56,38r404,0v17,1,34,-13,34,-28v0,-15,-17,-29,-34,-28r-385,0r389,-583v6,-11,14,-21,15,-35v-1,-24,-41,-24,-71,-24r-395,0r0,54r380,0r-385,581v-5,9,-8,17,-8,25","w":576},"[":{"d":"63,14v-1,14,13,29,26,29r81,0v14,0,26,-12,26,-26v0,-32,-40,-24,-71,-25r0,-682r54,0r0,-51r-90,0v-13,0,-27,15,-26,29r0,726","w":229},"\\":{"d":"185,0r41,0r-122,-698r-41,0","w":289},"]":{"d":"52,-715v0,32,40,24,71,25r0,682r-54,0r0,51r90,0v13,0,27,-15,26,-29r0,-726v1,-14,-13,-29,-26,-29r-81,0v-14,0,-26,12,-26,26","w":229},"^":{"d":"461,-174r47,0r-220,-388r-219,388r46,0r173,-315","w":577},"_":{"d":"50,217r360,0r0,-27r-360,0r0,27","w":460},"`":{"d":"49,-687v-22,-8,-41,6,-41,25v0,14,7,24,20,29r162,63r20,-53","w":220},"a":{"d":"268,9v83,0,120,-44,161,-111r0,106r63,0r0,-493v1,-15,-15,-31,-29,-31v-46,0,-30,52,-33,91v-45,-55,-84,-91,-162,-91v-115,0,-178,76,-206,166v-45,143,13,289,111,340v28,14,59,23,95,23xm425,-336v23,141,-6,296,-152,294v-117,-2,-158,-100,-158,-216v0,-86,32,-155,87,-191v39,-25,114,-26,152,-1v38,25,63,63,71,114","w":567},"b":{"d":"136,-95v42,66,78,106,161,106v118,0,181,-75,207,-169v40,-144,-12,-289,-109,-340v-27,-14,-57,-22,-92,-22v-79,0,-121,40,-164,98r0,-321r-64,0r0,721v-1,18,15,33,32,33v45,0,24,-65,29,-106xm297,-44v-143,2,-179,-142,-154,-282v14,-77,55,-140,149,-140v116,0,158,96,158,210v0,111,-40,210,-153,212","w":565},"c":{"d":"282,-464v44,0,79,20,110,36r29,-51v-44,-24,-76,-41,-139,-41v-120,0,-186,72,-218,164v-34,101,-7,228,44,286v44,50,110,87,206,76v43,-6,96,-14,96,-58v0,-21,-23,-32,-45,-23v-27,11,-53,27,-89,27v-88,0,-131,-68,-150,-140v-29,-109,7,-218,80,-258v21,-12,47,-18,76,-18","w":450},"d":{"d":"429,-103v4,45,-16,113,33,112v17,0,31,-14,31,-31r0,-721r-63,0r0,333v-41,-67,-76,-110,-158,-110v-117,0,-180,75,-209,167v-44,142,14,287,109,338v26,15,56,23,90,23v84,0,125,-45,167,-111xm430,-244v0,111,-47,195,-159,195v-113,0,-156,-97,-156,-209v0,-84,32,-153,87,-186v20,-13,45,-19,74,-19v120,1,154,102,154,219","w":568},"e":{"d":"391,-63v-50,15,-120,28,-170,3v-60,-29,-99,-87,-101,-173r335,0v33,-1,42,-3,42,-36v0,-110,-53,-189,-129,-229v-54,-29,-131,-27,-184,1v-80,42,-136,124,-136,240v0,120,54,203,137,245v64,32,159,24,220,-4xm208,-454v37,-21,97,-21,135,1v56,33,92,95,97,176r-324,0v11,-76,36,-145,92,-177","w":538},"f":{"d":"208,-702v29,-1,60,4,58,-27v-2,-30,-43,-28,-77,-28v-58,0,-96,43,-95,101r0,144v-34,1,-82,-11,-83,25v-1,40,49,27,84,28r0,672r63,0r0,-672v39,0,102,11,102,-26v0,-42,-64,-24,-102,-27r0,-149v-3,-29,27,-40,50,-41","w":253},"g":{"d":"199,164v-3,18,-4,37,-4,57v135,23,237,-42,277,-139v12,-29,18,-60,18,-94r0,-476v1,-15,-15,-32,-29,-32v-46,0,-25,62,-30,103v-43,-61,-83,-102,-164,-102v-118,0,-176,81,-205,175v-31,101,-6,220,42,279v35,43,86,79,160,79v80,0,122,-40,160,-102v5,28,6,32,6,52v-3,121,-53,205,-177,206v-18,0,-36,-2,-54,-6xm278,-464v92,0,144,69,150,162v7,106,-15,196,-78,240v-38,27,-109,23,-148,0v-72,-44,-104,-158,-78,-267v18,-74,62,-135,154,-135","w":565},"h":{"d":"411,-20v0,17,13,31,30,31v18,0,32,-14,32,-32r0,-306v-1,-90,-43,-149,-107,-177v-22,-10,-47,-15,-75,-15v-74,0,-113,38,-153,94r0,-298v0,-17,-14,-33,-31,-32v-17,0,-33,15,-32,33r0,724r62,0r0,-331v2,-64,36,-109,84,-127v100,-38,190,27,190,129r0,307","w":548},"i":{"d":"81,-649v0,13,11,24,25,24v14,0,25,-11,25,-25v0,-13,-11,-24,-25,-24v-14,0,-25,11,-25,25xm109,-520v-18,0,-33,13,-33,31r0,490r62,0r0,-490v1,-15,-15,-31,-29,-31"},"j":{"d":"81,-649v0,13,11,24,25,24v14,0,25,-11,25,-25v0,-13,-11,-24,-25,-24v-14,0,-25,11,-25,25xm105,-522v-17,0,-30,16,-30,34r0,700r62,0r0,-701v1,-17,-15,-33,-32,-33","w":212},"k":{"d":"107,-758v-17,-1,-33,15,-32,32r0,725r62,1r0,-272r270,276r48,-37r-265,-262r219,-171v25,-15,16,-53,-12,-54v-9,0,-18,4,-28,13r-231,191r0,-409v1,-18,-14,-33,-31,-33","w":465},"l":{"d":"106,-758v-18,0,-31,15,-31,33r0,727r62,-1r0,-726v0,-18,-13,-33,-31,-33","w":212},"m":{"d":"709,-23v0,17,14,32,31,32v17,0,31,-15,31,-32r0,-321v1,-107,-71,-177,-178,-175v-81,2,-129,41,-163,105v-27,-64,-74,-107,-150,-107v-74,0,-111,34,-144,81v-3,-33,10,-80,-29,-80v-17,0,-33,15,-32,32r0,488r63,0r0,-342v1,-91,87,-152,178,-117v45,17,78,57,78,118r0,341r61,0r0,-341v4,-77,51,-128,128,-128v77,0,126,51,126,128r0,318","w":846},"n":{"d":"411,-20v0,17,13,31,30,31v18,0,32,-14,32,-32r0,-307v-1,-90,-43,-149,-108,-177v-23,-9,-48,-14,-76,-14v-77,1,-118,35,-152,85v-3,-37,12,-87,-29,-87v-18,0,-33,14,-33,32r0,490r62,0r0,-330v2,-64,37,-106,83,-127v55,-25,123,-2,150,30v21,24,41,57,41,99r0,307","w":548},"o":{"d":"178,-12v55,28,136,29,190,0v99,-52,160,-201,114,-342v-30,-91,-93,-166,-209,-166v-116,0,-180,76,-209,166v-46,145,14,291,114,342xm200,-446v38,-27,107,-26,146,-1v69,45,100,155,77,263v-11,52,-38,94,-77,120v-38,26,-110,27,-148,0v-66,-47,-98,-155,-74,-262v12,-51,38,-93,76,-120","w":547},"p":{"d":"137,-89v43,59,84,99,163,99v117,0,177,-79,204,-172v42,-143,-13,-285,-110,-336v-27,-14,-57,-23,-91,-23v-83,0,-125,44,-167,108v-4,-43,16,-109,-32,-107v-15,0,-30,17,-29,33r0,699r62,0r0,-301xm133,-251v-2,-125,44,-217,162,-217v113,0,156,102,156,214v0,85,-33,155,-87,190v-39,25,-108,24,-147,0v-54,-34,-83,-102,-84,-187","w":566},"q":{"d":"265,-3v80,0,121,-40,164,-100r0,304r63,0r0,-700v1,-16,-14,-32,-30,-32v-49,0,-28,60,-33,102v-44,-61,-83,-102,-165,-102v-114,0,-175,78,-202,169v-42,143,15,285,112,336v27,15,57,23,91,23xm273,-478v141,0,182,150,151,294v-16,72,-63,128,-152,128v-114,0,-157,-101,-157,-214v0,-112,44,-208,158,-208","w":567},"r":{"d":"138,-481v6,-22,-11,-37,-31,-37v-18,-1,-32,14,-32,31r0,489r63,-1r0,-265v-1,-100,38,-156,106,-184v16,-8,41,-19,41,-38v0,-31,-38,-43,-67,-28v-48,24,-66,77,-88,138","w":273},"s":{"d":"38,-65v48,54,151,91,248,63v63,-18,119,-56,120,-134v1,-66,-45,-96,-88,-122v-57,-35,-138,-48,-184,-91v-10,-9,-15,-21,-15,-36v0,-74,86,-96,153,-73v34,12,60,33,94,43v14,0,27,-6,27,-21v-1,-34,-40,-51,-69,-62v-47,-18,-108,-31,-162,-13v-57,19,-108,55,-108,126v0,84,74,105,136,133r53,20v32,13,63,29,83,53v10,11,15,26,15,43v-1,91,-130,110,-201,70v-21,-12,-41,-28,-62,-42","w":446},"t":{"d":"158,-459v36,-1,85,10,85,-26v0,-38,-51,-26,-86,-27r1,-131v1,-18,-15,-35,-32,-35v-17,0,-32,17,-31,35r0,131v-35,2,-82,-10,-81,27v0,35,48,24,82,26r0,459r62,0r0,-459","w":248},"u":{"d":"75,-187v-1,129,71,196,200,196v129,0,201,-67,200,-196r0,-300v0,-18,-13,-33,-31,-33v-17,0,-32,14,-31,32r0,299v0,90,-45,145,-138,145v-93,0,-136,-56,-137,-145r0,-312r-63,1r0,313","w":550},"v":{"d":"408,-464v14,-32,1,-55,-26,-55v-14,0,-24,8,-29,23r-135,407r-146,-427r-59,19r170,480v10,34,56,35,68,0r141,-397v7,-20,11,-38,16,-50","w":433},"w":{"d":"740,-477v12,-32,-25,-55,-51,-37v-6,4,-10,10,-12,17r-131,417r-126,-397r-78,0r-127,398r-136,-437r-62,20r156,467v8,21,15,37,41,38v24,0,33,-15,39,-35r128,-402r127,402v6,20,15,35,39,35v27,0,33,-17,41,-39","w":761},"x":{"d":"29,-44v-18,20,-3,52,22,52v11,0,21,-6,30,-18r157,-218r157,218v16,29,58,20,60,-11v0,-8,-3,-16,-8,-23r-171,-229r150,-196v18,-19,3,-51,-22,-51v-10,0,-20,7,-30,20r-136,182r-148,-197r-51,33r161,209","w":476},"y":{"d":"122,158v-14,36,-10,63,24,63v18,0,25,-15,31,-30r203,-575r24,-74v6,-19,9,-29,9,-32v1,-24,-33,-40,-51,-22v-5,5,-9,11,-12,19r-132,406r-141,-422r-61,19r170,484r-42,105v-9,22,-15,42,-22,59","w":433},"z":{"d":"422,-28v0,-15,-16,-28,-33,-27r-266,0r281,-413v14,-18,7,-44,-21,-44r-334,0r0,55r275,0r-280,412v-13,19,-5,45,22,45r323,0v17,0,33,-12,33,-28","w":451},"{":{"d":"173,-723v-1,-60,26,-75,83,-72v7,-1,4,-16,-2,-15v-62,0,-131,-8,-131,55r0,335v0,32,-15,58,-37,71v25,15,37,38,37,71r0,335v-2,59,61,57,120,55r0,-15v-51,1,-70,-20,-70,-72r0,-296v-6,-37,-40,-59,-64,-78v20,-13,39,-31,54,-51v7,-9,10,-18,10,-27r0,-296","w":321},"|":{"d":"61,0r41,0r0,-698r-41,0r0,698","w":163},"}":{"d":"78,112v59,1,120,5,120,-55r0,-335v0,-33,16,-58,37,-71v-22,-13,-37,-39,-37,-71r0,-335v2,-63,-69,-55,-131,-55v-4,0,-6,2,-6,7v0,14,20,7,33,8v40,2,54,29,54,72r0,296v5,37,41,59,65,78v-24,19,-65,40,-65,78r0,296v2,52,-19,74,-70,72r0,15","w":321},"~":{"d":"138,-348v72,2,109,55,181,55v56,0,78,-45,79,-103r-29,0v-4,26,-17,58,-49,56v-73,-2,-109,-56,-180,-56v-57,0,-78,46,-79,104r29,0v3,-26,16,-58,48,-56","w":459},"\u00a0":{"w":255},"\u00a1":{"d":"63,-673v0,23,17,43,41,43v24,0,43,-17,43,-41v0,-22,-20,-42,-42,-42v-22,0,-42,18,-42,40xm75,-17v-1,16,13,31,29,31v17,1,33,-15,32,-32r0,-483r-61,1r0,483","w":210},"\u00a2":{"d":"256,-462v53,-12,89,15,129,26v26,-1,38,-42,13,-58v-33,-21,-88,-33,-142,-26r2,-52v-1,-10,5,-32,-9,-30v-13,1,-12,18,-11,31r3,53v-96,18,-156,87,-181,175v-38,132,11,262,94,316v24,17,54,27,87,31r-2,49v0,12,-4,31,10,32v14,1,9,-21,9,-30r-2,-49v57,1,101,-23,144,-39r-21,-44v-36,13,-75,35,-123,22r0,-407xm241,-56v-90,-39,-142,-136,-117,-264v13,-68,53,-118,117,-139r0,403","w":450},"\u00a3":{"d":"78,-31v-1,17,15,31,32,31r435,0r-1,-58r-371,0v58,-47,86,-110,86,-196v0,-23,-6,-46,-9,-68r139,0r0,-57r-153,0v-25,-56,-79,-129,-44,-204v20,-43,65,-70,127,-71v73,-2,131,43,157,111v5,14,14,32,32,31v42,-2,35,-54,18,-86v-47,-85,-161,-144,-285,-106v-71,21,-127,70,-127,159v0,72,28,109,56,167r-99,0v-16,-1,-31,13,-31,29v0,15,15,29,31,28r113,0v14,50,11,109,-10,151v-22,45,-51,78,-81,112v-10,13,-15,22,-15,27","w":596},"\u00a4":{"d":"597,-54v23,-15,14,-60,-15,-59v-55,23,-98,67,-182,64v-136,-4,-200,-89,-230,-198r239,0v14,0,24,-9,24,-22v0,-12,-11,-22,-24,-22r-248,0v-3,-25,-6,-54,-3,-81r270,0r0,-45r-265,0v16,-96,61,-174,137,-212v26,-13,56,-20,91,-20v83,-1,126,36,168,77r36,-33v-39,-62,-113,-104,-208,-104v-187,0,-269,126,-294,292r-79,0v-13,0,-24,10,-24,22v0,13,10,23,23,23r76,0v-1,27,-1,55,2,81r-96,0r-1,44r104,0v26,113,89,197,188,237v89,36,221,20,286,-25v8,-5,16,-12,25,-19","w":609},"\u00a5":{"d":"492,-364v7,0,15,-6,15,-13v0,-9,-5,-13,-15,-13r-134,0r164,-268v15,-21,0,-48,-25,-47v-13,0,-23,6,-30,17r-178,295r-178,-295v-13,-27,-61,-19,-61,11v0,7,2,14,5,19r163,269r-133,1r-1,26r151,-1r19,33r3,34r-173,0r0,27r171,-1r-1,272r66,0r0,-272r173,-1v7,0,14,-6,14,-13v0,-9,-5,-13,-14,-13r-173,0r0,-33r20,-33","w":578},"\u00a6":{"d":"349,-579v23,0,43,-17,43,-41v0,-23,-20,-42,-43,-42v-22,0,-40,20,-40,42v0,22,18,41,40,41xm160,-579v22,0,40,-20,40,-42v0,-22,-18,-41,-40,-41v-24,0,-43,18,-43,42v0,24,19,41,43,41xm432,-66v26,19,49,-12,32,-40r-91,-149r92,-149v11,-15,7,-48,-16,-46v-12,1,-25,10,-30,19r-95,163v-11,15,5,29,11,40r85,147v3,6,7,11,12,15xm268,-520v-18,0,-33,13,-33,31r0,490r62,0r0,-490v1,-15,-15,-31,-29,-31xm178,72v-40,-23,-70,38,-31,53r116,45v11,4,23,-1,31,-4r104,-41v29,-11,18,-60,-13,-57v-40,4,-78,31,-112,44r-62,-27v-12,-5,-23,-10,-33,-13xm371,-615v0,7,-4,11,-11,11v-7,0,-11,-4,-11,-11v0,-7,4,-11,11,-11v7,0,11,4,11,11xm177,-622v0,7,-4,11,-11,11v-7,0,-11,-4,-11,-11v0,-7,4,-11,11,-11v7,0,11,4,11,11","w":647},"\u00a7":{"d":"469,71v0,-59,-33,-94,-76,-124v87,-30,171,-128,119,-233v-52,-106,-197,-126,-295,-189v-31,-21,-63,-45,-63,-92v0,-70,64,-89,132,-92v104,-4,137,43,177,105r45,-31v-46,-76,-87,-133,-210,-130v-116,3,-212,34,-212,151v0,57,29,94,71,122v-74,39,-147,139,-101,242v48,106,189,127,284,186v31,19,62,43,62,90v0,87,-112,99,-195,84v-54,-10,-70,-54,-83,-104v-3,-9,-7,-13,-19,-13v-48,2,-37,73,-17,103v43,64,150,94,252,70v71,-17,129,-59,129,-145xm365,-334v47,24,98,53,98,121v0,77,-72,106,-130,130r-133,-67v-44,-25,-101,-52,-101,-119v0,-73,55,-114,105,-144","w":571},"\u00a8":{"d":"174,-620v0,22,19,42,40,41v24,1,43,-17,43,-41v1,-23,-20,-42,-43,-42v-22,0,-40,20,-40,42xm-18,-620v0,24,20,41,43,41v22,0,41,-20,41,-42v0,-22,-19,-41,-41,-41v-23,0,-43,19,-43,42","w":239},"\u00a9":{"d":"288,-16v86,38,196,38,282,0v124,-55,221,-164,221,-334v0,-170,-98,-279,-221,-334v-86,-38,-196,-38,-282,0v-124,55,-221,164,-221,334v0,170,98,279,221,334xm296,-665v81,-36,186,-36,266,1v115,53,205,154,205,314v0,159,-90,263,-206,315v-81,36,-184,36,-265,0v-115,-52,-204,-155,-204,-315v0,-159,89,-263,204,-315xm522,-504v12,9,38,17,38,-5v0,-47,-68,-57,-118,-57v-129,0,-190,93,-190,222v0,96,43,164,110,197v53,26,150,21,192,-9v10,-7,15,-17,15,-29v1,-8,-7,-16,-14,-16v-34,12,-63,39,-113,37v-104,-3,-150,-80,-150,-183v0,-100,44,-185,147,-185v37,0,62,12,83,28","w":858},"\u00aa":{"d":"209,-361v58,0,81,-33,112,-82r0,72r40,1r0,-319v1,-10,-10,-21,-19,-21v-29,3,-18,30,-21,67v-34,-39,-57,-67,-110,-67v-76,0,-117,50,-135,110v-29,95,8,191,72,224v18,10,38,15,61,15xm363,-276v6,0,12,-5,12,-11v0,-9,-4,-13,-12,-13r-275,0r-1,24r276,0xm164,-408v-86,-54,-77,-272,53,-269v77,2,105,62,105,137v0,80,-26,145,-107,146v-20,0,-37,-5,-51,-14","w":436},"\u00ab":{"d":"350,-404v12,-16,6,-47,-16,-46v-12,0,-25,10,-30,19r-96,163v-11,19,5,31,13,46r18,34r77,129r45,-26r-104,-170xm162,-59r44,-26r-103,-170r92,-149v11,-15,7,-48,-16,-46v-12,1,-25,10,-30,19r-95,163v-11,19,5,31,13,46r18,34","w":407},"\u00ac":{"d":"475,-216r32,0r0,-185r-446,0r0,41r414,0r0,144","w":568},"\u00ad":{"d":"310,-281v0,-14,-13,-29,-27,-28r-228,0r1,56r227,0v14,1,27,-14,27,-28","w":360},"\u00ae":{"d":"288,-16v86,38,196,38,282,0v124,-55,221,-164,221,-334v0,-170,-98,-279,-221,-334v-86,-38,-196,-38,-282,0v-124,55,-221,164,-221,334v0,170,98,279,221,334xm296,-665v81,-36,186,-36,266,1v115,53,205,154,205,314v0,159,-90,263,-206,315v-81,36,-184,36,-265,0v-115,-52,-204,-155,-204,-315v0,-159,89,-263,204,-315xm331,-135v10,0,19,-8,19,-18r0,-200r188,211v11,13,33,6,33,-11v0,-4,-2,-8,-5,-11r-167,-176v92,15,166,-23,167,-102v2,-72,-56,-122,-128,-122r-106,0v-10,0,-20,10,-20,20r0,390v0,10,9,19,19,19xm527,-446v2,46,-35,87,-84,87r-93,0r0,-172r86,0v52,4,89,32,91,85","w":858},"\u00af":{"d":"11,-615v0,16,13,28,30,28r210,1v16,1,31,-13,31,-29v1,-16,-15,-29,-30,-29r-212,0v-16,0,-29,13,-29,29","w":291},"\u00b0":{"d":"61,-590v0,73,49,122,122,122v73,0,122,-49,122,-122v0,-73,-49,-122,-122,-122v-73,0,-122,49,-122,122xm82,-590v0,-61,40,-101,101,-101v61,0,101,40,101,101v0,61,-40,101,-101,101v-61,0,-101,-40,-101,-101","w":366},"\u00b1":{"d":"298,-263r197,0r0,-46r-197,0r0,-122r-46,0r0,122r-197,0r0,46r197,0r0,122r46,0r0,-122xm55,-19r440,0r0,-46r-440,0r0,46","w":618},"\u00b4":{"d":"127,-604r83,-35r-20,-54r-158,61v-17,5,-30,35,-12,49v17,13,25,8,52,-1","w":224},"\u00b5":{"d":"230,-34v-61,1,-65,-59,-64,-119r0,-296r-92,0r0,248r3,193r-4,145v0,38,6,71,43,72v44,0,48,-43,32,-82r-22,-55v-18,-45,-38,-101,-31,-166v15,56,43,105,113,103v104,-2,133,-89,158,-172v2,85,16,172,102,172v73,0,94,-64,89,-139r-21,0v0,43,-2,96,-43,96v-37,0,-38,-49,-38,-87r0,-328r-92,0v0,27,0,55,1,84v2,125,-14,239,-76,305v-14,14,-32,26,-58,26","w":604},"\u00b6":{"d":"480,-668v25,0,68,7,70,-15v0,-8,-8,-15,-16,-15r-290,0v-86,3,-142,50,-169,113v-32,74,-2,165,39,203v31,29,74,54,130,54r80,0r0,539r33,0r1,-878r88,-1r-1,880r34,-1","w":611},"\u00b7":{"d":"65,-251v0,22,20,41,42,41v22,0,42,-19,42,-41v0,-23,-20,-42,-43,-42v-22,0,-41,20,-41,42"},"\u00b8":{"d":"40,85v-14,23,-19,65,13,67v11,0,18,-5,23,-15r69,-145r-54,0","w":162},"\u00ba":{"d":"152,-375v37,18,88,19,125,1v67,-33,108,-129,78,-224v-19,-61,-61,-112,-139,-112v-77,0,-120,49,-140,108v-31,96,9,194,76,227xm366,-289v0,-6,-7,-12,-13,-12r-267,0r0,25r267,0v9,0,13,-4,13,-13xm109,-536v0,-73,29,-140,104,-140v79,0,108,68,108,147v0,74,-34,135,-108,135v-76,0,-104,-69,-104,-142","w":427},"\u00bb":{"d":"347,-229v6,-11,13,-20,5,-35v-17,-31,-35,-66,-54,-97r-59,-96r-45,27r110,176r-92,149v-11,15,-7,48,16,46v13,-1,24,-10,30,-19xm192,-229v6,-11,15,-20,6,-35r-55,-97r-59,-95r-44,26r109,176r-92,149v-11,15,-7,48,16,46v13,-1,24,-10,30,-19","w":407},"\u00bf":{"d":"176,-674v0,23,19,43,41,43v22,0,42,-19,42,-41v0,-22,-19,-41,-42,-41v-22,0,-41,18,-41,39xm91,-139v-12,-34,-59,-20,-56,17v2,31,18,54,33,74v54,75,220,81,292,18v33,-29,60,-71,60,-131v0,-104,-77,-172,-173,-186r0,-154r-61,0r0,184v6,27,48,25,73,34v51,19,90,50,89,120v0,90,-81,134,-172,113v-48,-11,-70,-47,-85,-89","w":464},"\u00c0":{"d":"263,-868v-30,-12,-56,-7,-56,20v0,30,26,30,53,42r47,20v24,9,51,22,73,24v33,3,38,-44,9,-56r-80,-33v-17,-7,-33,-12,-46,-17xm25,-40v-16,30,15,65,45,44v6,-4,9,-10,12,-17r53,-142r348,0r62,163r65,-19r-247,-648v-14,-30,-18,-47,-57,-47v-31,0,-42,23,-51,47xm309,-645r157,436r-315,0","w":618},"\u00c1":{"d":"215,-806v-15,19,0,49,24,45v49,-8,108,-40,152,-57v11,-4,20,-15,20,-29v0,-28,-27,-33,-56,-21r-126,50v-5,2,-10,6,-14,12xm25,-40v-16,30,15,65,45,44v6,-4,9,-10,12,-17r53,-142r348,0r62,163r65,-19r-247,-648v-14,-30,-18,-47,-57,-47v-31,0,-42,23,-51,47xm309,-645r157,436r-315,0","w":618},"\u00c2":{"d":"309,-806v34,13,72,39,113,44v32,3,43,-47,13,-58r-127,-46r-124,48v-30,9,-21,59,9,56v42,-4,79,-31,116,-44xm25,-40v-16,30,15,65,45,44v6,-4,9,-10,12,-17r53,-142r348,0r62,163r65,-19r-247,-648v-14,-30,-18,-47,-57,-47v-31,0,-42,23,-51,47xm309,-645r157,436r-315,0","w":618},"\u00c3":{"d":"174,-801v0,17,13,29,30,29r210,0v16,1,31,-13,31,-29v1,-16,-15,-29,-30,-29r-212,0v-16,0,-29,13,-29,29xm25,-40v-16,30,15,65,45,44v6,-4,9,-10,12,-17r53,-142r348,0r62,163r65,-19r-247,-648v-14,-30,-18,-47,-57,-47v-31,0,-42,23,-51,47xm309,-645r157,436r-315,0","w":618},"\u00c4":{"d":"387,-722v0,19,20,38,39,38v23,0,41,-16,41,-39v1,-22,-18,-41,-40,-41v-22,0,-40,20,-40,42xm150,-723v0,22,19,39,41,39v21,0,39,-19,39,-40v0,-21,-18,-40,-39,-40v-22,0,-41,19,-41,41xm25,-40v-16,30,15,65,45,44v6,-4,9,-10,12,-17r53,-142r348,0r62,163r65,-19r-247,-648v-14,-30,-18,-47,-57,-47v-31,0,-42,23,-51,47xm309,-645r157,436r-315,0","w":618},"\u00c5":{"d":"25,-40v-16,30,15,65,45,44v6,-4,9,-10,12,-17r53,-142r348,0r62,163r65,-19r-247,-648v-12,-28,-22,-38,-58,-52v-29,16,-39,26,-50,52xm309,-863v-57,0,-101,71,-59,116v11,13,31,24,58,33v45,-15,73,-32,76,-76v3,-39,-36,-73,-75,-73xm260,-791v0,-27,24,-48,50,-48v26,0,49,23,49,49v0,28,-23,49,-50,49v-27,0,-49,-24,-49,-50xm309,-645r157,436r-315,0","w":617},"\u00c6":{"d":"396,-35v0,20,14,35,34,35r260,0v14,0,29,-14,29,-29v0,-16,-13,-28,-29,-28r-230,0r0,-262r209,0v14,1,29,-15,29,-29v0,-15,-11,-29,-26,-29r-210,0r0,-264r210,0r0,-57r-296,0v-28,1,-29,11,-40,32r-331,648r55,25r84,-161r252,0r0,119xm396,-654r0,447r-226,0","w":766},"\u00c7":{"d":"279,95v0,23,33,23,45,7r72,-94v54,-7,120,-23,154,-52v14,-11,20,-23,20,-37v0,-17,-11,-32,-28,-32v-55,23,-99,66,-182,64v-133,-3,-201,-87,-229,-193v-42,-158,9,-318,113,-379v30,-18,66,-28,107,-28v83,-1,126,36,168,77r36,-33v-37,-61,-105,-104,-198,-104v-164,0,-250,100,-289,229v-25,83,-28,181,-2,264v39,125,130,211,280,226v-23,28,-58,54,-67,85","w":596},"\u00c8":{"d":"177,-868v-30,-12,-56,-7,-56,20v0,30,26,30,53,42r47,20v24,9,51,22,73,24v33,3,38,-44,9,-56r-80,-33v-17,-7,-33,-12,-46,-17xm75,-36v0,22,11,36,33,36r312,0r0,-57r-279,0r0,-263r209,0v16,0,29,-13,29,-29v0,-16,-13,-28,-30,-28r-208,0r0,-264r219,0v17,0,30,-12,30,-29v0,-15,-14,-29,-29,-28r-285,-1","w":447},"\u00c9":{"d":"129,-806v-15,19,0,49,24,45v49,-8,108,-40,152,-57v11,-4,20,-15,20,-29v0,-28,-27,-33,-56,-21r-126,50v-5,2,-10,6,-14,12xm75,-36v0,22,11,36,33,36r312,0r0,-57r-279,0r0,-263r209,0v16,0,29,-13,29,-29v0,-16,-13,-28,-30,-28r-208,0r0,-264r219,0v17,0,30,-12,30,-29v0,-15,-14,-29,-29,-28r-285,-1","w":447},"\u00ca":{"d":"223,-806v34,13,72,39,113,44v32,3,43,-47,13,-58r-127,-46r-124,48v-30,9,-21,59,9,56v42,-4,79,-31,116,-44xm75,-36v0,22,11,36,33,36r312,0r0,-57r-279,0r0,-263r209,0v16,0,29,-13,29,-29v0,-16,-13,-28,-30,-28r-208,0r0,-264r219,0v17,0,30,-12,30,-29v0,-15,-14,-29,-29,-28r-285,-1","w":447},"\u00cb":{"d":"278,-806v0,22,19,42,40,41v24,1,43,-17,43,-41v1,-23,-20,-42,-43,-42v-22,0,-40,20,-40,42xm86,-806v0,24,20,41,43,41v22,0,41,-20,41,-42v0,-22,-19,-41,-41,-41v-23,0,-43,19,-43,42xm75,-36v0,22,11,36,33,36r312,0r0,-57r-279,0r0,-263r209,0v16,0,29,-13,29,-29v0,-16,-13,-28,-30,-28r-208,0r0,-264r219,0v17,0,30,-12,30,-29v0,-15,-14,-29,-29,-28r-285,-1","w":447},"\u00cc":{"d":"61,-868v-30,-12,-56,-7,-56,20v0,30,26,30,53,42r47,20v24,9,51,22,73,24v33,3,38,-44,9,-56r-80,-33v-17,-7,-33,-12,-46,-17xm108,-706v-18,0,-33,15,-33,33r0,673r64,0r0,-673v1,-18,-14,-33,-31,-33"},"\u00cd":{"d":"13,-806v-15,19,0,49,24,45v49,-8,108,-40,152,-57v11,-4,20,-15,20,-29v0,-28,-27,-33,-56,-21r-126,50v-5,2,-10,6,-14,12xm108,-706v-18,0,-33,15,-33,33r0,673r64,0r0,-673v1,-18,-14,-33,-31,-33"},"\u00ce":{"d":"107,-806v34,13,72,39,113,44v32,3,43,-47,13,-58r-127,-46r-124,48v-30,9,-21,59,9,56v42,-4,79,-31,116,-44xm108,-706v-18,0,-33,15,-33,33r0,673r64,0r0,-673v1,-18,-14,-33,-31,-33"},"\u00cf":{"d":"162,-806v0,22,19,42,40,41v24,1,43,-17,43,-41v1,-23,-20,-42,-43,-42v-22,0,-40,20,-40,42xm-30,-806v0,24,20,41,43,41v22,0,41,-20,41,-42v0,-22,-19,-41,-41,-41v-23,0,-43,19,-43,42xm108,-706v-18,0,-33,15,-33,33r0,673r64,0r0,-673v1,-18,-14,-33,-31,-33"},"\u00d1":{"d":"205,-801v0,16,13,28,30,28r210,1v16,1,31,-13,31,-29v1,-16,-15,-29,-30,-29r-212,0v-16,0,-29,13,-29,29xm135,-693v-15,-26,-60,-13,-60,19r0,673r64,1r0,-596r407,592v14,25,59,14,59,-18r0,-651v0,-18,-15,-35,-33,-34v-17,0,-32,16,-31,34r1,571","w":680},"\u00d2":{"d":"305,-868v-30,-12,-56,-7,-56,20v0,30,26,30,53,42r47,20v24,9,51,22,73,24v33,3,38,-44,9,-56r-80,-33v-17,-7,-33,-12,-46,-17xm220,-21v73,39,188,39,261,0v107,-57,173,-171,173,-328v0,-156,-66,-271,-172,-328v-73,-39,-187,-40,-260,-1v-107,57,-174,171,-174,328v0,157,66,272,172,329xm242,-624v56,-38,161,-35,218,0v103,63,147,235,109,390v-26,105,-91,188,-221,190v-88,1,-142,-47,-177,-102v-65,-102,-65,-304,0,-406v19,-29,42,-52,71,-72","w":702},"\u00d3":{"d":"257,-806v-15,19,0,49,24,45v49,-8,108,-40,152,-57v11,-4,20,-15,20,-29v0,-28,-27,-33,-56,-21r-126,50v-5,2,-10,6,-14,12xm220,-21v73,39,188,39,261,0v107,-57,173,-171,173,-328v0,-156,-66,-271,-172,-328v-73,-39,-187,-40,-260,-1v-107,57,-174,171,-174,328v0,157,66,272,172,329xm242,-624v56,-38,161,-35,218,0v103,63,147,235,109,390v-26,105,-91,188,-221,190v-88,1,-142,-47,-177,-102v-65,-102,-65,-304,0,-406v19,-29,42,-52,71,-72","w":702},"\u00d4":{"d":"351,-806v34,13,72,39,113,44v32,3,43,-47,13,-58r-127,-46r-124,48v-30,9,-21,59,9,56v42,-4,79,-31,116,-44xm220,-21v73,39,188,39,261,0v107,-57,173,-171,173,-328v0,-156,-66,-271,-172,-328v-73,-39,-187,-40,-260,-1v-107,57,-174,171,-174,328v0,157,66,272,172,329xm242,-624v56,-38,161,-35,218,0v103,63,147,235,109,390v-26,105,-91,188,-221,190v-88,1,-142,-47,-177,-102v-65,-102,-65,-304,0,-406v19,-29,42,-52,71,-72","w":702},"\u00d5":{"d":"216,-801v0,16,13,28,30,28r210,1v16,1,31,-13,31,-29v1,-16,-15,-29,-30,-29r-212,0v-16,0,-29,13,-29,29xm220,-21v73,39,188,39,261,0v107,-57,173,-171,173,-328v0,-156,-66,-271,-172,-328v-73,-39,-187,-40,-260,-1v-107,57,-174,171,-174,328v0,157,66,272,172,329xm242,-624v56,-38,161,-35,218,0v103,63,147,235,109,390v-26,105,-91,188,-221,190v-88,1,-142,-47,-177,-102v-65,-102,-65,-304,0,-406v19,-29,42,-52,71,-72","w":702},"\u00d6":{"d":"548,-727v0,20,20,38,40,38v21,0,39,-19,39,-41v0,-22,-18,-39,-39,-39v-23,0,-40,19,-40,42xm76,-730v0,22,16,41,38,41v22,0,40,-18,40,-39v0,-22,-18,-40,-39,-40v-22,0,-39,17,-39,38xm220,-21v73,39,188,39,261,0v107,-57,173,-171,173,-328v0,-156,-66,-271,-172,-328v-73,-39,-187,-40,-260,-1v-107,57,-174,171,-174,328v0,157,66,272,172,329xm242,-624v56,-38,161,-35,218,0v103,63,147,235,109,390v-26,105,-91,188,-221,190v-88,1,-142,-47,-177,-102v-65,-102,-65,-304,0,-406v19,-29,42,-52,71,-72","w":702},"\u00d8":{"d":"634,-212v43,-131,15,-285,-49,-379r51,-57v9,-14,30,-30,30,-47v0,-20,-23,-23,-35,-7v-6,8,-14,14,-21,23v-18,19,-33,40,-49,61v-55,-54,-119,-89,-213,-90v-104,-1,-176,50,-223,111v-47,60,-77,148,-77,248v0,105,27,175,76,244r-84,102r27,25r81,-99v51,51,112,87,200,87v158,0,246,-99,286,-222xm168,-154v-67,-105,-60,-291,2,-394v34,-57,88,-104,177,-103v78,1,131,33,173,81xm541,-541v54,116,57,298,-11,398v-35,53,-89,96,-175,95v-74,-1,-126,-30,-167,-75","w":703},"\u00d9":{"d":"295,-868v-30,-12,-56,-7,-56,20v0,30,26,30,53,42r47,20v24,9,51,22,73,24v33,3,38,-44,9,-56r-80,-33v-17,-7,-33,-12,-46,-17xm576,-705v-18,0,-32,15,-32,33r0,429v-2,97,-49,157,-120,185v-48,19,-115,20,-164,1v-72,-28,-121,-89,-121,-186r0,-458r-64,0r0,457v2,125,66,201,160,236v64,24,149,24,213,0v94,-36,160,-111,160,-236r0,-428v1,-18,-15,-33,-32,-33","w":683},"\u00da":{"d":"247,-806v-15,19,0,49,24,45v49,-8,108,-40,152,-57v11,-4,20,-15,20,-29v0,-28,-27,-33,-56,-21r-126,50v-5,2,-10,6,-14,12xm576,-705v-18,0,-32,15,-32,33r0,429v-2,97,-49,157,-120,185v-48,19,-115,20,-164,1v-72,-28,-121,-89,-121,-186r0,-458r-64,0r0,457v2,125,66,201,160,236v64,24,149,24,213,0v94,-36,160,-111,160,-236r0,-428v1,-18,-15,-33,-32,-33","w":683},"\u00db":{"d":"341,-806v34,13,72,39,113,44v32,3,43,-47,13,-58r-127,-46r-124,48v-30,9,-21,59,9,56v42,-4,79,-31,116,-44xm576,-705v-18,0,-32,15,-32,33r0,429v-2,97,-49,157,-120,185v-48,19,-115,20,-164,1v-72,-28,-121,-89,-121,-186r0,-458r-64,0r0,457v2,125,66,201,160,236v64,24,149,24,213,0v94,-36,160,-111,160,-236r0,-428v1,-18,-15,-33,-32,-33","w":683},"\u00dc":{"d":"382,-724v0,22,18,40,39,40v22,1,40,-18,40,-40v0,-22,-18,-40,-40,-40v-22,0,-39,18,-39,40xm222,-725v0,22,17,41,39,41v22,0,41,-19,40,-41v0,-21,-17,-40,-39,-40v-22,0,-41,18,-40,40xm576,-705v-18,0,-32,15,-32,33r0,429v-2,97,-49,157,-120,185v-48,19,-115,20,-164,1v-72,-28,-121,-89,-121,-186r0,-458r-64,0r0,457v2,125,66,201,160,236v64,24,149,24,213,0v94,-36,160,-111,160,-236r0,-428v1,-18,-15,-33,-32,-33","w":683},"\u00df":{"d":"272,-24v0,24,29,34,54,34v94,-3,142,-68,166,-143v8,-27,12,-53,12,-80v-3,-109,-61,-170,-149,-197v75,-41,114,-132,79,-230v-24,-67,-78,-115,-167,-115v-131,0,-192,82,-192,213r0,754r62,0r0,-766v2,-87,40,-146,128,-146v80,0,119,62,119,142v0,78,-35,110,-99,130v-13,4,-24,23,-13,38v28,19,78,19,106,40v37,27,58,71,58,137v1,97,-35,150,-120,159v-21,2,-44,5,-44,30","w":559},"\u00e0":{"d":"237,-682v-30,-12,-56,-7,-56,20v0,30,26,30,53,42r47,20v24,9,51,22,73,24v33,3,38,-44,9,-56r-80,-33v-17,-7,-33,-12,-46,-17xm268,9v83,0,120,-44,161,-111r0,106r63,0r0,-493v1,-15,-15,-31,-29,-31v-46,0,-30,52,-33,91v-45,-55,-84,-91,-162,-91v-115,0,-178,76,-206,166v-45,143,13,289,111,340v28,14,59,23,95,23xm425,-336v23,141,-6,296,-152,294v-117,-2,-158,-100,-158,-216v0,-86,32,-155,87,-191v39,-25,114,-26,152,-1v38,25,63,63,71,114","w":567},"\u00e1":{"d":"189,-620v-15,19,0,49,24,45v49,-8,108,-40,152,-57v11,-4,20,-15,20,-29v0,-28,-27,-33,-56,-21r-126,50v-5,2,-10,6,-14,12xm268,9v83,0,120,-44,161,-111r0,106r63,0r0,-493v1,-15,-15,-31,-29,-31v-46,0,-30,52,-33,91v-45,-55,-84,-91,-162,-91v-115,0,-178,76,-206,166v-45,143,13,289,111,340v28,14,59,23,95,23xm425,-336v23,141,-6,296,-152,294v-117,-2,-158,-100,-158,-216v0,-86,32,-155,87,-191v39,-25,114,-26,152,-1v38,25,63,63,71,114","w":567},"\u00e2":{"d":"283,-620v34,13,72,39,113,44v32,3,43,-47,13,-58r-127,-46r-124,48v-30,9,-21,59,9,56v42,-4,79,-31,116,-44xm268,9v83,0,120,-44,161,-111r0,106r63,0r0,-493v1,-15,-15,-31,-29,-31v-46,0,-30,52,-33,91v-45,-55,-84,-91,-162,-91v-115,0,-178,76,-206,166v-45,143,13,289,111,340v28,14,59,23,95,23xm425,-336v23,141,-6,296,-152,294v-117,-2,-158,-100,-158,-216v0,-86,32,-155,87,-191v39,-25,114,-26,152,-1v38,25,63,63,71,114","w":567},"\u00e3":{"d":"148,-615v0,16,13,28,30,28r210,1v16,1,31,-13,31,-29v1,-16,-15,-29,-30,-29r-212,0v-16,0,-29,13,-29,29xm268,9v83,0,120,-44,161,-111r0,106r63,0r0,-493v1,-15,-15,-31,-29,-31v-46,0,-30,52,-33,91v-45,-55,-84,-91,-162,-91v-115,0,-178,76,-206,166v-45,143,13,289,111,340v28,14,59,23,95,23xm425,-336v23,141,-6,296,-152,294v-117,-2,-158,-100,-158,-216v0,-86,32,-155,87,-191v39,-25,114,-26,152,-1v38,25,63,63,71,114","w":567},"\u00e4":{"d":"342,-642v0,23,19,43,42,43v22,0,42,-20,42,-42v0,-23,-20,-43,-42,-43v-22,0,-42,20,-42,42xm152,-643v0,24,18,44,42,44v22,0,42,-20,42,-42v0,-23,-19,-43,-42,-43v-22,0,-42,19,-42,41xm268,9v83,0,120,-44,161,-111r0,106r63,0r0,-493v1,-15,-15,-31,-29,-31v-46,0,-30,52,-33,91v-45,-55,-84,-91,-162,-91v-115,0,-178,76,-206,166v-45,143,13,289,111,340v28,14,59,23,95,23xm425,-336v23,141,-6,296,-152,294v-117,-2,-158,-100,-158,-216v0,-86,32,-155,87,-191v39,-25,114,-26,152,-1v38,25,63,63,71,114","w":567},"\u00e5":{"d":"207,-650v0,35,34,66,69,66v37,0,72,-29,72,-67v0,-36,-34,-67,-70,-67v-38,0,-71,30,-71,68xm268,9v83,0,120,-44,161,-111r0,106r63,0r0,-493v1,-15,-15,-31,-29,-31v-46,0,-30,52,-33,91v-45,-55,-84,-91,-162,-91v-115,0,-178,76,-206,166v-45,143,13,289,111,340v28,14,59,23,95,23xm230,-651v0,-26,21,-47,47,-46v26,0,48,20,48,47v0,25,-22,47,-48,47v-26,0,-47,-23,-47,-48xm425,-336v23,141,-6,296,-152,294v-117,-2,-158,-100,-158,-216v0,-86,32,-155,87,-191v39,-25,114,-26,152,-1v38,25,63,63,71,114","w":567},"\u00e6":{"d":"489,-236r361,1v14,-7,15,-15,15,-35v0,-106,-53,-186,-125,-227v-26,-15,-55,-22,-86,-22v-78,0,-126,41,-169,96v-4,-38,15,-98,-27,-98v-44,0,-25,61,-29,101v-41,-60,-84,-98,-163,-98v-116,0,-175,78,-204,170v-31,100,-5,217,43,276v36,43,86,80,161,80v90,0,129,-54,164,-117r0,110r56,0r0,-87v45,66,127,113,235,86r49,-18r-17,-49v-42,22,-111,30,-159,7v-62,-29,-104,-87,-105,-176xm586,-454v39,-18,94,-16,128,4v55,32,77,100,89,173r-314,0v-6,-94,34,-148,97,-177xm196,-442v37,-26,109,-24,148,-2v72,40,101,147,78,254v-16,75,-55,140,-145,140v-138,0,-182,-137,-155,-274v10,-51,37,-92,74,-118","w":905},"\u00e7":{"d":"282,-464v44,0,79,20,110,36r29,-51v-44,-24,-76,-41,-139,-41v-120,0,-186,72,-218,164v-31,92,-12,210,33,269v35,46,85,83,155,94r-22,33r-22,30v-7,12,-23,31,-24,44v-1,23,35,26,45,8r73,-115v37,-3,74,-12,96,-31v20,-17,12,-58,-16,-55v-37,4,-63,31,-106,31v-88,-3,-131,-68,-150,-140v-29,-109,7,-218,80,-258v21,-12,47,-18,76,-18","w":449},"\u00e8":{"d":"223,-682v-30,-12,-56,-7,-56,20v0,30,26,30,53,42r47,20v24,9,51,22,73,24v33,3,38,-44,9,-56r-80,-33v-17,-7,-33,-12,-46,-17xm391,-63v-50,15,-120,28,-170,3v-60,-29,-99,-87,-101,-173r335,0v33,-1,42,-3,42,-36v0,-110,-53,-189,-129,-229v-54,-29,-131,-27,-184,1v-80,42,-136,124,-136,240v0,120,54,203,137,245v64,32,159,24,220,-4xm208,-454v36,-21,97,-21,134,1v53,33,85,95,88,176r-314,0v11,-76,36,-145,92,-177","w":538},"\u00e9":{"d":"175,-620v-15,19,0,49,24,45v49,-8,108,-40,152,-57v11,-4,20,-15,20,-29v0,-28,-27,-33,-56,-21r-126,50v-5,2,-10,6,-14,12xm391,-63v-50,15,-120,28,-170,3v-60,-29,-99,-87,-101,-173r335,0v33,-1,42,-3,42,-36v0,-110,-53,-189,-129,-229v-54,-29,-131,-27,-184,1v-80,42,-136,124,-136,240v0,120,54,203,137,245v64,32,159,24,220,-4xm208,-454v36,-21,97,-21,134,1v53,33,85,95,88,176r-314,0v11,-76,36,-145,92,-177","w":538},"\u00ea":{"d":"269,-620v34,13,72,39,113,44v32,3,43,-47,13,-58r-127,-46r-124,48v-30,9,-21,59,9,56v42,-4,79,-31,116,-44xm391,-63v-50,15,-120,28,-170,3v-60,-29,-99,-87,-101,-173r335,0v33,-1,42,-3,42,-36v0,-110,-53,-189,-129,-229v-54,-29,-131,-27,-184,1v-80,42,-136,124,-136,240v0,120,54,203,137,245v64,32,159,24,220,-4xm208,-454v36,-21,97,-21,134,1v53,33,85,95,88,176r-314,0v11,-76,36,-145,92,-177","w":538},"\u00eb":{"d":"324,-620v0,22,19,42,40,41v24,1,43,-17,43,-41v1,-23,-20,-42,-43,-42v-22,0,-40,20,-40,42xm132,-620v0,24,20,41,43,41v22,0,41,-20,41,-42v0,-22,-19,-41,-41,-41v-23,0,-43,19,-43,42xm391,-63v-50,15,-120,28,-170,3v-60,-29,-99,-87,-101,-173r335,0v33,-1,42,-3,42,-36v0,-110,-53,-189,-129,-229v-54,-29,-131,-27,-184,1v-80,42,-136,124,-136,240v0,120,54,203,137,245v64,32,159,24,220,-4xm208,-454v36,-21,97,-21,134,1v53,33,85,95,88,176r-314,0v11,-76,36,-145,92,-177","w":538},"\u00ec":{"d":"49,-682v-30,-12,-56,-7,-56,20v0,30,26,30,53,42r47,20v24,9,51,22,73,24v33,3,38,-44,9,-56r-80,-33v-17,-7,-33,-12,-46,-17xm109,-520v-18,0,-33,13,-33,31r0,490r62,0r0,-490v1,-15,-15,-31,-29,-31","w":190},"\u00ed":{"d":"1,-620v-15,19,0,49,24,45v49,-8,108,-40,152,-57v11,-4,20,-15,20,-29v0,-28,-27,-33,-56,-21r-126,50v-5,2,-10,6,-14,12xm109,-520v-18,0,-33,13,-33,31r0,490r62,0r0,-490v1,-15,-15,-31,-29,-31","w":190},"\u00ee":{"d":"95,-620v34,13,72,39,113,44v32,3,43,-47,13,-58r-127,-46r-124,48v-30,9,-21,59,9,56v42,-4,79,-31,116,-44xm109,-520v-18,0,-33,13,-33,31r0,490r62,0r0,-490v1,-15,-15,-31,-29,-31","w":190},"\u00ef":{"d":"150,-620v0,22,19,42,40,41v24,1,43,-17,43,-41v1,-23,-20,-42,-43,-42v-22,0,-40,20,-40,42xm-42,-620v0,24,20,41,43,41v22,0,41,-20,41,-42v0,-22,-19,-41,-41,-41v-23,0,-43,19,-43,42xm109,-520v-18,0,-33,13,-33,31r0,490r62,0r0,-490v1,-15,-15,-31,-29,-31","w":190},"\u00f1":{"d":"139,-615v0,16,13,28,30,28r210,1v16,1,31,-13,31,-29v1,-16,-15,-29,-30,-29r-212,0v-16,0,-29,13,-29,29xm411,-20v0,17,13,31,30,31v18,0,32,-14,32,-32r0,-307v-1,-90,-43,-149,-108,-177v-23,-9,-48,-14,-76,-14v-73,0,-115,38,-152,95v-4,-39,14,-98,-29,-97v-18,0,-33,14,-33,32r0,490r62,0r0,-330v2,-64,37,-106,83,-127v55,-25,123,-2,150,30v21,24,41,57,41,99r0,307","w":548},"\u00f2":{"d":"227,-682v-30,-12,-56,-7,-56,20v0,30,26,30,53,42r47,20v24,9,51,22,73,24v33,3,38,-44,9,-56r-80,-33v-17,-7,-33,-12,-46,-17xm178,-12v55,28,136,29,190,0v99,-52,160,-201,114,-342v-30,-91,-93,-166,-209,-166v-116,0,-180,76,-209,166v-46,145,14,291,114,342xm200,-446v38,-27,107,-26,146,-1v69,45,100,155,77,263v-11,52,-38,94,-77,120v-38,26,-110,27,-148,0v-66,-47,-98,-155,-74,-262v12,-51,38,-93,76,-120","w":547},"\u00f3":{"d":"179,-620v-15,19,0,49,24,45v49,-8,108,-40,152,-57v11,-4,20,-15,20,-29v0,-28,-27,-33,-56,-21r-126,50v-5,2,-10,6,-14,12xm178,-12v55,28,136,29,190,0v99,-52,160,-201,114,-342v-30,-91,-93,-166,-209,-166v-116,0,-180,76,-209,166v-46,145,14,291,114,342xm200,-446v38,-27,107,-26,146,-1v69,45,100,155,77,263v-11,52,-38,94,-77,120v-38,26,-110,27,-148,0v-66,-47,-98,-155,-74,-262v12,-51,38,-93,76,-120","w":547},"\u00f4":{"d":"273,-620v34,13,72,39,113,44v32,3,43,-47,13,-58r-127,-46r-124,48v-30,9,-21,59,9,56v42,-4,79,-31,116,-44xm178,-12v55,28,136,29,190,0v99,-52,160,-201,114,-342v-30,-91,-93,-166,-209,-166v-116,0,-180,76,-209,166v-46,145,14,291,114,342xm200,-446v38,-27,107,-26,146,-1v69,45,100,155,77,263v-11,52,-38,94,-77,120v-38,26,-110,27,-148,0v-66,-47,-98,-155,-74,-262v12,-51,38,-93,76,-120","w":547},"\u00f5":{"d":"138,-615v0,16,13,28,30,28r210,1v16,1,31,-13,31,-29v1,-16,-15,-29,-30,-29r-212,0v-16,0,-29,13,-29,29xm178,-12v55,28,136,29,190,0v99,-52,160,-201,114,-342v-30,-91,-93,-166,-209,-166v-116,0,-180,76,-209,166v-46,145,14,291,114,342xm200,-446v38,-27,107,-26,146,-1v69,45,100,155,77,263v-11,52,-38,94,-77,120v-38,26,-110,27,-148,0v-66,-47,-98,-155,-74,-262v12,-51,38,-93,76,-120","w":547},"\u00f6":{"d":"328,-646v0,22,18,41,40,41v22,0,42,-20,42,-42v0,-22,-18,-41,-40,-41v-22,0,-42,20,-42,42xm137,-646v0,22,19,41,41,41v22,0,42,-19,42,-41v0,-22,-21,-42,-43,-42v-23,0,-40,19,-40,42xm178,-12v55,28,136,29,190,0v99,-52,160,-201,114,-342v-30,-91,-93,-166,-209,-166v-116,0,-180,76,-209,166v-46,145,14,291,114,342xm199,-446v38,-27,108,-26,147,-1v69,45,101,157,76,265v-18,75,-59,139,-151,139v-112,0,-155,-101,-155,-212v0,-84,30,-154,83,-191","w":547},"\u00f7":{"d":"229,-359v0,26,20,46,46,46v25,0,45,-21,45,-46v0,-23,-22,-46,-45,-46v-26,0,-46,20,-46,46xm54,-202r441,0r0,-46r-441,0r0,46xm229,-90v0,26,20,46,46,46v25,0,45,-21,45,-46v0,-26,-19,-46,-45,-46v-26,0,-46,20,-46,46","w":618},"\u00f8":{"d":"482,-154v34,-100,11,-211,-40,-280v20,-24,41,-46,58,-72v13,-13,11,-35,-10,-34v-12,1,-22,18,-30,25v-15,16,-25,34,-39,50v-74,-57,-160,-76,-243,-33v-79,40,-130,126,-130,241v0,73,22,129,53,180r-65,94r23,19r69,-89v37,38,79,63,143,63v116,0,181,-74,211,-164xm145,-127v-41,-77,-37,-197,5,-267v24,-39,61,-74,124,-73v47,1,80,21,105,51xm401,-385v41,80,36,200,-7,271v-30,50,-105,89,-178,58v-18,-7,-35,-20,-52,-37","w":546},"\u00f9":{"d":"229,-682v-30,-12,-56,-7,-56,20v0,30,26,30,53,42r47,20v24,9,51,22,73,24v33,3,38,-44,9,-56r-80,-33v-17,-7,-33,-12,-46,-17xm75,-187v-1,129,71,196,200,196v129,0,201,-67,200,-196r0,-300v0,-18,-13,-33,-31,-33v-17,0,-32,14,-31,32r0,299v0,90,-45,145,-138,145v-93,0,-136,-56,-137,-145r0,-312r-63,1r0,313","w":550},"\u00fa":{"d":"181,-620v-15,19,0,49,24,45v49,-8,108,-40,152,-57v11,-4,20,-15,20,-29v0,-28,-27,-33,-56,-21r-126,50v-5,2,-10,6,-14,12xm75,-187v-1,129,71,196,200,196v129,0,201,-67,200,-196r0,-300v0,-18,-13,-33,-31,-33v-17,0,-32,14,-31,32r0,299v0,90,-45,145,-138,145v-93,0,-136,-56,-137,-145r0,-312r-63,1r0,313","w":550},"\u00fb":{"d":"275,-620v34,13,72,39,113,44v32,3,43,-47,13,-58r-127,-46r-124,48v-30,9,-21,59,9,56v42,-4,79,-31,116,-44xm75,-187v-1,129,71,196,200,196v129,0,201,-67,200,-196r0,-300v0,-18,-13,-33,-31,-33v-17,0,-32,14,-31,32r0,299v0,90,-45,145,-138,145v-93,0,-136,-56,-137,-145r0,-312r-63,1r0,313","w":550},"\u00fc":{"d":"329,-647v0,22,19,41,41,41v23,0,42,-19,42,-41v0,-23,-19,-42,-41,-42v-22,0,-42,20,-42,42xm139,-646v0,22,19,40,41,40v22,0,42,-19,42,-41v0,-22,-20,-42,-42,-42v-24,0,-41,20,-41,43xm75,-187v-1,129,71,196,200,196v129,0,201,-67,200,-196r0,-300v0,-18,-13,-33,-31,-33v-17,0,-32,14,-31,32r0,299v0,90,-45,145,-138,145v-93,0,-136,-56,-137,-145r0,-312r-63,1r0,313","w":550},"\u00ff":{"d":"271,-620v0,22,19,42,40,41v24,1,43,-17,43,-41v1,-23,-20,-42,-43,-42v-22,0,-40,20,-40,42xm79,-620v0,24,20,41,43,41v22,0,41,-20,41,-42v0,-22,-19,-41,-41,-41v-23,0,-43,19,-43,42xm122,158v-14,36,-10,63,24,63v18,0,25,-15,31,-30r203,-575r24,-74v6,-19,9,-29,9,-32v1,-24,-33,-40,-51,-22v-5,5,-9,11,-12,19r-132,406r-141,-422r-61,19r170,484r-42,105v-9,22,-15,42,-22,59","w":433},"\u0152":{"d":"579,-24v0,15,13,24,29,24r259,0v17,0,30,-12,30,-28v0,-15,-14,-29,-29,-28r-230,0r0,-264r209,0v16,1,31,-13,31,-29v0,-16,-13,-28,-30,-28r-209,0r0,-264r220,0v15,1,29,-13,29,-28v0,-17,-13,-29,-30,-29r-247,0v-43,-1,-32,46,-31,84r0,53v-47,-82,-109,-146,-230,-148v-109,-2,-180,50,-228,114v-66,88,-96,254,-54,387v27,84,79,150,153,188v37,19,80,29,127,29v114,0,180,-59,231,-150r0,117xm242,-622v55,-36,158,-35,214,1v100,63,146,225,110,379v-25,107,-88,190,-220,191v-87,1,-141,-44,-177,-97v-67,-99,-66,-303,1,-402v19,-28,42,-54,72,-72","w":945},"\u0153":{"d":"744,-64v-41,17,-103,20,-145,0v-61,-30,-97,-88,-100,-174r332,0v35,-1,43,-1,43,-36v0,-111,-52,-187,-129,-226v-27,-14,-58,-21,-91,-21v-93,0,-154,56,-191,128v-34,-72,-101,-127,-191,-127v-116,0,-181,73,-209,164v-45,143,13,290,111,340v113,58,248,-7,289,-102v42,87,132,144,253,122v17,-4,35,-9,52,-16xm496,-279v19,-93,44,-189,154,-189v82,0,125,53,146,117v7,23,11,47,11,72r-311,0xm194,-448v37,-28,109,-26,150,-4v91,49,108,231,54,333v-22,42,-60,77,-124,75v-113,-3,-158,-95,-158,-206v0,-84,27,-159,78,-198","w":914},"\u0178":{"d":"308,-806v0,22,19,42,40,41v24,1,43,-17,43,-41v1,-23,-20,-42,-43,-42v-22,0,-40,20,-40,42xm116,-806v0,24,20,41,43,41v22,0,41,-20,41,-42v0,-22,-19,-41,-41,-41v-23,0,-43,19,-43,42xm486,-658v15,-21,0,-48,-25,-47v-13,0,-23,6,-30,17r-178,295r-186,-314r-54,35r207,342r0,305v0,18,15,34,33,34v18,0,33,-16,33,-34r0,-305","w":506},"\u02c6":{"d":"153,-620v34,13,72,39,113,44v32,3,43,-47,13,-58r-127,-46r-124,48v-30,9,-21,59,9,56v42,-4,79,-31,116,-44","w":306},"\u02dc":{"d":"9,-615v0,16,13,28,30,28r210,1v16,1,31,-13,31,-29v1,-16,-15,-29,-30,-29r-212,0v-16,0,-29,13,-29,29","w":289},"\u2013":{"d":"41,-328v0,11,9,22,20,22r422,0v13,0,19,-7,19,-22v0,-10,-9,-21,-19,-21r-421,0v-10,0,-21,11,-21,21","w":544},"\u2014":{"d":"58,-195r418,0r0,-63r-418,0r0,63","w":536},"\u2018":{"d":"16,-551v-10,21,6,47,28,46v13,0,23,-6,28,-18r84,-170r-59,-28","w":193},"\u2019":{"d":"160,-683v16,-27,-17,-58,-44,-41v-5,3,-9,8,-12,13r-83,170r58,28","w":193},"\u201a":{"d":"13,103v-4,32,44,43,59,14r58,-115v9,-18,15,-35,20,-48r-56,-26r-52,102v-9,21,-26,52,-29,73","w":186},"\u201c":{"d":"166,-551v-10,21,6,47,28,46v13,0,23,-6,28,-18r84,-170r-59,-28xm16,-551v-10,21,6,47,28,46v13,0,23,-6,28,-18r84,-170r-59,-28","w":340},"\u201d":{"d":"310,-683v16,-27,-17,-58,-44,-41v-5,3,-9,8,-12,13r-83,170r58,28xm160,-683v16,-27,-17,-58,-44,-41v-5,3,-9,8,-12,13r-83,170r58,28","w":340},"\u201e":{"d":"156,89v-10,21,6,47,28,46v13,0,23,-6,28,-18r84,-170r-59,-28xm16,89v-10,21,6,47,28,46v13,0,23,-6,28,-18r84,-170r-59,-28","w":328},"\u2022":{"d":"102,-349v0,43,38,81,81,81v44,0,81,-37,81,-81v0,-44,-37,-81,-81,-81v-43,0,-81,38,-81,81","w":304},"\u2026":{"d":"434,-34v0,23,20,43,43,43v22,0,43,-21,43,-43v0,-22,-21,-43,-43,-43v-23,0,-43,20,-43,43xm243,-34v0,23,20,43,43,43v23,0,43,-20,43,-43v0,-23,-20,-43,-43,-43v-23,0,-43,20,-43,43xm52,-34v0,23,20,43,43,43v23,0,43,-20,43,-43v0,-23,-20,-43,-43,-43v-23,0,-43,20,-43,43","w":572},"\u2039":{"d":"162,-66v26,19,49,-12,32,-40r-91,-149r92,-149v11,-15,7,-48,-16,-46v-12,1,-25,10,-30,19r-95,163v-11,15,5,29,11,40r85,147v3,6,7,11,12,15","w":252},"\u203a":{"d":"75,-448v-23,0,-29,26,-17,46r91,148r-92,149v-11,15,-7,48,16,46v13,-1,24,-10,30,-19r96,-163v10,-15,-6,-29,-12,-40r-85,-147v-8,-13,-17,-20,-27,-20","w":252},"\u2122":{"d":"705,-347r-56,-332v-2,-12,-13,-24,-26,-24v-15,0,-24,8,-29,23r-92,313r-92,-313v-4,-21,-30,-31,-46,-16v-5,5,-9,10,-10,17r-56,332r32,-1r51,-343r102,345r38,0r102,-345r50,343xm60,-685v0,6,7,14,13,14r83,0r0,319r31,0r0,-319r84,0v9,0,14,-4,14,-13v0,-9,-4,-14,-13,-14r-199,0v-9,0,-13,4,-13,13","w":770}}});
