/*!
 * The following copyright notice may not be removed under any circumstances.
 * 
 * Copyright:
 * 29-7-95 \251 Manfred Klein
 */
Cufon.registerFont({"w":652,"face":{"font-family":"Folks","font-weight":700,"font-stretch":"normal","units-per-em":"1000","panose-1":"2 0 8 3 4 0 0 2 0 4","ascent":"800","descent":"-200","x-height":"11","cap-height":"1","bbox":"-34 -942 956 242.889","underline-thickness":"20","underline-position":"-123","unicode-range":"U+0020-U+2122"},"glyphs":{" ":{"w":287},"!":{"d":"118,-196v36,-4,76,-20,76,-55r0,-466r-153,0r0,465v4,36,40,52,77,56xm118,16v47,0,87,-40,87,-87v0,-48,-41,-87,-89,-87v-47,0,-86,41,-86,88v0,47,41,86,88,86","w":243},"\"":{"d":"306,-720r-104,0r-21,239r94,0xm153,-720r-104,0r-21,239r94,0","w":346},"#":{"d":"509,-449v18,0,39,-15,39,-34v0,-14,-12,-27,-26,-27r-100,2r45,-203r-61,0r-43,203r-100,0r44,-203r-61,0r-43,203r-97,-2v-18,0,-38,15,-38,34v0,14,12,27,26,27r96,0r-37,178r-100,0v-18,0,-38,15,-37,34v0,14,11,26,25,26r99,0r-34,165v-4,19,-6,30,-5,34v-1,24,32,32,46,15v6,-6,10,-13,11,-20r42,-195r101,0r-37,168v-4,19,-6,30,-6,33v5,38,54,23,60,-5r42,-195r101,0v19,1,38,-17,37,-36v0,-13,-12,-26,-26,-25r-100,0r38,-177r99,0xm350,-449r-37,178r-101,0r38,-178r100,0","w":584},"$":{"d":"-8,-66v57,44,140,71,237,74r0,77r37,0r0,-78v109,-8,187,-69,226,-149v26,-52,28,-127,0,-176v-43,-75,-135,-106,-226,-133r1,-137v43,10,83,35,129,40v54,6,91,-71,47,-109v-41,-35,-109,-55,-171,-68v-2,-20,-6,-38,-6,-61v-1,-16,-3,-33,-19,-33v-22,1,-19,31,-19,55r2,38v-100,8,-173,60,-212,132v-24,43,-28,104,-8,150v35,83,126,112,219,137r0,171v-75,3,-130,-34,-183,-60xm157,-531v0,-36,31,-73,75,-64v-5,39,-1,89,-2,134v-31,-14,-73,-27,-73,-70xm320,-272v33,21,33,78,2,106v-17,15,-35,26,-56,30r0,-161v19,7,38,15,54,25","w":523},"%":{"d":"214,-398v64,-37,105,-131,76,-228v-18,-60,-61,-111,-137,-111v-78,0,-120,54,-139,115v-30,96,10,188,74,224v36,20,91,21,126,0xm510,-653v24,-47,-26,-101,-75,-73v-9,5,-15,13,-19,22r-297,651r-6,15r90,55r14,-27xm548,1v64,-36,103,-130,74,-226v-18,-60,-60,-109,-136,-109v-77,0,-120,52,-139,112v-30,95,11,189,75,224v36,20,90,19,126,-1xm151,-486v-70,-3,-69,-144,1,-145v71,2,67,143,-1,145xm484,-87v-71,0,-69,-144,1,-144v36,0,53,36,53,68v-1,41,-14,76,-54,76","w":657},"&":{"d":"276,15v90,0,152,-43,206,-86r88,85v21,19,30,32,62,26v32,-5,55,-45,34,-78v-8,-13,-21,-29,-30,-39r-82,-91r94,-112r25,-29r-75,-79r3,6v-39,17,-60,64,-90,90v-7,7,-17,17,-22,24r-129,-125v39,-20,83,-48,106,-86v52,-85,18,-199,-57,-233v-78,-35,-190,-24,-247,18v-37,26,-70,67,-70,128v0,57,34,97,61,131v-73,45,-142,106,-142,218v0,120,74,185,166,217v32,10,65,15,99,15xm315,-615v37,-1,72,36,52,75v-12,23,-36,37,-56,52v-22,-22,-51,-39,-54,-78v-3,-31,30,-49,58,-49xm386,-175v-29,33,-92,71,-150,45v-36,-16,-66,-47,-67,-96v-1,-51,41,-91,77,-108","w":711},"'":{"d":"153,-720r-104,0r-21,239r94,0","w":188},"(":{"d":"128,71v52,16,93,-36,74,-91r-9,-33v-34,-121,-65,-253,-47,-405v11,-91,32,-170,50,-252v4,-16,8,-30,13,-42r-110,-27r-21,55v-7,20,-14,41,-20,62v-6,21,-12,41,-17,62v-18,72,-31,148,-32,236r1,-1v3,115,20,230,47,327v13,45,32,97,71,109","w":226},")":{"d":"91,-775v-21,-18,-64,-10,-77,12v-19,22,-5,53,2,75v41,132,73,296,52,466v-10,83,-35,149,-50,226v-3,12,-6,22,-9,31v21,18,66,30,97,39r36,-85v56,-129,84,-331,49,-500r-13,-67v-17,-74,-38,-156,-87,-197","w":219},"*":{"d":"241,-691v0,-26,-28,-43,-52,-43v-23,0,-51,18,-51,43v0,29,16,62,21,87r-67,-52v-14,-10,-32,3,-47,6v-13,6,-39,9,-25,27v10,12,22,33,33,42r75,32r-72,33v-14,12,-33,35,-41,53v11,15,47,20,69,24v26,-10,52,-40,73,-56v-8,24,-15,66,-18,95v4,20,28,29,50,31v27,-4,57,-12,49,-49r-16,-77r36,31v16,9,27,32,52,22v19,-8,37,-14,54,-21v-14,-17,-26,-39,-42,-53r-71,-34r75,-32v11,-8,30,-39,37,-51v-20,-8,-48,-23,-68,-27v-29,15,-50,38,-76,56v5,-25,22,-58,22,-87","w":393},"+":{"d":"293,-540v1,-32,-29,-62,-61,-62v-34,0,-63,28,-62,62r0,131r-173,0r0,123r173,0r0,134v1,36,28,60,62,61v33,0,62,-27,61,-61r0,-133r83,-1v28,-1,64,-2,79,-12v22,-13,42,-48,21,-75v-14,-16,-21,-27,-52,-30v-39,-5,-87,-4,-131,-4r0,-133","w":500},",":{"d":"6,54v-28,65,42,134,105,93v13,-8,22,-18,28,-31r97,-208r-137,-64","w":244},"-":{"d":"347,-369r-255,0v-45,4,-93,27,-80,81v5,23,20,48,45,48r291,0","w":405},".":{"d":"83,16v52,0,85,-35,87,-87v2,-47,-41,-87,-88,-87v-47,0,-90,40,-88,87v2,53,37,87,89,87","w":228},"\/":{"d":"8,-52v-18,54,19,83,75,77v3,0,9,-9,20,-29v55,-106,113,-231,159,-346r152,-376v-25,-20,-78,-37,-112,-51r-15,31","w":433},"0":{"d":"8,-360v4,176,68,303,198,355v47,19,111,18,158,0v132,-52,197,-181,197,-359v0,-174,-68,-303,-199,-353v-47,-17,-109,-17,-156,1v-132,51,-194,180,-199,356r1,0xm347,-567v82,87,82,329,1,416v-31,34,-97,33,-128,0v-82,-88,-77,-331,2,-416v31,-34,94,-33,125,0","w":588},"1":{"d":"35,-651v0,38,33,70,71,70r77,0r0,581r159,0r0,-643v0,-44,-30,-77,-75,-77r-162,0v-38,-1,-70,31,-70,69","w":391},"2":{"d":"34,-66v-2,44,41,66,81,66r415,0r0,-140r-254,0r58,-67v62,-78,132,-155,171,-255v19,-50,15,-108,-8,-151v-37,-71,-113,-113,-215,-116v-101,-2,-192,56,-232,133v-14,25,-21,53,-21,83v0,63,77,110,115,57v38,-53,50,-133,138,-135v38,-1,80,29,74,67v-17,104,-103,168,-158,242v-34,46,-72,90,-111,132v-22,23,-51,42,-53,84","w":580},"3":{"d":"146,-224v-48,-47,-133,11,-110,82v26,78,89,125,170,144v140,33,256,-35,306,-130v15,-29,23,-60,23,-95v-1,-85,-52,-140,-114,-170v60,-39,96,-146,55,-227v-33,-65,-98,-109,-192,-109v-108,0,-169,54,-226,112r78,104v30,-35,83,-70,140,-76v46,-5,86,55,56,96v-28,40,-91,44,-126,76v-12,11,-12,37,-5,51v3,23,17,30,32,40v49,35,137,26,141,106v4,76,-98,113,-156,72v-29,-21,-48,-52,-72,-76","w":587},"4":{"d":"485,-161v51,-1,96,-16,96,-68v0,-52,-44,-67,-94,-69r0,-299v-1,-80,-32,-132,-113,-132v-53,1,-79,27,-101,62r-247,384v-9,13,-20,31,-20,52v1,51,39,69,90,70r233,0r0,162r156,0r0,-162xm328,-299r-160,0r161,-272","w":608},"5":{"d":"130,-180v-63,-35,-137,38,-94,100v63,92,267,124,375,50v64,-44,113,-113,113,-220v0,-99,-51,-165,-122,-197v-46,-22,-114,-22,-163,-4r22,-128r228,0r25,-141r-308,0v-45,0,-71,23,-77,64r-43,272v-6,50,39,85,88,68v29,-10,54,-25,90,-26v58,-1,99,40,98,99v0,79,-70,132,-150,102v-31,-11,-55,-24,-82,-39","w":568},"6":{"d":"380,-8v107,-43,177,-170,136,-315v-27,-96,-126,-165,-253,-130v42,-81,99,-158,157,-225r-62,-30r-60,-33r-128,161r-25,35v-57,82,-119,167,-119,300v0,122,63,200,152,237v60,25,141,25,202,0xm369,-236v0,61,-33,104,-94,104v-60,0,-91,-48,-91,-108v0,-60,31,-104,91,-104v62,0,94,47,94,108","w":574},"7":{"d":"99,-105v-39,68,41,143,111,101v13,-8,24,-19,31,-33r288,-582v27,-50,-18,-100,-69,-100r-437,-1r0,140r326,0","w":581},"8":{"d":"141,-397v-68,24,-111,84,-111,172v0,119,68,186,158,218v61,21,137,21,198,0v90,-33,159,-99,159,-218v0,-88,-43,-149,-112,-172v54,-35,95,-123,64,-205v-30,-80,-103,-129,-207,-129v-128,0,-224,65,-224,192v0,66,35,111,75,142xm288,-452v-42,0,-76,-37,-76,-78v0,-41,34,-75,75,-75v41,0,76,34,76,75v0,40,-34,78,-75,78xm196,-199v-25,-70,21,-145,91,-142v60,3,97,40,99,101v2,75,-66,130,-139,99v-24,-10,-42,-32,-51,-58","w":596},"9":{"d":"440,-199v56,-90,127,-239,74,-377v-35,-91,-114,-153,-236,-153v-122,0,-195,67,-231,157v-33,82,-15,195,30,247v44,51,129,86,219,61v-42,61,-88,120,-137,174v-10,11,-16,20,-24,31v33,27,69,50,97,82v3,3,5,5,6,4r96,-100v33,-37,82,-87,106,-126xm283,-587v60,0,92,47,92,106v0,62,-30,108,-92,108v-63,0,-94,-46,-94,-108v0,-61,33,-106,94,-106","w":580},":":{"d":"109,-320v47,0,88,-40,88,-87v0,-48,-41,-89,-88,-87v-53,2,-85,35,-87,87v-2,47,40,87,87,87xm111,16v52,0,85,-35,87,-87v2,-47,-41,-87,-88,-87v-47,0,-90,40,-88,87v2,53,37,87,89,87","w":229},";":{"d":"231,-408v2,-47,-40,-88,-87,-88v-48,0,-89,40,-89,88v0,49,42,90,90,88v52,-2,83,-36,86,-88xm1,54v-31,65,42,134,105,93v13,-8,22,-18,28,-31r105,-217r-137,-64","w":242},"<":{"d":"447,-125r0,-117r-225,-118r225,-119r0,-117r-422,236","w":488},"=":{"d":"476,-198v33,1,62,-26,62,-60v0,-34,-28,-63,-62,-62r-445,0r0,122r445,0xm476,-368v33,1,62,-26,62,-60v0,-34,-28,-63,-62,-62r-445,0r0,122r445,0","w":590},">":{"d":"431,-360r-422,-236r0,118r225,118r-225,119r0,117","w":455},"?":{"d":"305,-530v-2,98,-156,48,-156,144r0,190r153,-1r-1,-154v92,-21,162,-76,162,-185v0,-108,-68,-165,-153,-190v-127,-37,-252,12,-300,98v-26,47,-6,118,50,118v29,0,40,-18,53,-34v25,-31,59,-56,111,-56v43,0,82,25,81,70xm225,16v47,0,87,-39,87,-87v0,-47,-42,-86,-88,-86v-47,0,-87,40,-87,87v0,47,41,86,88,86","w":478},"@":{"d":"375,-72v-5,89,112,99,169,53v86,-70,143,-242,86,-376v-45,-107,-141,-184,-288,-184v-176,0,-286,100,-340,229v-37,89,-38,199,-1,289v36,91,100,161,187,201v44,20,92,31,143,31r0,-51v-150,-9,-223,-86,-269,-203v-29,-74,-27,-167,1,-241v29,-78,86,-139,159,-174v64,-31,157,-35,225,-7v99,41,164,141,145,285v-10,73,-40,128,-87,166v-12,10,-24,16,-38,16v-51,-1,-44,-68,-37,-115r28,-165r20,-105r-52,0r-8,52v-16,-64,-118,-76,-170,-33v-60,50,-104,135,-104,237v0,91,34,169,127,171v51,1,89,-38,104,-76xm332,-386v43,0,65,39,65,78v0,69,-20,145,-43,198v-17,38,-32,70,-78,70v-79,0,-76,-98,-64,-176v9,-54,30,-109,61,-143v16,-18,36,-27,59,-27","w":706},"A":{"d":"-22,-86v-23,72,70,127,122,76v27,-26,46,-82,62,-120r287,0r49,147r156,-41r-230,-613v-20,-52,-53,-90,-121,-90v-63,0,-98,43,-117,90r-201,530v-3,7,-5,14,-7,21xm402,-267r-195,0r98,-293"},"B":{"d":"104,-720v-46,-1,-82,35,-82,81r0,640r301,-1v105,-2,175,-52,210,-126v12,-26,18,-56,18,-89v-2,-90,-54,-150,-129,-171v41,-26,69,-71,69,-133v0,-102,-64,-159,-142,-187v-68,-23,-159,-11,-245,-14xm338,-510v0,47,-37,74,-85,74r-71,0r0,-146r76,0v45,3,80,27,80,72xm391,-221v0,51,-37,83,-87,83r-123,0r0,-167r124,0v50,3,86,33,86,84","w":593},"C":{"d":"580,-639v-63,-49,-152,-96,-263,-87v-151,13,-246,109,-291,234v-28,78,-31,170,-4,250v51,155,177,270,388,247v73,-8,136,-33,170,-83v38,-56,-22,-132,-90,-100v-41,19,-80,41,-140,41v-128,0,-188,-96,-188,-225v0,-124,65,-203,171,-223v82,-16,144,21,191,59","w":616},"D":{"d":"12,-79v-1,44,38,80,82,79v120,-3,243,11,330,-28v138,-61,232,-213,196,-415v-23,-132,-108,-220,-228,-259v-102,-33,-248,-12,-380,-19r0,642xm171,-581v65,1,131,-5,177,17v71,34,118,101,118,202v0,101,-44,171,-114,206v-46,23,-114,17,-181,18r0,-443","w":661},"E":{"d":"21,-82v3,48,31,82,79,82r346,0r0,-140r-266,0r0,-151r165,0v38,1,73,-30,72,-69v-1,-41,-32,-69,-74,-69r-163,0r0,-151r183,0v38,1,70,-32,70,-70v0,-38,-31,-70,-69,-70r-343,-1r0,639","w":484},"F":{"d":"412,-352v0,-38,-33,-71,-71,-71r-161,0r0,-157r238,0r0,-141r-316,0v-46,-1,-83,35,-83,82r0,639r160,0r0,-284r162,0v38,1,71,-30,71,-68","w":452},"G":{"d":"607,-652v-61,-41,-134,-76,-228,-76v-177,0,-288,94,-341,224v-37,89,-37,209,0,297v54,128,165,216,341,216v158,0,254,-84,299,-201v15,-41,23,-85,23,-133v-1,-65,-20,-101,-88,-100r-170,0v-36,-1,-71,33,-71,70v0,39,33,72,72,71r93,0v-17,86,-64,155,-164,155v-105,0,-164,-60,-191,-141v-29,-88,-4,-198,38,-250v39,-48,112,-86,198,-66v49,11,87,38,126,60","w":736},"H":{"d":"574,9v43,2,80,-36,80,-79r0,-651r-160,2r0,283r-305,0r0,-212v1,-45,-34,-80,-79,-80v-43,0,-80,37,-80,80r0,648r159,0r0,-299r306,0r0,230v3,46,33,76,79,78","w":709},"I":{"d":"154,-814v0,-30,-27,-56,-57,-56v-30,0,-56,26,-56,56v0,31,27,57,57,57v30,0,56,-26,56,-57xm102,-727v-42,0,-80,37,-80,79r0,649r159,0r0,-649v1,-42,-37,-79,-79,-79","w":210},"J":{"d":"15,-35v46,18,102,46,163,45v138,-3,209,-89,209,-227r0,-431v1,-42,-35,-80,-78,-80v-42,0,-79,37,-79,79r0,437v2,58,-31,106,-90,84r-90,-34","w":417},"K":{"d":"539,8v42,1,80,-34,79,-77v0,-21,-7,-39,-22,-55r-253,-259r255,-242r-116,-106r-287,289r0,-207v1,-43,-36,-80,-79,-80v-43,0,-80,36,-80,79r0,650r159,0r0,-323r284,305v16,17,36,26,60,26","w":677},"L":{"d":"28,-45v1,36,40,46,75,46r315,-1r-1,-140r-230,0r0,-508v1,-43,-36,-81,-79,-81v-43,0,-80,38,-80,81r0,603","w":462},"M":{"d":"13,-87v-17,78,74,122,129,75v15,-13,24,-29,27,-49r61,-437r134,448r142,0r134,-448r70,506r155,-26r-102,-620v-6,-76,-112,-120,-175,-69v-18,15,-32,34,-39,58r-115,393r-114,-393v-13,-44,-50,-80,-104,-80v-58,0,-101,39,-110,91","w":908},"N":{"d":"546,1v55,27,115,-16,115,-71r0,-578v-3,-47,-32,-80,-80,-80v-48,0,-79,34,-79,81r0,385r-320,-430v-14,-19,-37,-37,-67,-37v-44,-1,-81,38,-80,81r0,648r159,0r0,-462r325,441v7,9,16,17,27,22","w":720},"O":{"d":"509,-700v-83,-40,-198,-40,-281,0v-120,58,-209,170,-209,340v0,168,89,283,208,340v83,40,198,40,281,0v120,-58,208,-170,208,-340v0,-169,-88,-283,-207,-340xm451,-570v85,46,127,174,92,298v-23,79,-77,143,-177,143v-100,0,-152,-68,-174,-148v-33,-124,10,-247,92,-293v46,-26,121,-25,167,0","w":761},"P":{"d":"4,-73v-3,55,67,105,116,69v22,-16,32,-26,37,-66v6,-51,6,-112,6,-169r108,-1v126,-2,206,-57,246,-146v16,-39,22,-84,15,-133v-14,-95,-86,-162,-175,-182v-108,-24,-227,-19,-353,-19r0,647xm276,-580v73,1,122,68,94,140v-14,35,-46,62,-94,62r-112,0r0,-202r112,0","w":558},"Q":{"d":"375,10v77,-1,136,-26,186,-60r120,121r98,-101r-119,-117v64,-84,84,-236,38,-353v-35,-89,-98,-159,-182,-199v-83,-39,-199,-40,-282,-1v-120,57,-207,170,-207,339v0,169,88,283,207,341v42,20,90,30,141,30xm456,-572v81,42,120,148,101,269v-3,19,-9,39,-17,58v-20,-1,-32,-22,-57,-17v-26,5,-34,39,-20,64v5,9,11,20,13,30v-43,46,-127,49,-184,18v-84,-45,-127,-175,-92,-296v23,-79,74,-142,174,-145v31,0,58,6,82,19","w":834},"R":{"d":"118,10v41,1,79,-38,79,-79r0,-227r259,325r130,-88r-209,-245v100,-21,179,-72,179,-190v0,-151,-109,-226,-242,-227r-138,-1r-108,2v-14,0,-24,0,-30,-1r0,650v4,47,32,79,80,81xm310,-580v52,3,84,35,87,87v2,44,-39,83,-83,83r-117,0r0,-170r113,0","w":645},"S":{"d":"-3,-60v72,32,171,69,269,69v130,0,222,-68,260,-168v20,-52,15,-120,-12,-161v-53,-81,-165,-107,-264,-141v-31,-11,-65,-26,-65,-66v0,-56,68,-72,125,-57v39,11,72,32,116,35v59,4,86,-82,42,-121v-58,-52,-178,-74,-274,-44v-63,19,-115,58,-146,110v-31,51,-29,142,3,188v61,87,201,94,292,150v15,9,32,22,32,43v0,79,-91,106,-169,81r-120,-40r-48,-19r-18,57r-8,31v-5,16,-13,37,-15,53","w":553},"T":{"d":"428,-581v37,1,70,-31,70,-68v0,-38,-31,-71,-70,-71r-429,0r1,139r158,0r0,510v-1,41,38,79,79,79v43,0,79,-36,79,-79r0,-510r112,0","w":515},"U":{"d":"349,-127v-95,0,-158,-63,-158,-158r0,-437r-159,0r0,433v2,149,79,236,191,277v76,27,176,27,252,0v112,-41,191,-128,191,-277r0,-358v1,-43,-37,-81,-80,-81v-43,0,-79,37,-79,80r0,363v1,95,-63,158,-158,158","w":724},"V":{"d":"599,-618v33,-74,-55,-140,-119,-94v-13,10,-23,23,-29,39r-154,439r-181,-496r-148,56r251,623v14,31,33,61,76,61v48,0,64,-25,79,-61","w":595},"W":{"d":"894,-632v19,-75,-78,-127,-131,-76v-13,14,-22,31,-26,50r-91,438r-127,-447r-145,0r-127,447r-106,-507r-156,26r136,620v11,53,46,90,109,90v53,0,92,-34,104,-78r113,-388r113,388v13,43,51,78,104,78v63,0,98,-38,109,-91","w":913},"X":{"d":"510,-4v49,35,118,-9,118,-65v0,-18,-6,-35,-17,-50r-197,-268r164,-212v46,-50,2,-130,-59,-129v-34,0,-56,23,-72,44r-125,176r-161,-225r-121,98r190,249r-197,268v-52,64,30,162,103,114v12,-8,22,-18,30,-30r157,-229r157,229v9,12,19,22,30,30","w":669},"Y":{"d":"287,9v43,0,80,-38,80,-81r0,-266r194,-266v8,-12,15,-26,15,-44v0,-60,-63,-98,-118,-68v-13,7,-23,17,-30,28r-142,209r-170,-253r-124,95v0,3,5,9,6,11r209,288r0,266v-1,43,36,81,80,81","w":587},"Z":{"d":"512,0v37,1,72,-31,72,-69v0,-38,-35,-70,-72,-70r-304,0r329,-458v9,-15,23,-31,22,-54v-2,-49,-46,-69,-95,-69r-461,0r0,138r332,0r-329,461v-10,11,-15,28,-15,47v-2,49,42,74,88,74r433,0","w":595},"[":{"d":"243,-56r-73,-2r0,-605v55,2,97,-28,86,-85v-5,-24,-22,-50,-49,-50r-138,0v-32,-1,-56,29,-56,60r0,756v0,31,24,60,56,60r175,0","w":280},"\\":{"d":"264,0r-126,-720r-104,0r127,720r103,0","w":308},"]":{"d":"209,78v32,1,56,-30,56,-60r0,-756v0,-30,-24,-60,-56,-60r-129,0v-36,-1,-68,32,-68,68v0,49,49,74,96,67r0,606r-79,0r0,135r180,0","w":286},"^":{"d":"491,-162r-237,-421r-236,422r119,0r117,-225r119,225","w":527},"_":{"d":"367,227r0,-35r-361,0r0,35r361,0","w":387},"a":{"d":"415,-65v-2,21,0,45,0,67r139,0r0,-472v1,-48,-34,-76,-88,-66v-28,5,-65,27,-69,56v-48,-29,-126,-57,-202,-37v-105,28,-168,121,-168,251v0,124,60,209,147,252v53,26,128,33,182,5v24,-12,44,-31,59,-56xm296,-412v79,0,110,63,110,141v0,82,-30,150,-112,150v-80,0,-112,-67,-112,-146v0,-79,34,-145,114,-145","w":602},"b":{"d":"141,-59v30,42,78,68,143,68v126,0,197,-79,230,-177v37,-107,4,-234,-50,-294v-40,-45,-97,-84,-178,-84v-53,0,-98,21,-128,48r0,-266r-154,0r0,695v0,46,30,79,77,79v42,0,55,-34,60,-69xm264,-410v79,0,111,64,111,142v0,78,-31,144,-109,144v-82,0,-113,-63,-113,-144v0,-79,32,-142,111,-142","w":553},"c":{"d":"442,-504v-75,-43,-196,-48,-284,-10v-89,38,-158,123,-158,246v0,130,68,214,161,255v83,36,220,27,271,-26v13,-13,19,-29,19,-49v0,-41,-43,-77,-90,-62v-41,13,-97,33,-139,8v-39,-24,-66,-67,-66,-127v0,-79,41,-133,120,-135v46,-1,92,24,130,35v9,-43,29,-89,36,-135","w":468},"d":{"d":"464,9v46,0,77,-33,76,-79r0,-695r-154,0r0,270v-54,-59,-153,-66,-228,-29v-86,42,-145,130,-145,253v0,121,59,210,142,255v30,16,64,24,101,24v65,-1,116,-29,146,-71v4,36,19,72,62,72xm280,-409v82,2,110,67,110,149v0,76,-36,132,-112,134v-133,4,-141,-221,-48,-270v14,-8,31,-13,50,-13","w":573},"e":{"d":"473,-225v48,-1,73,-13,72,-63v-3,-119,-72,-196,-159,-236v-64,-29,-143,-25,-206,2v-93,42,-163,123,-163,253v0,136,75,218,175,258v77,31,185,24,255,-7r-21,-118v-64,16,-148,30,-197,-12v-24,-20,-41,-45,-48,-77r292,0xm181,-312v10,-61,36,-114,105,-114v65,0,93,53,100,114r-205,0","w":582},"f":{"d":"227,-616v5,-39,58,-19,86,-40v16,-12,26,-28,26,-51v0,-64,-65,-75,-137,-73v-96,3,-125,78,-126,174r-2,69v-50,0,-93,15,-93,64v0,50,45,70,93,70r0,628r153,0r0,-628v53,-1,102,-14,102,-66v0,-53,-49,-67,-102,-69r0,-78","w":331},"g":{"d":"167,90r-14,130v62,32,175,29,239,0v100,-43,160,-136,160,-275r0,-413v0,-47,-26,-79,-74,-79v-44,0,-58,34,-63,72v-28,-42,-77,-70,-140,-70v-128,0,-197,83,-232,181v-38,107,-6,236,49,296v41,45,98,81,180,81v55,-1,99,-23,127,-55v7,84,-37,150,-122,150v-40,0,-76,-10,-110,-18xm297,-409v133,-5,138,221,47,271v-14,8,-29,13,-48,13v-81,-3,-115,-64,-115,-145v0,-79,37,-136,116,-139","w":598},"h":{"d":"416,12v43,0,79,-35,79,-78r0,-283v-2,-94,-48,-153,-117,-181v-75,-31,-174,-8,-219,37r0,-212v1,-42,-34,-78,-76,-76v-46,2,-78,31,-78,77r0,705r154,0r0,-327v-1,-49,42,-92,91,-90v54,3,91,37,91,92r0,258v-1,40,34,78,75,78","w":518},"i":{"d":"176,-674v0,-30,-27,-56,-57,-56v-30,0,-56,26,-56,56v0,31,27,57,57,57v30,0,56,-26,56,-57xm124,-545v-42,-2,-78,34,-78,77r0,468r154,0r0,-468v-3,-45,-31,-75,-76,-77","w":254},"j":{"d":"174,-674v0,-30,-27,-56,-57,-56v-30,0,-56,26,-56,56v0,31,27,57,57,57v30,0,56,-26,56,-57xm198,181r0,-690r-154,0r0,691v5,69,154,66,154,-1","w":252},"k":{"d":"82,-783v-42,0,-77,35,-77,77r0,705r153,1r0,-232r210,248r123,-89r-212,-228r80,-68v30,-26,65,-50,79,-87v21,-56,-49,-109,-104,-79v-10,6,-21,13,-30,22r-146,139r0,-332v1,-42,-34,-77,-76,-77","w":514},"l":{"d":"100,-782v-42,0,-78,34,-78,77r0,706r154,-1r0,-705v1,-40,-35,-77,-76,-77","w":205},"m":{"d":"761,9v42,0,76,-35,76,-77r0,-290v-1,-92,-50,-148,-119,-174v-92,-33,-199,2,-243,62v-30,-44,-87,-77,-155,-77v-59,0,-109,27,-135,66v-3,-36,-20,-64,-60,-64v-46,0,-79,32,-78,78r0,467r153,0r0,-332v-1,-46,39,-82,84,-82v44,0,83,39,83,84r0,330r151,0r0,-330v-1,-45,38,-82,83,-82v45,0,83,39,82,83r0,261v-1,42,37,77,78,77","w":916},"n":{"d":"445,10v47,-2,77,-31,77,-78r0,-281v-1,-98,-55,-154,-127,-182v-83,-32,-187,-7,-223,55v-6,-35,-21,-73,-64,-71v-46,2,-76,33,-76,79r0,468r154,0r0,-325v-1,-49,41,-91,90,-91v49,0,92,43,92,92r0,258v-1,42,36,78,77,76","w":575},"o":{"d":"534,-162v27,-66,27,-148,0,-214v-40,-95,-117,-170,-246,-170v-129,0,-207,77,-246,172v-27,66,-27,148,0,214v40,96,118,171,247,171v129,0,206,-78,245,-173xm176,-268v0,-77,34,-144,112,-144v79,0,113,65,113,144v0,80,-33,148,-113,148v-79,0,-112,-69,-112,-148","w":597},"p":{"d":"108,-545v-46,0,-75,33,-75,79r0,695r153,0r0,-269v54,59,153,65,228,28v86,-43,145,-129,145,-252v0,-121,-59,-210,-142,-255v-30,-16,-64,-24,-101,-24v-65,1,-115,30,-145,71v-5,-36,-19,-73,-63,-73xm292,-126v-82,0,-110,-68,-110,-149v0,-76,35,-134,112,-134v78,0,111,65,111,143v0,77,-36,140,-113,140","w":613},"q":{"d":"423,-472v-30,-42,-81,-71,-146,-71v-124,0,-191,82,-226,177v-39,107,-4,233,50,293v41,45,99,84,181,84v49,0,91,-17,125,-51r0,269r154,0r0,-695v1,-46,-30,-79,-76,-79v-43,0,-58,37,-62,73xm299,-409v76,3,112,58,112,134v0,82,-28,147,-110,149v-133,4,-144,-218,-52,-270v14,-9,31,-13,50,-13","w":616},"r":{"d":"329,-436v14,-22,11,-58,-7,-77v-21,-21,-50,-27,-82,-13v-50,22,-88,59,-119,97v-12,-32,-27,-71,-58,-83v-17,-7,-37,12,-45,22v-5,6,-7,14,-7,23r0,469r154,-1r0,-242v-6,-93,45,-130,109,-155v22,-9,43,-21,55,-40","w":360},"s":{"d":"16,-59v69,46,183,88,291,58v75,-21,142,-65,142,-158v0,-143,-156,-150,-253,-202v-13,-7,-20,-16,-20,-27v2,-30,27,-42,57,-43v59,-1,92,36,145,39v30,2,61,-26,57,-57v-9,-78,-113,-97,-195,-97v-87,0,-156,35,-193,90v-25,38,-25,105,0,142v47,69,155,80,230,120v13,8,20,20,20,33v-2,35,-33,48,-68,48v-66,0,-121,-33,-168,-57","w":481},"t":{"d":"243,-407v51,-1,96,-14,96,-65v0,-52,-45,-65,-96,-66r0,-82v1,-41,-35,-80,-77,-80v-42,0,-77,38,-77,79r0,84v-50,1,-94,14,-94,64v0,51,45,63,95,65r0,408r153,0r0,-407","w":347},"u":{"d":"279,10v154,0,244,-74,244,-231r0,-246v1,-42,-35,-78,-77,-77v-47,2,-77,31,-77,78r0,244v0,60,-29,97,-90,97v-62,0,-91,-38,-91,-97r0,-308r-154,0r0,310v-1,157,92,230,245,230","w":578},"v":{"d":"479,-468v2,-58,-73,-99,-123,-62v-14,9,-23,22,-28,38r-91,277r-122,-327r-132,59r179,435v14,32,33,55,77,55v39,0,59,-29,73,-56v49,-91,95,-210,134,-311v15,-38,31,-78,33,-108","w":478},"w":{"d":"772,-433v35,-71,-47,-145,-114,-99v-14,9,-24,22,-29,37r-90,274r-92,-279r-141,0r-93,279r-109,-328r-133,62r163,433v13,32,34,60,78,60v41,0,66,-27,77,-59r88,-255r87,256v10,32,36,58,77,58v44,0,65,-29,78,-61","w":777},"x":{"d":"435,-2v60,35,136,-28,107,-96v-4,-9,-10,-18,-17,-25r-143,-160r119,-130v13,-13,24,-32,24,-56v2,-55,-61,-95,-113,-67v-11,6,-20,14,-27,25r-100,136r-144,-174r-110,93r156,174r-143,159v-12,13,-23,31,-23,54v0,57,60,95,113,67v12,-7,22,-15,30,-26r121,-162r121,162v8,11,18,19,29,26","w":590},"y":{"d":"78,171v-3,56,80,92,122,53v12,-11,19,-26,27,-42v58,-111,112,-254,157,-380r61,-172v9,-33,24,-64,28,-101v5,-60,-82,-98,-124,-55v-11,12,-20,27,-26,44r-87,263r-112,-317r-139,57r173,444r-56,126v-12,31,-22,53,-24,80","w":474},"z":{"d":"423,0v37,1,69,-31,69,-68v0,-38,-33,-69,-71,-68r-187,0r227,-308v7,-10,14,-22,14,-38v1,-38,-30,-55,-65,-55r-379,0r0,136r220,0r-226,305v-9,13,-14,26,-14,40v-2,40,32,55,69,56r343,0","w":521},"{":{"d":"246,-775v26,-1,51,-2,50,-30v0,-17,-12,-33,-30,-32r-104,0v-53,0,-88,28,-88,83r0,323v-2,41,-65,30,-65,71v0,41,65,30,65,72r0,322v-1,55,36,83,89,83r121,0r0,-61v-54,3,-89,-11,-88,-65r0,-265v1,-46,-35,-82,-78,-86v43,-4,80,-40,79,-86r0,-275v-1,-37,16,-53,49,-54","w":315},"|":{"d":"133,0r0,-720r-104,0r0,720r104,0","w":167},"}":{"d":"109,1v3,49,-31,52,-74,56v-15,1,-27,8,-26,28r1,0v0,17,12,33,30,32r103,0v53,0,90,-28,89,-83r0,-323v2,-40,64,-31,64,-71v0,-41,-65,-30,-65,-72r0,-322v1,-55,-34,-83,-88,-83r-121,0r0,61v54,-3,88,12,87,65r0,265v-1,46,35,82,78,86v-43,4,-79,40,-78,86r0,275","w":315},"~":{"d":"141,-441v-86,0,-112,76,-114,163r78,0v2,-27,9,-57,36,-57v79,0,155,89,236,39v42,-26,60,-81,61,-146v-24,2,-52,0,-78,1v-2,27,-9,56,-36,56v-68,0,-112,-56,-183,-56","w":482},"\u00a0":{"w":287},"\u00a1":{"d":"115,-505v-36,4,-76,20,-76,55r0,465r153,1r0,-465v-4,-36,-40,-52,-77,-56xm115,-717v-47,0,-87,40,-87,87v0,48,41,87,88,87v48,0,87,-41,87,-88v0,-47,-41,-86,-88,-86","w":240},"\u00a2":{"d":"249,5v0,34,-15,89,18,97v28,-4,17,-49,19,-82v4,-5,8,-10,13,-14v56,-6,112,-24,161,-38r-25,-129v-39,17,-90,24,-139,30v-4,1,-8,-11,-12,-11r0,-263v41,2,73,14,108,22v60,12,97,-67,58,-109v-34,-37,-97,-51,-166,-51v0,-15,5,-41,1,-55v1,-11,-6,-31,-19,-29v-31,6,-20,56,-19,87v-108,15,-180,84,-215,174v-40,101,-3,222,48,280v39,45,94,86,169,91xm248,-139v-50,-23,-78,-69,-78,-135v0,-62,28,-108,78,-125r0,260","w":498},"\u00a3":{"d":"517,-497v57,43,125,-48,80,-107v-31,-40,-79,-66,-125,-90v-36,-19,-76,-41,-128,-41v-107,1,-187,43,-226,115v-14,26,-21,55,-21,90v0,42,13,71,27,102v-58,2,-118,11,-118,70v0,59,65,65,124,68v7,3,19,-1,26,-2r-24,73v-12,32,-30,77,-47,99v-11,15,-23,30,-23,51v0,38,24,69,62,69r475,0r0,-139r-332,0v28,-34,55,-89,45,-151r128,0r0,-138r-151,0v-11,-25,-30,-53,-30,-86v-2,-82,109,-94,169,-59v33,19,59,53,89,76","w":639},"\u00a4":{"d":"563,-382v36,1,77,-20,77,-53v0,-33,-40,-54,-77,-54r-287,0v34,-55,86,-99,170,-99v70,0,116,29,159,62r56,-113v-63,-49,-153,-97,-263,-87v-153,13,-246,110,-292,237r-96,0r0,107r75,0v-1,14,-1,28,0,42r-75,0r0,106r96,0v52,152,179,261,385,239v73,-8,137,-33,171,-83v38,-56,-23,-132,-91,-100v-41,19,-80,41,-140,41v-79,0,-130,-43,-158,-97r290,0v36,1,77,-20,77,-52v0,-33,-40,-54,-77,-54r-319,0v-1,-14,-1,-28,0,-42r319,0","w":707},"\u00a5":{"d":"576,-390v0,-17,-12,-32,-30,-31r-101,0r132,-183v37,-50,-1,-125,-63,-123v-31,0,-56,19,-70,39r-142,209r-141,-209v-13,-20,-39,-39,-70,-39v-62,-2,-99,73,-63,123r134,184r-106,0v-13,5,-18,27,-20,44v4,14,27,19,43,19r130,0r13,19r2,23r-168,0v-13,5,-18,27,-20,43v4,14,27,19,43,19r145,0r0,253r159,0r0,-254r165,0v16,1,29,-17,29,-32v0,-16,-13,-31,-30,-30r-164,0r0,-22r13,-20r151,0v18,1,29,-15,29,-32","w":627},"\u00a6":{"d":"266,-656v40,0,75,-33,75,-73v0,-41,-34,-75,-75,-75v-40,0,-73,35,-73,75v0,39,34,73,73,73xm66,-656v40,0,74,-34,74,-74v0,-39,-34,-74,-73,-74v-40,0,-75,33,-75,73v0,42,32,75,74,75xm517,-70v49,30,117,-25,87,-79v-28,-50,-67,-92,-100,-138v33,-45,73,-84,100,-135v27,-51,-33,-111,-85,-78v-11,6,-20,15,-27,24r-111,142v-3,20,-1,54,-2,79v3,11,13,22,19,31r95,131v7,9,15,17,24,23xm176,-619v-42,-2,-78,34,-78,77r0,467r154,1r0,-468v-3,-45,-31,-75,-76,-77xm66,-22v-41,-23,-80,12,-79,51v2,64,78,75,128,94v73,28,143,-5,197,-29v29,-13,50,-33,51,-67v1,-36,-33,-69,-71,-53v-44,19,-94,62,-154,37v-26,-11,-49,-20,-72,-33xm297,-703v0,7,-4,11,-11,11v-7,0,-11,-4,-11,-11v0,-7,4,-11,11,-11v7,0,11,4,11,11xm101,-703v0,7,-4,11,-11,11v-7,0,-11,-4,-11,-11v0,-7,4,-11,11,-11v7,0,11,4,11,11","w":619},"\u00a7":{"d":"106,-444v-48,32,-93,96,-94,170v-1,85,42,130,93,164v52,35,123,51,180,81v30,16,61,27,61,70v0,70,-122,56,-155,23v-29,-29,-34,-78,-88,-81v-39,-1,-75,35,-74,74v4,78,66,114,124,140v82,37,212,29,279,-15v41,-27,75,-69,75,-136v-1,-48,-23,-89,-52,-113v58,-30,113,-96,113,-179v0,-75,-44,-115,-91,-146v-69,-46,-172,-64,-235,-112v-17,-13,-26,-30,-26,-49v2,-40,36,-56,76,-56v79,0,126,52,166,96r83,-96v-62,-96,-186,-149,-337,-120v-57,11,-99,44,-127,86v-15,23,-23,51,-23,83v1,49,24,90,52,116xm407,-228v-1,40,-36,59,-65,72r-109,-48v-32,-16,-69,-31,-70,-77v-1,-36,32,-66,55,-81v56,28,121,45,168,84v14,12,21,29,21,50","w":600},"\u00a8":{"d":"364,-677v34,0,61,-26,61,-60v0,-34,-27,-62,-61,-62v-34,0,-61,29,-61,63v0,31,30,59,61,59xm62,-676v32,0,60,-30,60,-62v0,-32,-28,-61,-60,-61v-34,0,-62,29,-62,63v0,33,29,60,62,60","w":440},"\u00a9":{"d":"746,-216v39,-89,39,-201,0,-290v-39,-90,-109,-159,-199,-198v-89,-39,-201,-39,-290,0v-90,39,-160,109,-199,199v-39,89,-39,201,0,290v39,90,109,160,199,199v89,39,201,39,290,0v90,-39,160,-110,199,-200xm278,-656v75,-34,173,-34,248,0v108,49,191,146,191,295v0,149,-84,245,-191,295v-75,34,-173,34,-248,0v-108,-50,-191,-145,-191,-295v0,-149,84,-246,191,-295xm498,-489v25,13,52,-4,50,-29v-5,-55,-71,-68,-128,-68v-106,0,-165,60,-194,140v-18,54,-19,122,0,176v30,87,108,151,230,135v32,-4,62,-17,83,-32v26,-19,18,-71,-16,-68v-37,3,-59,32,-103,31v-87,-3,-128,-65,-128,-152v0,-87,36,-156,124,-159v36,-1,58,14,82,26","w":832},"\u00aa":{"d":"281,-687v-29,-43,-109,-57,-163,-28v-68,37,-112,138,-80,236v20,63,65,118,146,118v40,0,71,-31,97,-49r3,45r75,-1r0,-325v1,-22,-20,-40,-42,-40v-27,0,-36,19,-36,44xm338,-249v18,1,35,-18,34,-36v0,-19,-15,-37,-34,-36r-283,0r0,72r283,0xm196,-660v62,0,84,51,84,112v0,62,-21,117,-85,117v-62,0,-88,-53,-88,-115v0,-62,27,-114,89,-114","w":414},"\u00ab":{"d":"453,-414v26,-52,-35,-109,-87,-76v-10,6,-18,14,-25,23r-97,143v-15,21,-25,48,-9,78v38,71,89,143,140,200r87,-74r-86,-126v-11,-15,-19,-25,-24,-31r87,-114v5,-7,10,-15,14,-23xm244,-414v24,-52,-36,-109,-88,-76v-10,6,-18,14,-25,23r-96,143v-14,21,-25,47,-9,78v38,71,90,143,141,200r85,-74r-86,-126r-23,-31r87,-114v5,-7,10,-15,14,-23","w":497},"\u00ac":{"d":"553,-216r0,-248r-524,0r0,104r443,0r0,144r81,0","w":603},"\u00ad":{"d":"347,-369r-255,0v-45,4,-93,27,-80,81v5,23,20,48,45,48r291,0","w":405},"\u00ae":{"d":"746,-216v39,-89,39,-201,0,-290v-39,-90,-109,-159,-199,-198v-89,-39,-201,-39,-290,0v-90,39,-160,109,-199,199v-39,89,-39,201,0,290v39,90,109,160,199,199v89,39,201,39,290,0v90,-39,160,-110,199,-200xm278,-656v75,-34,173,-34,248,0v108,49,191,146,191,295v0,149,-84,245,-191,295v-75,34,-173,34,-248,0v-108,-50,-191,-145,-191,-295v0,-149,84,-246,191,-295xm305,-135v26,0,50,-22,49,-48r0,-136r142,178v2,2,12,15,17,14v20,-7,47,-25,63,-39v11,-9,13,-9,7,-20v-2,-4,-4,-6,-5,-7r-112,-131v56,-11,108,-49,106,-117v-3,-89,-60,-137,-148,-137r-153,0v-10,5,-15,23,-15,36r0,357v-1,26,23,50,49,50xm473,-441v0,28,-21,52,-49,51r-69,0r0,-101r67,0v26,-1,51,24,51,50","w":832},"\u00af":{"d":"301,-593v30,1,55,-24,55,-54v0,-30,-25,-55,-55,-54r-241,0v-28,-1,-52,26,-52,53v0,30,22,56,52,55r241,0","w":378},"\u00b0":{"d":"166,-457v102,0,163,-92,128,-193v-21,-62,-103,-104,-182,-73v-60,23,-108,103,-74,181v20,47,62,85,128,85xm166,-688v55,0,92,37,92,92v0,56,-36,92,-92,92v-56,0,-92,-37,-92,-92v0,-56,37,-92,92,-92","w":344},"\u00b4":{"d":"13,-666v-31,44,15,103,70,84v35,-12,90,-29,123,-44v14,-6,23,-11,26,-16v23,-11,51,-30,58,-56v13,-45,-44,-70,-85,-54r-165,65v-11,5,-20,11,-27,21","w":304},"\u00b6":{"d":"495,-654v35,0,71,1,71,-33v1,-18,-16,-33,-34,-33r-305,0v-97,3,-159,58,-190,128v-21,49,-21,111,0,160v32,71,93,125,190,128r65,0r0,521r70,0r1,-871r61,0r0,872r72,-1","w":607},"\u00b7":{"d":"29,-268v0,77,100,114,150,61v14,-14,26,-34,26,-61v1,-48,-41,-88,-88,-88v-47,0,-88,40,-88,88","w":243},"\u00b8":{"d":"26,62v-27,44,3,121,58,94v7,-4,12,-10,15,-17r88,-170r-108,0r-43,73v-5,9,-9,16,-10,20","w":210},"\u00ba":{"d":"263,-716v-41,-19,-97,-19,-138,0v-74,35,-122,137,-87,239v22,65,70,118,155,118v84,0,133,-53,155,-117v36,-103,-12,-205,-85,-240xm325,-249v5,0,31,-6,29,-12r-4,-33v-2,-9,-3,-24,-9,-27r-277,0v-13,-1,-27,23,-27,36v0,13,14,36,28,36r260,0xm192,-430v-62,0,-85,-56,-85,-118v0,-60,26,-112,86,-112v62,0,86,55,86,117v0,61,-25,113,-87,113","w":401},"\u00bb":{"d":"234,-122v-25,53,33,109,86,76v10,-6,19,-14,26,-23r96,-142v14,-22,25,-48,8,-79v-40,-72,-91,-144,-143,-204r-86,75r89,129v11,15,19,26,24,31r-87,114v-5,7,-9,15,-13,23xm24,-122v-26,52,35,109,87,76v10,-6,18,-14,25,-23r96,-142v15,-22,27,-47,10,-79v-39,-73,-92,-144,-144,-204r-86,75r88,129v11,15,19,26,24,31r-86,114v-5,7,-10,15,-14,23","w":488},"\u00bf":{"d":"165,-371v-92,21,-163,76,-163,185v0,108,67,165,152,190v126,37,255,-11,301,-98v25,-48,7,-117,-50,-117v-29,0,-39,18,-52,33v-26,30,-60,57,-112,57v-43,0,-81,-25,-80,-70v2,-98,155,-49,155,-145r0,-189r-153,0xm153,-651v0,48,41,87,88,87v59,0,106,-63,80,-122v-13,-29,-40,-50,-80,-52v-47,-1,-88,40,-88,87","w":485},"\u00c0":{"d":"363,-767v51,19,101,-34,69,-81v-6,-9,-16,-15,-26,-21v-38,-23,-113,-46,-159,-64v-51,-21,-103,36,-70,83v7,10,16,15,27,21v39,22,112,45,159,62xm-22,-86v-23,72,70,127,122,76v27,-26,46,-82,62,-120r287,0r49,147r156,-41r-230,-613v-20,-52,-53,-90,-121,-90v-63,0,-98,43,-117,90r-201,530v-3,7,-5,14,-7,21xm402,-267r-195,0r98,-293"},"\u00c1":{"d":"179,-848v-32,44,16,103,71,83v49,-18,101,-35,146,-56v25,-12,48,-27,49,-60v1,-38,-40,-65,-79,-51v-47,17,-121,41,-160,63v-11,6,-20,11,-27,21xm-22,-86v-23,72,70,127,122,76v27,-26,46,-82,62,-120r287,0r49,147r156,-41r-230,-613v-20,-52,-53,-90,-121,-90v-63,0,-98,43,-117,90r-201,530v-3,7,-5,14,-7,21xm402,-267r-195,0r98,-293"},"\u00c2":{"d":"408,-768v54,27,108,-32,76,-82v-6,-10,-15,-16,-26,-21r-137,-53v-17,-7,-34,1,-46,6r-123,49v-19,7,-35,28,-35,52v-1,30,26,60,56,57v46,-5,95,-35,133,-50r64,28xm-22,-86v-23,72,70,127,122,76v27,-26,46,-82,62,-120r287,0r49,147r156,-41r-230,-613v-20,-52,-53,-90,-121,-90v-63,0,-98,43,-117,90r-201,530v-3,7,-5,14,-7,21xm402,-267r-195,0r98,-293"},"\u00c3":{"d":"-22,-86v-23,72,70,127,122,76v27,-26,46,-82,62,-120r287,0r49,147r156,-41r-230,-613v-20,-52,-53,-90,-121,-90v-63,0,-98,43,-117,90r-201,530v-3,7,-5,14,-7,21xm402,-267r-195,0r98,-293xm230,-851v68,0,134,78,204,35v36,-22,51,-71,52,-126r-67,0v-2,23,-8,49,-31,49v-59,0,-96,-48,-158,-48v-73,0,-96,64,-98,139r67,0v1,-24,7,-49,31,-49"},"\u00c4":{"d":"456,-677v34,0,61,-26,61,-60v0,-34,-27,-62,-61,-62v-34,0,-61,29,-61,63v0,31,30,59,61,59xm154,-676v32,0,60,-30,60,-62v0,-32,-28,-61,-60,-61v-34,0,-62,29,-62,63v0,33,29,60,62,60xm-22,-86v-23,72,70,127,122,76v27,-26,46,-82,62,-120r287,0r49,147r156,-41r-230,-613v-20,-52,-53,-90,-121,-90v-63,0,-98,43,-117,90r-201,530v-3,7,-5,14,-7,21xm402,-267r-195,0r98,-293"},"\u00c5":{"d":"-22,-86v-23,72,70,127,122,76v27,-26,46,-82,62,-120r287,0r55,144r150,-57r-230,-594v-15,-36,-37,-68,-74,-82v47,-12,86,-73,58,-127v-21,-42,-82,-72,-142,-50v-37,14,-70,42,-70,91v0,43,29,76,64,87v-37,14,-60,45,-74,81r-201,530v-3,7,-5,14,-7,21xm306,-776v-18,1,-32,-15,-32,-32v-1,-17,15,-31,32,-31v18,0,32,14,32,32v0,18,-14,31,-32,31xm403,-267r-196,0r98,-293"},"\u00c6":{"d":"792,-640v-2,-35,-17,-80,-50,-80r-391,0v-49,1,-62,20,-78,56r-273,609r141,68r68,-152r194,-3r15,101v6,21,39,41,65,41r280,0v16,-1,37,-6,49,-12v13,-7,6,-10,6,-32v0,-26,-7,-57,-12,-79v-3,-11,-5,-17,-8,-17r-239,0r0,-149r169,0v38,1,70,-33,70,-71v0,-38,-32,-70,-70,-69r-169,0r0,-152r186,0v27,2,49,-34,47,-59xm400,-266r-141,0r141,-314r0,314","w":849},"\u00c7":{"d":"243,92v-4,39,56,56,81,25r81,-99r-5,-11v69,-5,142,-29,180,-70v15,-15,23,-33,23,-54v1,-49,-52,-83,-101,-61v-42,19,-81,41,-141,41v-128,0,-188,-96,-188,-225v0,-124,65,-203,171,-223v81,-16,144,22,191,59r56,-113v-63,-49,-152,-96,-263,-87v-151,13,-247,110,-292,234v-30,82,-30,178,-1,261v43,121,134,210,274,234v-21,25,-62,50,-66,89","w":639},"\u00c8":{"d":"262,-767v51,19,102,-35,69,-81v-7,-9,-16,-15,-26,-21v-38,-23,-113,-46,-159,-64v-51,-21,-103,36,-70,83v7,10,16,15,27,21v38,22,113,45,159,62xm8,-82v3,48,31,82,79,82r346,0r0,-140r-266,0r0,-151r165,0v38,1,73,-30,72,-69v-1,-41,-32,-69,-74,-69r-163,0r0,-151r183,0v38,1,70,-32,70,-70v0,-38,-31,-70,-69,-70r-343,-1r0,639","w":456},"\u00c9":{"d":"83,-848v-32,44,16,103,71,83v49,-18,101,-35,146,-56v25,-12,48,-27,49,-60v1,-38,-40,-65,-79,-51v-47,17,-121,41,-160,63v-11,6,-20,11,-27,21xm13,-82v3,48,31,82,79,82r346,0r0,-140r-266,0r0,-151r165,0v38,1,73,-30,72,-69v-1,-41,-32,-69,-74,-69r-163,0r0,-151r183,0v38,1,70,-32,70,-70v0,-38,-31,-70,-69,-70r-343,-1r0,639","w":467},"\u00ca":{"d":"307,-768v53,27,109,-32,77,-82v-6,-10,-16,-16,-27,-21r-137,-53v-17,-7,-33,1,-46,6r-123,49v-19,7,-35,28,-35,52v-1,30,26,60,56,57v46,-5,95,-35,133,-50xm8,-82v3,48,31,82,79,82r346,0r0,-140r-266,0r0,-151r165,0v38,1,73,-30,72,-69v-1,-41,-32,-69,-74,-69r-163,0r0,-151r183,0v38,1,70,-32,70,-70v0,-38,-31,-70,-69,-70r-343,-1r0,639","w":456},"\u00cb":{"d":"305,-764v41,0,75,-33,75,-74v0,-40,-35,-74,-75,-74v-40,0,-73,35,-73,75v0,38,35,73,73,73xm179,-838v0,-40,-34,-74,-73,-74v-40,0,-75,33,-75,73v0,42,32,75,74,75v40,0,74,-35,74,-74xm8,-82v3,48,31,82,79,82r346,0r0,-140r-266,0r0,-151r165,0v38,1,73,-30,72,-69v-1,-41,-32,-69,-74,-69r-163,0r0,-151r183,0v38,1,70,-32,70,-70v0,-38,-31,-70,-69,-70r-343,-1r0,639","w":456},"\u00cc":{"d":"181,-767v50,19,101,-34,69,-81v-6,-10,-15,-17,-26,-21v-38,-24,-114,-46,-160,-64v-52,-20,-102,36,-70,83v7,10,16,15,27,21v39,21,113,44,160,62xm124,-727v-42,0,-80,37,-80,79r0,649r159,0r0,-649v1,-42,-37,-79,-79,-79","w":252},"\u00cd":{"d":"-4,-848v-32,45,16,103,71,83v49,-18,101,-35,146,-56v25,-12,47,-27,48,-60v1,-37,-39,-66,-79,-51v-46,17,-122,39,-160,63v-11,4,-19,11,-26,21xm123,-727v-42,0,-80,37,-80,79r0,649r159,0r0,-649v1,-42,-37,-79,-79,-79","w":255},"\u00ce":{"d":"282,-768v55,26,107,-32,76,-82v-6,-10,-15,-16,-26,-21r-136,-53v-16,-7,-35,0,-46,6r-124,49v-19,7,-34,28,-34,52v-1,30,25,60,55,57v46,-5,95,-35,133,-50r64,28v13,5,26,9,38,14xm181,-727v-42,0,-80,37,-80,79r0,649r159,0r0,-649v1,-42,-37,-79,-79,-79","w":372},"\u00cf":{"d":"240,-764v42,0,75,-32,75,-74v0,-41,-34,-74,-75,-74v-40,0,-73,35,-73,75v0,37,36,73,73,73xm114,-838v0,-40,-33,-74,-73,-74v-39,0,-75,33,-75,73v0,42,33,75,75,75v40,0,73,-35,73,-74xm141,-727v-42,0,-80,37,-80,79r0,649r159,0r0,-649v1,-42,-37,-79,-79,-79","w":290},"\u00d1":{"d":"534,1v55,27,114,-16,114,-71r0,-578v-3,-47,-32,-80,-80,-80v-48,0,-79,34,-79,81r0,385r-320,-430v-14,-19,-37,-37,-67,-37v-44,-1,-81,38,-80,81r0,648r159,0r0,-462r325,441v7,9,17,17,28,22xm267,-751v68,0,133,78,203,35v36,-22,52,-71,53,-126r-67,0v-2,23,-8,49,-31,49v-59,0,-96,-48,-158,-48v-73,0,-96,64,-98,139r67,0v1,-24,7,-49,31,-49","w":693},"\u00d2":{"d":"412,-767v51,19,102,-34,70,-81v-6,-9,-17,-15,-27,-21v-38,-23,-113,-46,-159,-64v-51,-21,-103,36,-70,83v7,10,16,15,27,21v39,22,112,45,159,62xm496,-700v-83,-40,-198,-40,-281,0v-120,58,-209,170,-209,340v0,168,89,283,208,340v83,40,198,40,281,0v120,-58,208,-170,208,-340v0,-169,-88,-283,-207,-340xm438,-570v85,46,127,174,92,298v-23,79,-77,143,-177,143v-100,0,-152,-68,-174,-148v-33,-124,10,-247,92,-293v46,-26,121,-25,167,0","w":734},"\u00d3":{"d":"233,-848v-32,44,16,103,71,83v49,-18,101,-35,146,-56v25,-12,48,-27,49,-60v1,-38,-40,-65,-79,-51v-47,17,-121,41,-160,63v-11,6,-20,11,-27,21xm501,-700v-83,-40,-198,-40,-281,0v-120,58,-209,170,-209,340v0,168,89,283,208,340v83,40,198,40,281,0v120,-58,208,-170,208,-340v0,-169,-88,-283,-207,-340xm443,-570v85,46,127,174,92,298v-23,79,-77,143,-177,143v-100,0,-152,-68,-174,-148v-33,-124,10,-247,92,-293v46,-26,121,-25,167,0","w":744},"\u00d4":{"d":"457,-768v53,27,109,-32,77,-82v-6,-10,-16,-16,-27,-21r-137,-53v-17,-7,-33,1,-46,6r-123,49v-19,7,-35,28,-35,52v-1,30,26,60,56,57v46,-5,95,-35,133,-50xm496,-700v-83,-40,-198,-40,-281,0v-120,58,-209,170,-209,340v0,168,89,283,208,340v83,40,198,40,281,0v120,-58,208,-170,208,-340v0,-169,-88,-283,-207,-340xm438,-570v85,46,127,174,92,298v-23,79,-77,143,-177,143v-100,0,-152,-68,-174,-148v-33,-124,10,-247,92,-293v46,-26,121,-25,167,0","w":734},"\u00d5":{"d":"496,-700v-83,-40,-198,-40,-281,0v-120,58,-209,170,-209,340v0,168,89,283,208,340v83,40,198,40,281,0v120,-58,208,-170,208,-340v0,-169,-88,-283,-207,-340xm438,-570v85,46,127,174,92,298v-23,79,-77,143,-177,143v-100,0,-152,-68,-174,-148v-33,-124,10,-247,92,-293v46,-26,121,-25,167,0xm289,-851v68,0,133,78,203,35v36,-22,52,-71,53,-126r-67,0v-2,23,-8,49,-31,49v-59,0,-96,-48,-158,-48v-73,0,-96,64,-98,139r67,0v1,-24,7,-49,31,-49","w":734},"\u00d6":{"d":"629,-799v-34,0,-60,29,-60,63v0,31,30,60,61,60v33,0,61,-29,61,-62v0,-34,-28,-61,-62,-61xm98,-676v33,0,61,-28,61,-61v0,-32,-28,-61,-60,-61v-34,0,-62,26,-62,60v0,34,27,62,61,62xm505,-700v-83,-40,-198,-40,-281,0v-120,58,-209,170,-209,340v0,168,89,283,208,340v83,40,198,40,281,0v120,-58,208,-170,208,-340v0,-169,-88,-283,-207,-340xm447,-570v85,46,127,174,92,298v-23,79,-77,143,-177,143v-100,0,-152,-68,-174,-148v-33,-124,10,-247,92,-293v46,-26,121,-25,167,0","w":753},"\u00d8":{"d":"690,-216v54,-130,16,-294,-51,-385r50,-51v14,-16,35,-34,37,-54v2,-14,-14,-29,-29,-28v-42,13,-70,65,-99,92v-57,-51,-132,-89,-231,-89v-170,0,-271,104,-321,231v-17,45,-26,92,-26,141v1,102,34,181,86,242r-92,99r41,41r90,-98v53,50,127,85,221,85v169,0,272,-101,324,-226xm212,-227v-48,-78,-35,-222,14,-289v29,-40,72,-74,139,-74v51,0,95,18,132,53r-1,0xm529,-488v26,59,36,143,14,214v-24,78,-75,143,-174,143v-53,0,-93,-19,-121,-50","w":765},"\u00d9":{"d":"409,-767v50,19,101,-34,69,-81v-6,-10,-15,-17,-26,-21v-38,-24,-114,-46,-160,-64v-52,-20,-102,36,-70,83v7,10,16,15,27,21v39,21,113,44,160,62xm352,-127v-95,0,-158,-63,-158,-158r0,-437r-159,0r0,433v2,149,79,236,191,277v76,27,176,27,252,0v112,-41,191,-128,191,-277r0,-358v1,-43,-37,-81,-80,-81v-43,0,-79,37,-79,80r0,363v1,95,-63,158,-158,158","w":729},"\u00da":{"d":"225,-848v-32,45,16,103,71,83v49,-18,101,-35,146,-56v25,-12,47,-27,48,-60v1,-37,-39,-66,-79,-51v-46,17,-122,39,-160,63v-11,4,-19,11,-26,21xm352,-127v-95,0,-158,-63,-158,-158r0,-437r-159,0r0,433v2,149,79,236,191,277v76,27,176,27,252,0v112,-41,191,-128,191,-277r0,-358v1,-43,-37,-81,-80,-81v-43,0,-79,37,-79,80r0,363v1,95,-63,158,-158,158","w":729},"\u00db":{"d":"454,-768v54,27,107,-32,76,-82v-6,-10,-16,-16,-27,-21r-137,-53v-16,-7,-33,1,-45,6r-124,49v-19,7,-34,28,-34,52v-1,30,25,60,55,57v46,-5,95,-35,133,-50r65,28xm352,-127v-95,0,-158,-63,-158,-158r0,-437r-159,0r0,433v2,149,79,236,191,277v76,27,176,27,252,0v112,-41,191,-128,191,-277r0,-358v1,-43,-37,-81,-80,-81v-43,0,-79,37,-79,80r0,363v1,95,-63,158,-158,158","w":729},"\u00dc":{"d":"188,-799v-38,0,-70,36,-60,77r-109,0r0,433v2,149,79,236,191,277v76,27,176,27,252,0v112,-41,191,-128,191,-277r0,-358v0,-50,-48,-94,-103,-78v7,-41,-22,-74,-60,-74v-34,0,-62,29,-61,63v0,34,32,63,70,59v-3,10,-5,20,-5,29r0,363v1,95,-63,158,-158,158v-95,0,-158,-63,-158,-158r0,-392v39,7,70,-26,70,-61v1,-32,-28,-61,-60,-61","w":697},"\u00df":{"d":"219,-70v0,85,114,95,176,56v70,-44,129,-120,129,-225v0,-96,-49,-161,-124,-188v39,-30,67,-80,67,-143v0,-101,-58,-161,-134,-191v-57,-22,-133,-19,-187,3v-87,36,-142,115,-142,234r0,749r154,0r0,-760v1,-62,24,-105,86,-107v58,-2,101,65,72,119v-21,39,-75,49,-97,89v-8,16,-3,47,7,57v25,26,75,28,106,49v24,16,40,41,40,84v0,82,-56,96,-113,117v-23,8,-40,25,-40,57","w":547},"\u00e0":{"d":"338,-584v52,18,99,-35,68,-82v-6,-10,-14,-17,-25,-21v-38,-24,-113,-47,-160,-64v-53,-19,-102,35,-70,83v7,10,16,16,27,22v39,21,113,46,160,62xm396,-65r0,67r139,0r0,-472v1,-48,-34,-76,-88,-66v-29,5,-63,28,-69,56v-48,-29,-126,-57,-202,-37v-105,28,-168,121,-168,251v0,124,59,209,146,252v31,15,66,23,104,23v65,-1,112,-29,138,-74xm277,-412v79,0,110,63,110,141v0,82,-30,150,-112,150v-80,0,-112,-67,-112,-146v0,-79,34,-145,114,-145","w":562},"\u00e1":{"d":"158,-666v-32,45,15,103,71,83v49,-18,101,-35,146,-56v25,-12,47,-27,48,-60v0,-38,-38,-64,-79,-51v-50,16,-103,33,-147,55v-18,9,-28,13,-39,29xm400,-65r0,67r139,0r0,-472v1,-48,-34,-76,-88,-66v-29,5,-63,28,-69,56v-48,-29,-126,-57,-202,-37v-105,28,-168,121,-168,251v0,124,59,209,146,252v31,15,66,23,104,23v65,-1,112,-29,138,-74xm281,-412v79,0,110,63,110,141v0,82,-30,150,-112,150v-80,0,-112,-67,-112,-146v0,-79,34,-145,114,-145","w":570},"\u00e2":{"d":"435,-579v42,4,74,-51,47,-88v-6,-9,-15,-16,-26,-21r-136,-54v-16,-6,-35,1,-46,6r-124,50v-19,7,-34,26,-34,51v-1,30,25,60,55,57v46,-5,95,-35,133,-50v37,16,84,45,131,49xm420,-65r0,67r139,0r0,-472v1,-48,-34,-76,-88,-66v-29,5,-63,28,-69,56v-48,-29,-126,-57,-202,-37v-105,28,-168,121,-168,251v0,124,59,209,146,252v31,15,66,23,104,23v65,-1,112,-29,138,-74xm301,-412v79,0,110,63,110,141v0,82,-30,150,-112,150v-80,0,-112,-67,-112,-146v0,-79,34,-145,114,-145","w":612},"\u00e3":{"d":"230,-651v68,0,134,78,204,35v36,-22,51,-71,52,-126r-67,0v-2,23,-8,49,-31,49v-59,0,-96,-48,-158,-48v-73,0,-96,64,-98,139r67,0v1,-24,7,-49,31,-49xm405,-65v-2,21,0,45,0,67r139,0r0,-472v1,-48,-34,-76,-88,-66v-29,5,-63,28,-69,56v-48,-29,-126,-57,-202,-37v-105,28,-168,121,-168,251v0,124,60,209,147,252v53,26,128,33,182,5v24,-12,44,-31,59,-56xm286,-412v79,0,110,63,110,141v0,82,-30,150,-112,150v-80,0,-112,-67,-112,-146v0,-79,34,-145,114,-145","w":582},"\u00e4":{"d":"479,-660v0,-40,-35,-74,-75,-74v-41,0,-74,35,-74,76v0,39,36,73,75,73v40,0,74,-35,74,-75xm280,-659v0,-40,-34,-75,-74,-75v-40,0,-75,35,-75,75v0,40,35,74,75,74v40,0,74,-34,74,-74xm410,-65r0,67r139,0r0,-472v1,-48,-34,-76,-88,-66v-29,5,-63,28,-69,56v-48,-29,-126,-57,-202,-37v-105,28,-168,121,-168,251v0,124,59,209,146,252v31,15,66,23,104,23v65,-1,112,-29,138,-74xm291,-412v79,0,110,63,110,141v0,82,-30,150,-112,150v-80,0,-112,-67,-112,-146v0,-79,34,-145,114,-145","w":591},"\u00e5":{"d":"385,-630v31,-69,-25,-134,-96,-132v-60,2,-103,34,-105,94v-3,87,118,121,178,68v10,-8,18,-18,23,-30xm289,-700v17,0,32,14,32,32v0,17,-15,33,-32,32v-17,0,-33,-15,-33,-33v0,-18,15,-31,33,-31xm396,-65r0,67r139,0r0,-472v1,-48,-34,-76,-88,-66v-29,5,-63,28,-69,56v-48,-29,-126,-57,-202,-37v-105,28,-168,121,-168,251v0,124,59,209,146,252v31,15,66,23,104,23v65,-1,112,-29,138,-74xm277,-412v79,0,110,63,110,141v0,82,-30,150,-112,150v-80,0,-112,-67,-112,-146v0,-79,34,-145,114,-145","w":563},"\u00e6":{"d":"828,-229v73,11,75,-67,57,-124v-27,-84,-81,-147,-160,-178v-76,-31,-174,-10,-222,34v-10,-26,-20,-52,-57,-52v-41,0,-60,29,-60,68v-36,-66,-166,-82,-242,-40v-83,46,-140,135,-140,257v0,122,59,207,143,250v78,41,204,26,241,-43r5,59r101,0r10,-42v49,46,143,60,228,43v22,-5,47,-12,74,-21r-9,-50r-12,-48v-2,-9,-11,-11,-15,-17v-63,13,-143,22,-190,-17v-25,-21,-42,-46,-49,-79r297,0xm532,-326v4,-71,74,-124,146,-92v36,16,53,58,60,103r-202,-1xm268,-411v136,0,143,216,53,268v-14,9,-31,13,-51,13v-135,5,-140,-216,-50,-268v14,-9,29,-13,48,-13","w":931},"\u00e7":{"d":"462,-500v-57,-20,-105,-43,-177,-42v-131,2,-213,72,-253,168v-25,60,-28,136,-6,200v30,88,96,154,193,175v-19,27,-52,49,-56,87v-5,39,57,56,81,24r78,-105v67,-8,141,-24,141,-95v0,-41,-43,-77,-90,-62v-41,13,-97,33,-139,8v-39,-24,-66,-67,-66,-127v0,-88,56,-148,151,-131v36,7,70,18,102,30","w":493},"\u00e8":{"d":"318,-584v52,18,99,-35,68,-82v-6,-10,-14,-17,-25,-21v-38,-24,-113,-47,-160,-64v-53,-19,-102,35,-70,83v7,10,16,16,27,22v39,21,113,46,160,62xm455,-225v48,-1,73,-13,72,-63v-3,-119,-72,-196,-159,-236v-64,-29,-143,-25,-206,2v-93,42,-163,123,-163,253v0,136,75,218,175,258v77,31,185,24,255,-7r-21,-118v-64,16,-148,30,-197,-12v-24,-20,-41,-45,-48,-77r292,0xm163,-312v10,-61,36,-114,105,-114v65,0,93,53,100,114r-205,0","w":544},"\u00e9":{"d":"130,-666v-33,44,15,103,71,83v49,-18,102,-36,147,-56v7,-3,11,-6,12,-8v19,-7,35,-28,35,-52v0,-38,-38,-64,-79,-51v-50,16,-103,34,-147,55v-19,9,-27,13,-39,29xm451,-225v48,-1,73,-13,72,-63v-3,-119,-72,-196,-159,-236v-64,-29,-143,-25,-206,2v-93,42,-163,123,-163,253v0,136,75,218,175,258v77,31,185,24,255,-7r-21,-118v-64,16,-148,30,-197,-12v-24,-20,-41,-45,-48,-77r292,0xm159,-312v10,-61,36,-114,105,-114v65,0,93,53,100,114r-205,0","w":537},"\u00ea":{"d":"403,-579v42,4,74,-51,47,-88v-6,-9,-15,-16,-26,-21r-136,-54v-16,-6,-35,0,-46,6r-124,50v-18,7,-34,27,-34,51v-1,30,25,60,55,57v46,-5,95,-35,133,-50v37,16,84,45,131,49xm467,-225v48,-1,73,-13,72,-63v-3,-119,-72,-196,-159,-236v-64,-29,-143,-25,-206,2v-93,42,-163,123,-163,253v0,136,75,218,175,258v77,31,185,24,255,-7r-21,-118v-64,16,-148,30,-197,-12v-24,-20,-41,-45,-48,-77r292,0xm175,-312v10,-61,36,-114,105,-114v65,0,93,53,100,114r-205,0","w":571},"\u00eb":{"d":"371,-582v41,0,75,-32,75,-73v0,-42,-33,-75,-75,-75v-40,0,-73,35,-73,75v0,38,35,73,73,73xm245,-656v0,-39,-33,-74,-73,-74v-39,0,-75,33,-75,73v0,42,33,75,75,75v40,0,73,-34,73,-74xm466,-225v48,-1,73,-13,72,-63v-3,-119,-72,-196,-159,-236v-64,-29,-142,-25,-205,2v-93,42,-164,123,-164,253v0,136,74,218,174,258v77,31,186,24,256,-7r-21,-118v-64,16,-148,30,-197,-12v-24,-20,-41,-45,-48,-77r292,0xm174,-312v10,-61,36,-114,105,-114v65,0,93,53,100,114r-205,0","w":566},"\u00ec":{"d":"176,-584v52,18,101,-35,70,-82v-6,-9,-16,-15,-27,-21v-43,-25,-117,-54,-172,-67v-50,-11,-85,45,-57,86v7,10,16,16,27,22v39,22,112,46,159,62xm129,-545v-42,-2,-78,34,-78,77r0,468r154,0r0,-468v-3,-45,-31,-75,-76,-77","w":244},"\u00ed":{"d":"-9,-666v-32,44,16,103,71,83v49,-18,101,-35,146,-56v25,-12,48,-27,49,-60v1,-38,-39,-64,-79,-51v-50,17,-103,34,-147,55v-19,9,-29,14,-40,29xm128,-545v-42,-2,-78,34,-78,77r0,468r154,0r0,-468v-3,-45,-31,-75,-76,-77","w":246},"\u00ee":{"d":"322,-579v42,4,75,-50,48,-88v-6,-9,-15,-16,-26,-21r-137,-54v-17,-6,-33,1,-46,6r-123,50v-19,7,-35,26,-35,51v-1,30,26,60,56,57v46,-5,95,-35,133,-50v37,16,84,45,130,49xm202,-545v-42,-2,-78,34,-78,77r0,468r154,0r0,-468v-3,-45,-31,-75,-76,-77","w":396},"\u00ef":{"d":"268,-582v40,0,75,-33,75,-73v0,-41,-34,-75,-75,-75v-40,0,-73,35,-73,75v0,39,34,73,73,73xm142,-656v0,-39,-34,-74,-73,-74v-40,0,-75,33,-75,73v0,42,32,75,74,75v40,0,74,-34,74,-74xm178,-545v-42,-2,-78,34,-78,77r0,468r154,0r0,-468v-3,-45,-31,-75,-76,-77","w":350},"\u00f1":{"d":"455,10v47,-2,77,-31,77,-78r0,-281v-1,-98,-55,-154,-127,-182v-83,-32,-187,-7,-223,55v-6,-35,-21,-73,-64,-71v-46,2,-76,33,-76,79r0,469r154,0r0,-326v-1,-49,41,-91,90,-91v49,0,92,43,92,92r0,258v-1,42,36,78,77,76xm207,-631v68,0,133,78,203,35v36,-22,52,-71,53,-126r-67,0v-2,23,-8,49,-31,49v-59,0,-96,-48,-158,-48v-73,0,-96,64,-98,139r67,0v1,-24,7,-49,31,-49","w":594},"\u00f2":{"d":"319,-584v52,18,99,-34,69,-82v-6,-10,-15,-17,-26,-21v-37,-25,-113,-47,-160,-64v-53,-19,-102,35,-70,83v7,10,16,16,27,22v39,21,113,46,160,62xm507,-162v27,-66,27,-148,0,-214v-40,-95,-117,-170,-246,-170v-129,0,-207,77,-246,172v-27,66,-27,148,0,214v40,96,118,171,247,171v129,0,206,-78,245,-173xm149,-268v0,-77,34,-144,112,-144v79,0,113,65,113,144v0,80,-33,148,-113,148v-79,0,-112,-69,-112,-148","w":541},"\u00f3":{"d":"135,-666v-32,45,16,103,71,83v48,-18,103,-36,146,-56v25,-12,47,-27,48,-60v0,-38,-38,-64,-79,-51v-50,16,-103,34,-147,55v-19,9,-28,13,-39,29xm507,-162v27,-66,27,-148,0,-214v-40,-95,-117,-170,-246,-170v-129,0,-207,77,-246,172v-27,66,-27,148,0,214v40,96,118,171,247,171v129,0,206,-78,245,-173xm149,-268v0,-77,34,-144,112,-144v79,0,113,65,113,144v0,80,-33,148,-113,148v-79,0,-112,-69,-112,-148","w":541},"\u00f4":{"d":"412,-579v42,4,74,-51,47,-88v-7,-9,-15,-16,-26,-21r-137,-54v-16,-5,-34,1,-45,6r-124,50v-19,7,-34,26,-34,51v-1,30,25,60,55,57v46,-5,95,-35,133,-50v37,16,84,45,131,49xm527,-162v27,-66,27,-148,0,-214v-40,-95,-117,-170,-246,-170v-129,0,-207,77,-246,172v-27,66,-27,148,0,214v40,96,118,171,247,171v129,0,206,-78,245,-173xm169,-268v0,-77,34,-144,112,-144v79,0,113,65,113,144v0,80,-33,148,-113,148v-79,0,-112,-69,-112,-148","w":581},"\u00f5":{"d":"526,-162v27,-66,27,-148,0,-214v-40,-95,-117,-170,-246,-170v-129,0,-207,77,-246,172v-27,66,-27,148,0,214v40,96,118,171,247,171v129,0,206,-78,245,-173xm168,-268v0,-77,34,-144,112,-144v79,0,113,65,113,144v0,80,-33,148,-113,148v-79,0,-112,-69,-112,-148xm197,-741v-73,0,-98,66,-98,139r67,0v1,-24,7,-49,31,-49v68,0,133,78,203,35v36,-22,52,-71,53,-126r-67,0v-2,23,-8,49,-31,49v-59,0,-96,-48,-158,-48","w":579},"\u00f6":{"d":"451,-661v0,-40,-34,-74,-73,-74v-40,0,-74,36,-74,75v0,39,34,73,73,73v40,0,74,-34,74,-74xm178,-587v40,0,74,-34,74,-74v0,-39,-34,-74,-74,-74v-42,0,-74,34,-74,76v0,39,35,72,74,72xm523,-162v27,-66,27,-148,0,-214v-40,-95,-117,-170,-246,-170v-129,0,-206,75,-246,170v-27,66,-27,150,0,216v40,96,118,171,247,171v129,0,206,-78,245,-173xm328,-399v92,54,84,279,-52,279v-133,0,-139,-225,-48,-278v28,-16,72,-17,100,-1","w":573},"\u00f8":{"d":"534,-158v41,-99,15,-227,-42,-292r40,-42v11,-12,28,-29,31,-44v0,-23,-26,-34,-45,-17v-21,19,-41,45,-61,66v-70,-62,-179,-79,-272,-38v-93,41,-161,126,-161,255v0,75,26,138,62,185r-70,83r36,30r70,-78v57,57,180,81,271,39v65,-30,115,-80,141,-147xm177,-268v3,-77,34,-144,112,-144v27,0,50,9,69,28r-167,189v-7,-21,-15,-46,-14,-73xm387,-340v10,22,14,46,14,76v1,91,-57,164,-151,136v-12,-5,-23,-12,-32,-21","w":600},"\u00f9":{"d":"318,-584v52,18,99,-35,68,-82v-6,-10,-14,-17,-25,-21v-38,-24,-113,-47,-160,-64v-53,-19,-102,35,-70,83v7,10,16,16,27,22v39,21,113,46,160,62xm261,10v154,0,244,-74,244,-231r0,-246v1,-42,-35,-78,-77,-77v-47,2,-77,31,-77,78r0,244v0,60,-29,97,-90,97v-62,0,-91,-38,-91,-97r0,-308r-154,0r0,310v-1,157,92,230,245,230","w":539},"\u00fa":{"d":"134,-666v-32,45,15,103,71,83v49,-18,101,-35,146,-56v25,-12,47,-27,48,-60v0,-38,-38,-64,-79,-51v-50,16,-103,33,-147,55v-18,9,-28,13,-39,29xm261,10v154,0,244,-74,244,-231r0,-246v1,-42,-35,-78,-77,-77v-47,2,-77,31,-77,78r0,244v0,60,-29,97,-90,97v-62,0,-91,-38,-91,-97r0,-308r-154,0r0,310v-1,157,92,230,245,230","w":539},"\u00fb":{"d":"406,-579v42,4,74,-51,47,-88v-7,-9,-15,-16,-26,-21r-137,-54v-16,-5,-34,1,-45,6r-124,50v-19,7,-34,26,-34,51v-1,30,25,60,55,57v46,-5,95,-35,133,-50v37,16,84,45,131,49xm276,10v154,0,244,-74,244,-231r0,-246v1,-42,-35,-78,-77,-77v-47,2,-77,31,-77,78r0,244v0,60,-29,97,-90,97v-62,0,-91,-38,-91,-97r0,-308r-154,0r0,310v-1,157,92,230,245,230","w":570},"\u00fc":{"d":"376,-586v39,0,73,-34,73,-74v0,-40,-34,-74,-74,-74v-42,0,-74,34,-74,76v0,40,35,72,75,72xm175,-734v-42,0,-74,34,-74,76v0,39,35,72,74,72v39,0,74,-34,74,-74v0,-39,-35,-74,-74,-74xm275,10v154,0,244,-74,244,-231r0,-246v1,-42,-35,-78,-77,-77v-47,2,-77,31,-77,78r0,244v0,60,-29,97,-90,97v-62,0,-91,-38,-91,-97r0,-308r-154,0r0,310v-1,157,92,230,245,230","w":568},"\u00ff":{"d":"344,-582v40,0,75,-33,75,-73v0,-41,-34,-75,-75,-75v-40,0,-73,35,-73,75v0,39,34,73,73,73xm218,-656v0,-39,-34,-74,-73,-74v-40,0,-75,33,-75,73v0,42,32,75,74,75v40,0,74,-34,74,-74xm87,171v-3,56,79,92,121,53v12,-11,20,-26,28,-42v72,-143,132,-318,192,-476r51,-155v24,-73,-69,-125,-121,-77v-12,12,-21,27,-26,44r-87,263r-112,-317r-139,57r173,444r-57,126v-11,31,-21,53,-23,80","w":493},"\u0152":{"d":"885,2v38,1,71,-32,71,-70v0,-38,-32,-70,-70,-70r-197,0r0,-150r168,0v38,1,70,-32,70,-70v0,-38,-31,-70,-70,-70r-168,0r0,-151r220,0r0,-139r-36,-2r-264,0v-45,-1,-54,35,-54,79v-49,-71,-157,-108,-277,-86v-137,25,-220,123,-260,247v-28,88,-27,183,6,266v35,89,96,157,180,196v42,20,89,30,139,30v94,0,166,-35,211,-88v9,34,6,76,52,76xm264,-150v-85,-46,-126,-169,-94,-295v21,-83,71,-150,174,-150v102,0,154,66,176,147v33,123,-6,253,-89,298v-45,25,-121,25,-167,0","w":987},"\u0153":{"d":"830,-226v45,-1,70,-14,68,-61v-6,-128,-78,-211,-180,-246v-26,-9,-54,-13,-83,-13v-89,1,-133,35,-182,83v-42,-45,-102,-83,-182,-83v-129,0,-206,76,-246,170v-27,65,-27,148,-1,214v38,96,115,172,244,172v81,0,144,-34,185,-83v63,89,237,102,359,57r-28,-121v-63,19,-157,41,-207,-7v-22,-21,-37,-48,-44,-82r297,0xm533,-313v10,-59,35,-113,102,-113v65,0,99,47,102,113r-204,0xm374,-324v21,94,-7,199,-104,201v-135,2,-140,-220,-52,-276v26,-17,74,-18,101,-2v28,15,48,43,55,77","w":936},"\u0178":{"d":"394,-764v42,0,75,-32,75,-74v0,-41,-34,-74,-75,-74v-40,0,-73,35,-73,75v0,37,36,73,73,73xm268,-838v0,-40,-33,-74,-73,-74v-39,0,-75,33,-75,73v0,42,33,75,75,75v40,0,73,-35,73,-74xm295,9v43,0,80,-38,80,-81r0,-266r194,-266v8,-12,15,-26,15,-44v0,-60,-63,-98,-118,-68v-13,7,-23,17,-30,28r-142,209r-170,-253r-124,95v0,3,5,9,6,11r209,288r0,266v-1,43,36,81,80,81","w":604},"\u02c6":{"d":"305,-579v42,4,74,-51,47,-88v-7,-9,-15,-16,-26,-21r-137,-54v-16,-5,-34,1,-45,6r-124,50v-19,7,-34,26,-34,51v-1,30,25,60,55,57v46,-5,95,-35,133,-50v37,16,84,45,131,49","w":360},"\u02dc":{"d":"103,-621v68,0,133,78,203,35v36,-22,52,-71,53,-126r-67,0v-2,23,-8,49,-31,49v-59,0,-96,-48,-158,-48v-73,0,-96,64,-98,139r67,0v1,-24,7,-49,31,-49","w":376},"\u2013":{"d":"33,-349v0,30,23,62,55,62r438,0r1,-123r-439,0v-31,-1,-56,31,-55,61","w":581},"\u2014":{"d":"513,-224r-1,-144r-483,0r0,145","w":562},"\u2018":{"d":"228,-660v31,-64,-41,-136,-104,-94v-13,8,-22,19,-28,32r-97,207r137,64","w":242},"\u2019":{"d":"4,-546v-28,65,42,134,105,93v13,-8,22,-18,28,-31r97,-208r-137,-64","w":240},"\u201a":{"d":"5,64v-24,62,48,121,106,84v13,-8,21,-19,28,-32v35,-61,67,-144,97,-213r-120,-66r-64,121r-24,48","w":244},"\u201c":{"d":"241,-674v31,-66,-42,-135,-105,-94v-13,8,-22,18,-27,31r-110,232r136,64xm451,-674v28,-66,-41,-135,-105,-94v-13,8,-23,18,-28,31r-110,232r137,64","w":471},"\u201d":{"d":"213,-546v-31,65,42,134,105,94v13,-8,22,-19,28,-32r109,-232r-136,-64xm3,-546v-28,65,42,134,105,93v13,-8,22,-18,28,-31r110,-232r-137,-64","w":468},"\u201e":{"d":"215,54v-31,65,42,134,105,94v13,-8,22,-19,28,-32r109,-232r-136,-64xm5,54v-28,65,42,134,105,93v13,-8,22,-18,28,-31r110,-232r-137,-64","w":472},"\u2022":{"d":"202,-232v61,-25,107,-100,75,-182v-23,-61,-103,-105,-182,-74v-60,24,-105,103,-74,182v24,60,102,106,181,74","w":344},"\u2026":{"d":"589,12v43,0,81,-38,81,-82v0,-43,-38,-81,-82,-81v-43,0,-81,38,-81,82v0,43,38,81,82,81xm349,12v44,0,81,-38,81,-82v0,-43,-37,-81,-81,-81v-44,0,-81,38,-81,82v0,43,37,81,81,81xm28,-69v0,43,38,81,82,81v42,0,80,-40,80,-82v0,-43,-37,-81,-81,-81v-43,0,-81,38,-81,82","w":722},"\u2039":{"d":"250,-402v27,-51,-34,-111,-86,-78v-11,6,-20,15,-27,24r-111,142v-3,20,-1,54,-2,79v3,11,13,22,19,31r95,131v12,16,29,31,55,31v41,1,78,-47,55,-87v-29,-50,-66,-92,-99,-138v33,-45,74,-84,101,-135","w":288},"\u203a":{"d":"26,-128v-26,52,34,109,86,76v10,-6,19,-14,26,-23r102,-142v3,-20,1,-54,2,-79v0,-6,-13,-24,-18,-31r-87,-131v-9,-17,-29,-30,-54,-30v-41,-1,-79,45,-56,86v28,50,67,91,99,137r-86,114v-5,7,-10,15,-14,23","w":272},"\u2122":{"d":"696,-369r-53,-319v-3,-31,-48,-50,-74,-28v-8,6,-14,16,-17,27r-72,242r-71,-242v-6,-31,-48,-48,-75,-25v-9,7,-15,16,-16,27r-52,307r0,11r65,5r39,-259r77,263r68,0r77,-263r38,259xm186,-660v39,0,94,11,95,-30v0,-16,-13,-31,-30,-30r-196,0v-16,0,-31,13,-30,30v1,40,55,30,95,30r0,293r66,0r0,-293","w":746}}});
