/*!
 * The following copyright notice may not be removed under any circumstances.
 * 
 * Copyright:
 * 29-7-95  31-12-02      \251 m klein
 */
Cufon.registerFont({"w":628,"face":{"font-family":"Folks-Heavy","font-weight":900,"font-stretch":"normal","units-per-em":"1000","panose-1":"2 0 9 3 3 0 0 2 0 4","ascent":"800","descent":"-200","x-height":"11","cap-height":"1","bbox":"-85 -978.35 1063.9 261.267","underline-thickness":"115","underline-position":"-69","unicode-range":"U+0020-U+2122"},"glyphs":{" ":{"w":290},"!":{"d":"272,-55v40,-102,-53,-199,-160,-159v-53,20,-91,90,-64,159v21,53,91,93,160,65v30,-12,52,-35,64,-65xm48,-357v4,67,45,112,112,112v52,0,85,-31,102,-68v6,-13,8,-28,8,-43r0,-364r-222,-1r0,364","w":285},"\"":{"d":"29,-468r124,0r42,-252r-144,0xm231,-468r124,0r42,-252r-144,0","w":396},"#":{"d":"81,-478v0,17,14,33,31,32r95,0r-36,172r-98,0v-22,-1,-45,19,-45,41v0,16,14,31,30,31r97,0r-33,154v-10,38,-6,61,26,64v20,2,36,-18,39,-35r40,-183r87,0r-37,157v-4,18,-6,29,-6,32v0,26,37,36,57,19v8,-6,13,-13,16,-24r42,-184r98,0v25,1,43,-19,43,-44v1,-14,-15,-30,-29,-29r-97,1r37,-172r95,0v24,0,49,-16,49,-42v0,-18,-14,-32,-32,-32r-97,2r44,-200r-74,0r-42,200r-86,0r42,-200r-72,0r-42,200r-96,-2v-23,0,-46,18,-46,42xm243,-274r36,-172r87,0r-37,172r-86,0","w":611},"$":{"d":"315,-839v-10,0,-18,10,-18,20r0,92v-114,13,-208,65,-257,147v-32,55,-35,144,1,194v51,72,154,104,255,124r-1,66v-89,-2,-150,-39,-219,-61r-57,197v81,33,170,69,276,69r0,88r36,0r0,-90v122,-4,209,-69,255,-153v31,-55,33,-142,0,-192v-50,-78,-153,-108,-254,-133r1,-53v47,6,77,33,131,33v53,0,96,-44,96,-97v0,-59,-41,-90,-82,-110v-39,-19,-95,-28,-145,-30r0,-90v0,-11,-6,-22,-18,-21xm242,-513v5,-19,33,-22,55,-18r-1,51v-19,-6,-50,-11,-54,-33xm332,-254v13,6,37,4,39,22v1,25,-23,27,-40,35","w":578},"%":{"d":"88,-684v-40,40,-72,127,-40,202v33,79,139,139,242,96v63,-27,113,-84,113,-169v0,-86,-50,-141,-113,-169v-74,-33,-162,0,-202,40xm217,-526v-16,0,-31,-11,-31,-28v0,-17,16,-29,32,-29v16,0,32,10,32,28v0,18,-16,29,-33,29xm155,-130v-43,59,1,148,72,146v36,-1,65,-20,81,-43r439,-629r-155,-102xm508,-293v-42,36,-75,125,-40,198v29,62,83,112,169,112v85,0,139,-50,167,-111v33,-72,1,-159,-38,-198v-43,-42,-129,-70,-200,-39v-22,9,-41,23,-58,38xm636,-136v-17,0,-30,-11,-30,-28v0,-18,15,-30,33,-30v17,0,31,12,31,29v0,18,-17,29,-34,29","w":803},"&":{"d":"96,-538v0,51,21,78,44,110v-61,38,-117,102,-117,195v0,132,85,198,190,230v36,10,73,15,110,15v80,0,124,-28,185,-52v24,24,50,50,80,66v52,27,102,-14,118,-54v5,-12,8,-26,8,-39v0,-47,-22,-59,-48,-85r116,-95r-139,-155r-121,95r-48,-48v73,-29,142,-77,142,-174v0,-147,-112,-204,-258,-204v-106,0,-194,39,-238,107v-16,25,-24,54,-24,88xm371,-567v28,0,49,30,27,55v-7,8,-12,14,-17,17v-14,-6,-40,-21,-40,-42v0,-15,15,-31,30,-30xm276,-284r95,97v-32,11,-76,13,-97,-10v-18,-13,-33,-45,-16,-69v5,-8,11,-13,18,-18","w":724},"'":{"d":"29,-468r124,0r42,-252r-144,0","w":216},"(":{"d":"125,-775v-81,145,-138,376,-88,594r21,101v14,59,37,117,73,154v30,31,95,25,121,-4v26,-19,36,-64,22,-103v-52,-142,-98,-337,-44,-511v17,-56,26,-138,50,-188","w":280},")":{"d":"175,96v70,-128,126,-304,101,-504v-15,-117,-34,-244,-90,-326v-23,-34,-64,-51,-110,-34v-42,16,-68,65,-50,123r25,81v41,117,59,297,19,430v-17,57,-28,136,-50,188","w":280},"*":{"d":"203,-733v-48,0,-86,44,-56,88v7,11,13,22,18,31r-51,-41r-99,16r56,73r54,23r-51,28r-61,73r103,12r46,-45v-9,20,-24,42,-24,69v0,34,31,62,65,62v47,0,83,-52,57,-98v-6,-12,-10,-22,-15,-33r46,45r103,-12r-61,-73r-51,-28r54,-23r56,-73r-99,-16r-51,41v7,-17,31,-41,29,-65v-2,-35,-33,-54,-68,-54","w":400},"+":{"d":"340,-620v-48,-2,-90,41,-90,89r0,90r-151,0r0,179r152,0r0,92v2,52,39,90,89,90v52,0,88,-42,89,-90r0,-91v57,2,122,7,153,-26v33,-35,33,-89,-1,-124v-31,-32,-93,-30,-152,-27r0,-92v-3,-53,-36,-87,-89,-90"},",":{"d":"-21,34v-31,72,19,151,92,149v44,-1,83,-29,97,-62r106,-235r-196,-90","w":259},"-":{"d":"24,-296v-2,50,42,89,91,89r340,0r1,-179r-341,0v-54,3,-89,35,-91,90","w":456},".":{"d":"178,-214v-101,-40,-202,52,-160,159v20,53,91,92,160,65v53,-21,92,-91,64,-160v-13,-29,-34,-52,-64,-64","w":294},"\/":{"d":"14,-109v-33,84,60,159,138,111v15,-10,27,-24,34,-41r270,-659r-172,-70","w":434},"0":{"d":"257,-718v-175,55,-268,227,-227,452v24,132,104,227,227,262v172,50,301,-54,360,-173v48,-98,49,-268,0,-367v-40,-82,-105,-145,-197,-174v-52,-17,-110,-17,-163,0xm288,-201v-73,-62,-67,-254,1,-315v26,-24,73,-23,99,0v71,62,71,249,3,314v-26,25,-77,23,-103,1","w":629},"1":{"d":"464,-611v1,-66,-42,-110,-108,-109r-187,0v-68,-2,-122,70,-92,138v15,34,45,62,93,62r63,0r0,518r231,1r0,-610"},"2":{"d":"54,-94v0,64,47,94,110,94r466,0r0,-200r-210,0v68,-58,139,-134,178,-222v26,-60,23,-132,-6,-184v-55,-98,-212,-149,-355,-108v-75,22,-152,75,-177,152v-26,78,15,149,95,149v87,0,99,-78,153,-111v25,-15,76,-12,77,21v-5,23,-26,46,-42,67v-77,93,-168,178,-253,264v-19,19,-36,43,-36,78"},"3":{"d":"625,-234v-1,-87,-49,-129,-107,-164v54,-40,88,-150,44,-224v-48,-81,-169,-122,-294,-98v-78,15,-137,54,-200,85r78,176r96,-39v28,-10,65,-30,90,-30v16,0,38,7,38,26v0,10,-10,24,-20,23v-77,1,-133,26,-133,105v0,83,60,91,132,99v25,3,46,12,46,41v0,29,-30,44,-56,44v-82,0,-100,-86,-184,-88v-56,-1,-103,45,-102,101v1,69,53,111,101,139v73,42,183,64,280,31v70,-24,129,-66,164,-125v18,-30,27,-64,27,-102","w":626},"4":{"d":"559,-546v0,-112,-37,-184,-151,-183v-74,1,-106,43,-137,87r-242,342v-12,16,-22,38,-22,64v0,67,50,100,117,100r202,0r0,136r231,-1r0,-133v65,-2,110,-34,110,-99v0,-65,-44,-96,-108,-99r0,-214xm225,-333r102,-158r0,158r-102,0"},"5":{"d":"149,-230v-61,0,-102,37,-104,97v-2,65,53,97,102,116v98,38,240,42,329,-8v71,-40,134,-117,134,-228v0,-101,-56,-164,-130,-195v-46,-20,-111,-20,-162,-7r13,-61r222,0r40,-204r-345,0v-48,-1,-92,39,-100,82r-48,274v-4,57,38,100,90,100v48,0,74,-32,123,-33v32,0,68,17,66,53v-2,36,-31,52,-67,52v-63,0,-101,-38,-163,-38","w":627},"6":{"d":"388,-471v23,-36,65,-84,92,-121v15,-19,26,-35,34,-48r-197,-106r-182,252v-63,81,-120,241,-62,362v44,91,141,141,272,141v129,0,217,-64,259,-155v24,-52,30,-124,10,-182v-32,-90,-110,-138,-226,-143xm395,-247v0,30,-33,54,-61,53v-32,-2,-56,-20,-59,-52v-2,-29,33,-52,60,-52v28,0,60,21,60,51"},"7":{"d":"644,-621v-3,-63,-46,-99,-109,-99r-490,0r0,199r325,0r-236,359v-31,42,-14,107,16,135v32,30,97,43,142,15v19,-12,34,-26,45,-45r295,-519v8,-14,12,-29,12,-45"},"8":{"d":"93,-589v-32,74,-3,160,44,199v-59,24,-97,79,-97,159v0,131,85,195,190,223v159,42,322,-10,380,-117v17,-30,26,-66,26,-107v0,-79,-38,-134,-97,-158v47,-40,73,-125,43,-200v-41,-103,-150,-153,-298,-136v-96,11,-159,61,-191,137xm387,-506v0,24,-26,43,-48,43v-23,0,-50,-18,-50,-43v0,-26,25,-44,49,-44v23,0,49,20,49,44xm338,-194v-40,0,-72,-24,-72,-64v0,-39,33,-63,71,-63v40,0,73,24,73,64v0,40,-32,63,-72,63"},"9":{"d":"49,-460v2,146,103,201,239,214v-51,52,-94,113,-138,172r160,109r114,-109v89,-86,157,-182,192,-319v16,-66,12,-140,-14,-192v-45,-91,-139,-142,-271,-142v-131,0,-219,63,-261,157v-14,33,-21,69,-21,110xm340,-419v-27,0,-60,-22,-60,-51v0,-30,31,-54,60,-54v28,0,60,23,60,53v0,30,-32,52,-60,52","w":629},":":{"d":"209,-214v-101,-40,-202,52,-160,159v20,53,91,92,160,65v53,-21,93,-91,65,-160v-13,-29,-35,-52,-65,-64xm207,-548v-107,-40,-198,54,-159,158v20,54,88,93,158,66v54,-20,94,-91,66,-160v-13,-29,-35,-53,-65,-64","w":286},";":{"d":"130,-322v102,40,203,-53,161,-160v-20,-54,-90,-93,-161,-66v-54,21,-94,93,-65,162v13,30,35,52,65,64xm-6,34v-30,72,18,151,92,149v43,-1,83,-30,97,-62r127,-264r-196,-90","w":300},"<":{"d":"29,-360r421,233r0,-163r-145,-70r145,-70r0,-163","w":489},"=":{"d":"610,-237v2,-49,-39,-90,-89,-90r-464,0r-1,178r465,0v52,-3,87,-35,89,-88xm610,-459v0,-50,-41,-89,-90,-89r-463,0r0,179r464,0v50,1,89,-41,89,-90"},">":{"d":"29,-127r421,-233r-421,-233r0,163r145,70r-145,70r0,163","w":489},"?":{"d":"314,-216v-86,-32,-170,24,-170,112v1,88,82,143,170,112v55,-19,94,-91,65,-160v-13,-30,-34,-53,-65,-64xm196,-460v-55,33,-35,131,-39,212r223,-2r-2,-98v84,-22,152,-74,152,-175v0,-118,-78,-176,-172,-203v-128,-36,-264,8,-324,82v-18,21,-27,46,-27,74v0,52,31,89,83,89v72,0,97,-64,170,-65v22,1,50,7,47,33v-4,29,-50,27,-75,37v-13,5,-25,9,-36,16","w":522},"@":{"d":"351,3v56,0,85,-36,105,-75v-1,86,112,91,169,48v90,-68,153,-239,92,-375v-48,-106,-144,-182,-292,-182v-179,0,-291,96,-347,227v-38,89,-38,208,-3,298v52,131,157,223,334,226r3,-53v-143,-1,-206,-80,-255,-178v-35,-70,-40,-182,-8,-261v44,-109,133,-193,280,-193v118,0,193,61,229,147v39,96,10,227,-47,279v-15,15,-34,41,-63,40v-48,0,-40,-63,-33,-105r46,-264r-54,0r-7,45v-18,-63,-120,-70,-172,-31v-62,47,-107,132,-107,233v0,71,26,129,71,158v16,11,36,16,59,16xm416,-382v92,3,57,133,40,200v-11,43,-28,93,-52,118v-12,12,-27,18,-44,18v-79,-3,-77,-95,-64,-172v10,-53,30,-106,61,-138v16,-17,36,-26,59,-26","w":782},"A":{"d":"102,11v77,0,99,-58,120,-115r243,0r34,127r226,-56r-208,-567v-25,-71,-83,-126,-174,-126v-91,0,-146,57,-174,126r-172,440v-9,21,-13,41,-13,61v0,69,49,110,118,110xm289,-303r54,-192r54,192r-108,0","w":663},"B":{"d":"532,-383v41,-49,52,-152,16,-214v-43,-74,-123,-123,-235,-123r-166,0v-71,4,-118,48,-118,119r0,602v61,-1,123,-1,183,-1v94,0,198,12,272,-15v83,-30,148,-92,148,-201v0,-79,-40,-132,-94,-162v-3,-2,-5,-4,-6,-5xm351,-490v0,18,-19,32,-37,32r-53,0r0,-64r51,0v18,0,39,14,39,32xm401,-231v1,17,-15,33,-32,32r-109,0r0,-67r109,0v18,-1,32,17,32,35","w":611},"C":{"d":"640,-664v-84,-25,-183,-69,-291,-58v-146,15,-251,110,-303,228v-34,77,-35,169,-4,250v56,147,180,251,372,251v87,0,171,-29,214,-79v24,-27,36,-71,18,-107v-16,-32,-47,-55,-93,-55v-61,0,-99,31,-162,30v-96,-2,-145,-64,-145,-160v0,-111,80,-155,183,-163v51,-4,113,24,149,42","w":644},"D":{"d":"29,-721r0,604v4,70,46,117,115,117v124,0,248,11,342,-26v132,-53,232,-157,232,-335v0,-146,-67,-240,-158,-297v-66,-41,-155,-62,-257,-62r-137,0v0,0,-91,0,-137,-1xm260,-199r0,-321v133,-7,228,37,228,164v0,102,-71,153,-173,157r-55,0","w":705},"E":{"d":"517,-620v0,-59,-38,-100,-97,-100r-391,1r0,601v2,54,33,89,71,108v14,7,29,10,44,10r369,0r-1,-200r-252,0r0,-62r131,0v60,-4,103,-37,106,-97v2,-55,-53,-99,-107,-99r-130,0r0,-61r158,0v60,-3,99,-41,99,-101","w":504},"F":{"d":"486,-385v27,70,-22,137,-93,137r-132,0r0,248r-232,0r0,-603v4,-71,46,-117,117,-117r353,0r1,202r-239,0r0,71r133,0v47,1,79,27,92,62","w":474},"G":{"d":"387,-378v-30,69,25,143,94,141r60,0v-31,46,-129,58,-192,33v-59,-24,-102,-74,-102,-154v0,-81,42,-133,100,-158v80,-36,173,10,231,40r77,-189v-95,-62,-261,-84,-387,-35v-95,37,-171,105,-215,194v-44,88,-43,217,0,304v63,127,191,211,374,211v163,0,273,-78,326,-193v19,-41,28,-86,28,-137v-1,-74,-30,-119,-107,-118r-194,0v-46,2,-78,27,-93,61","w":759},"H":{"d":"99,-719v79,-34,162,30,162,108r0,145r227,0r0,-252r232,-1r0,613v-1,55,-30,90,-70,106v-82,32,-161,-20,-161,-106r0,-160r-229,0r0,266r-231,0r0,-612v2,-54,31,-90,70,-107","w":729},"I":{"d":"29,1r231,0r0,-612v-1,-54,-30,-92,-70,-107v-82,-32,-161,20,-161,106r0,613xm137,-915v-46,2,-75,32,-77,78v-2,41,35,78,77,78v42,0,77,-35,77,-77v0,-41,-36,-81,-77,-79","w":265},"J":{"d":"197,-188v-49,0,-104,-31,-147,-43r-43,183v66,22,125,58,208,58v162,0,244,-101,244,-262r0,-358v-1,-55,-29,-92,-69,-108v-82,-32,-159,21,-159,106r0,360v-1,30,-3,64,-34,64","w":453},"K":{"d":"190,-718v-80,-33,-161,22,-161,104r0,614r230,0r0,-301r223,270v24,32,83,50,130,29v40,-18,71,-51,73,-106v0,-29,-10,-54,-29,-75r-181,-201r199,-196r-170,-155r-244,266r0,-143v-1,-54,-31,-90,-70,-106","w":648},"L":{"d":"29,0r471,0r0,-199r-239,0r0,-412v-2,-54,-31,-91,-71,-107v-82,-32,-161,20,-161,106r0,612","w":475},"M":{"d":"336,-700v-53,-43,-142,-39,-191,5v-27,23,-44,54,-51,93r-84,486v-2,75,41,124,114,124v64,0,107,-40,114,-98r34,-287r93,301r199,0r92,-301r49,388r225,-37r-95,-576v-11,-74,-70,-128,-152,-128v-72,0,-128,50,-145,109r-74,251r-74,-251v-9,-33,-28,-59,-54,-79","w":903},"N":{"d":"562,-3v81,34,166,-19,165,-104r0,-504v-1,-55,-32,-90,-71,-107v-66,-29,-130,12,-150,62v-6,14,-10,29,-10,45r0,235r-254,-298v-28,-35,-86,-74,-144,-46v-39,19,-69,54,-69,109r0,611r231,1r0,-353r262,318v11,13,25,24,40,31","w":731},"O":{"d":"52,-506v-42,88,-42,204,0,292v60,126,175,224,351,224v176,0,291,-99,351,-224v42,-88,42,-204,0,-292v-60,-126,-175,-224,-351,-224v-176,0,-291,99,-351,224xm339,-205v-67,-32,-112,-124,-79,-219v20,-59,66,-105,143,-105v77,0,123,47,144,106v33,95,-13,189,-82,219v-38,17,-89,17,-126,-1","w":774},"P":{"d":"100,-2v102,40,176,-46,162,-158v-2,-16,-2,-33,-2,-48v87,3,168,0,230,-30v83,-40,145,-110,145,-229v0,-126,-75,-200,-171,-236v-34,-12,-68,-18,-105,-18r-330,0r0,610v2,55,30,93,71,109xm408,-463v0,30,-26,56,-56,55r-92,0r0,-108r92,0v30,-1,56,23,56,53","w":605},"Q":{"d":"403,11v66,0,117,-18,169,-37r140,138r141,-144r-131,-129v66,-79,86,-233,33,-343v-61,-126,-175,-226,-352,-226v-176,0,-291,99,-351,224v-42,88,-42,201,0,290v42,89,114,159,206,198v46,20,94,29,145,29xm340,-204v-69,-31,-113,-124,-80,-220v20,-59,66,-105,143,-105v77,0,123,46,143,105v33,95,-12,188,-80,219v-38,18,-88,18,-126,1","w":776},"R":{"d":"519,-288v60,-49,108,-94,108,-194v0,-122,-66,-192,-159,-224v-32,-10,-66,-15,-103,-15r-336,0r0,613v1,55,32,91,71,108v65,29,131,-11,150,-60v6,-14,9,-29,9,-45r0,-169r210,309r196,-122xm397,-476v1,22,-19,43,-41,42r-96,0r0,-86r100,0v22,-1,37,23,37,44","w":608},"S":{"d":"373,-227v-2,27,-34,34,-61,34v-96,0,-177,-43,-256,-68v-22,62,-43,127,-57,197v107,55,294,100,437,50v86,-30,172,-107,172,-225v0,-190,-190,-206,-343,-248v-8,-3,-22,-7,-22,-18v0,-18,22,-25,37,-25v71,1,119,35,189,37v51,1,94,-45,91,-95v-6,-111,-122,-139,-234,-139v-128,0,-229,52,-281,135v-33,53,-37,146,-5,200v53,89,174,110,288,137v17,4,42,12,45,28","w":578},"T":{"d":"573,-580v27,-69,-19,-140,-91,-140r-471,0r1,198r157,0r0,415v1,83,78,137,159,106v40,-15,70,-51,70,-104r0,-415v43,-2,90,6,122,-8v24,-10,44,-28,53,-52","w":529},"U":{"d":"385,-189v-76,0,-126,-52,-125,-127r0,-405r-231,0r0,398v2,166,87,264,213,309v85,29,199,29,284,0v127,-45,214,-142,214,-309r0,-288v-1,-55,-31,-92,-71,-109v-67,-28,-131,12,-151,62v-6,14,-9,29,-9,45r0,297v1,75,-49,127,-124,127","w":738},"V":{"d":"174,-730r-216,82r262,580v19,41,50,79,106,79v65,0,91,-32,112,-79r224,-503v29,-85,-25,-157,-109,-157v-52,0,-91,34,-106,75r-118,324","w":632},"W":{"d":"-18,-689r153,570v19,71,65,128,152,128v73,0,127,-52,145,-110r73,-230r73,229v17,58,73,110,145,110v89,0,131,-56,152,-128r130,-472v13,-61,-26,-106,-70,-126v-41,-18,-90,-10,-117,18v-19,19,-33,43,-41,70r-85,291r-85,-300r-204,0r-85,300r-108,-388","w":961},"X":{"d":"186,-387r-165,211v-38,42,-24,116,10,150v31,31,98,49,141,16v17,-13,32,-28,44,-45r104,-154r104,154v25,41,86,84,148,55v38,-18,68,-53,70,-107v0,-25,-8,-48,-24,-69r-165,-211r132,-151v25,-26,37,-76,20,-118v-22,-55,-102,-97,-163,-53v-52,38,-81,95,-122,143r-135,-171r-169,151","w":625},"Y":{"d":"205,-108v4,70,46,118,116,118v55,0,88,-33,106,-73v6,-14,9,-29,9,-45r0,-230r191,-207v24,-23,30,-71,14,-108v-18,-41,-51,-75,-106,-75v-46,0,-78,31,-101,57r-114,138r-160,-197r-176,144r221,248r0,230","w":598},"Z":{"d":"649,-618v0,-62,-46,-102,-108,-102r-515,0r0,199r291,0r-283,358v-13,15,-21,38,-21,64v0,64,45,99,109,99r463,0v68,2,122,-69,93,-138v-14,-34,-45,-61,-92,-61r-245,0r280,-351v14,-18,28,-38,28,-68","w":649},"[":{"d":"113,-833v-44,-2,-75,38,-75,80r0,786v0,42,31,80,75,80r268,0r-3,-198r-110,0r0,-550v75,4,117,-33,120,-99v3,-55,-44,-99,-99,-99r-176,0","w":341},"\\":{"d":"29,-720r126,720r144,0r-126,-720r-144,0","w":320},"]":{"d":"9,-734v3,66,45,104,120,99r0,550r-103,0r2,198r257,0v44,2,74,-38,74,-80r0,-786v0,-42,-30,-80,-74,-80r-177,0v-55,-1,-102,44,-99,99","w":341},"^":{"d":"29,-149r164,0r69,-146r70,146r164,0r-234,-422","w":537},"_":{"d":"29,237r360,0r0,-43r-360,0r0,43","w":428},"`":{"d":"219,-588v63,25,125,-48,86,-106v-8,-12,-19,-21,-32,-26r-182,-74r-54,135","w":280},"a":{"d":"505,-549v-46,2,-86,20,-91,64v-35,-72,-157,-80,-236,-41v-92,45,-158,133,-158,263v0,128,68,211,161,251v53,23,126,30,179,6v21,-10,39,-27,54,-50v-3,17,-1,38,0,56r193,0r0,-439v0,-64,-35,-112,-102,-110xm316,-179v-71,2,-95,-97,-55,-147v12,-15,29,-28,55,-28v47,-2,79,41,77,87v-2,49,-27,86,-77,88","w":613},"b":{"d":"219,-50v45,61,163,73,241,34v90,-45,156,-131,156,-260v0,-126,-66,-210,-156,-252v-64,-29,-142,-29,-209,-2r0,-233r-222,-1r0,658v0,69,39,117,110,116v40,0,74,-24,80,-60xm394,-269v0,46,-27,90,-75,88v-52,-2,-75,-38,-76,-90v0,-43,32,-84,77,-84v47,0,74,42,74,86","w":610},"c":{"d":"504,-504v-97,-50,-274,-40,-360,13v-67,42,-124,118,-124,220v0,140,83,221,188,259v99,36,255,25,309,-38v20,-23,28,-66,13,-99v-16,-31,-44,-56,-88,-58v-32,-1,-83,17,-119,17v-46,0,-83,-31,-83,-79v0,-61,61,-86,122,-71r74,19v12,3,24,6,37,8v5,-33,11,-65,17,-95v6,-30,11,-63,14,-96","w":513},"d":{"d":"497,10v71,1,110,-47,110,-116r0,-658r-222,0r0,234v-61,-24,-147,-27,-209,2v-90,43,-156,125,-156,252v0,128,66,215,155,260v78,39,197,27,242,-34v6,36,39,60,80,60xm394,-266v0,43,-32,85,-77,85v-49,0,-76,-41,-76,-88v0,-45,28,-86,75,-86v49,0,78,43,78,89","w":613},"e":{"d":"474,-184v-52,10,-117,23,-170,4v-20,-7,-38,-19,-51,-37r260,0v59,-1,93,-17,91,-79v-4,-124,-90,-194,-184,-232v-114,-45,-248,-1,-311,57v-49,46,-89,111,-89,201v0,146,91,223,205,260v85,26,194,22,273,-4xm255,-325v6,-30,27,-58,63,-58v34,0,54,27,56,58r-119,0","w":589},"f":{"d":"400,-638v32,-87,-46,-142,-131,-142v-51,0,-98,0,-127,22v-54,41,-70,125,-70,217v-72,-1,-125,59,-96,129v14,34,45,65,94,65r0,583r221,0r0,-582v60,-3,100,-36,102,-96v2,-59,-43,-100,-101,-99v-4,-21,2,-38,20,-41v45,3,76,-23,88,-56","w":329},"g":{"d":"499,-552v-43,0,-79,24,-84,64v-27,-39,-70,-61,-129,-61v-131,0,-207,80,-246,178v-26,67,-26,150,0,216v39,95,116,166,244,166v40,0,73,-10,100,-27v7,50,-32,84,-79,84v-56,0,-107,-17,-155,-27r-24,186v52,17,111,31,176,31v212,-2,304,-134,304,-345r0,-349v-1,-73,-32,-117,-107,-116xm396,-268v2,45,-34,82,-79,82v-48,0,-76,-41,-76,-86v-1,-44,34,-85,79,-83v49,2,74,38,76,87","w":611},"h":{"d":"252,-675v-1,-80,-76,-133,-155,-103v-39,15,-68,50,-68,102r0,675r223,0r0,-310v-1,-31,27,-55,57,-55v30,0,55,26,54,56r0,209v1,52,29,89,67,104v80,31,157,-19,157,-103r0,-260v-1,-93,-51,-149,-120,-176v-68,-26,-162,-10,-215,21r0,-160","w":593},"i":{"d":"32,-2r223,1r0,-434v-2,-51,-30,-88,-68,-103v-79,-30,-155,19,-155,102r0,434xm137,-765v-46,2,-75,32,-77,78v-2,41,35,78,77,78v42,0,77,-35,77,-77v0,-41,-36,-81,-77,-79","w":260},"j":{"d":"33,150v1,51,30,87,67,102v79,31,155,-19,155,-102r0,-668r-222,-1r0,669xm137,-765v-46,2,-75,32,-77,78v-2,41,35,78,77,78v42,0,77,-35,77,-77v0,-41,-36,-81,-77,-79","w":259},"k":{"d":"520,-398v40,-93,-56,-181,-150,-136v-16,8,-30,19,-41,33r-79,102r0,-276v-2,-52,-30,-87,-68,-101v-79,-29,-153,20,-153,101r0,674r221,1r0,-207r162,231r180,-127r-159,-193r31,-31v20,-21,43,-43,56,-71","w":532},"l":{"d":"184,-775v-77,-31,-155,20,-155,100r0,675r222,-1r0,-672v-2,-51,-29,-87,-67,-102","w":258},"m":{"d":"140,-548v-72,0,-111,40,-111,112r0,436r220,0r0,-310v-1,-28,25,-48,52,-48v26,0,48,24,47,49r0,309r220,1r0,-308v-1,-26,23,-48,49,-48v26,0,50,23,49,49r0,204v1,53,31,88,70,102v80,29,153,-20,153,-102r0,-259v-2,-93,-56,-147,-126,-173v-88,-33,-191,-2,-246,44v-37,-36,-91,-62,-158,-62v-60,0,-112,25,-138,66v-5,-39,-39,-62,-81,-62","w":895},"n":{"d":"137,-550v-66,2,-108,47,-108,114r0,435r222,0r0,-309v-1,-30,26,-56,56,-56v30,0,57,26,56,56r0,208v4,68,45,111,113,111v52,0,84,-32,102,-69v6,-13,9,-28,9,-43r0,-256v-2,-98,-63,-152,-139,-177v-86,-29,-187,-8,-224,55v-8,-38,-42,-71,-87,-69","w":592},"o":{"d":"44,-380v-31,67,-32,158,0,225v46,95,137,166,272,166v136,0,226,-73,272,-169v32,-67,32,-157,0,-224v-46,-96,-135,-168,-272,-168v-136,0,-227,73,-272,170xm316,-175v-52,-2,-78,-41,-78,-93v0,-50,27,-89,78,-89v51,0,78,39,78,89v0,48,-26,95,-78,93","w":601},"p":{"d":"138,-552v-72,-1,-109,46,-109,116r0,673r222,0r0,-250v67,27,145,27,209,-1v91,-41,156,-126,156,-252v0,-127,-66,-215,-155,-260v-79,-40,-197,-27,-242,34v-6,-36,-41,-60,-81,-60xm319,-187v-46,0,-77,-42,-76,-86v2,-50,25,-87,76,-89v48,-2,75,44,75,89v0,45,-28,86,-75,86","w":611},"q":{"d":"497,-552v-40,0,-74,24,-80,60v-45,-61,-163,-74,-242,-34v-89,45,-155,132,-155,260v0,126,67,209,156,252v59,29,152,28,209,1r0,252r222,1r0,-676v0,-69,-39,-117,-110,-116xm316,-187v-47,0,-75,-41,-75,-86v0,-46,28,-88,76,-88v45,0,77,42,77,85v0,46,-29,89,-78,89","w":610},"r":{"d":"243,-472v2,-86,-128,-91,-177,-44v-20,19,-37,44,-37,80r0,437r221,0r1,-253v16,-112,202,-54,199,-191v-2,-61,-42,-101,-103,-101v-51,0,-88,34,-104,72","w":378},"s":{"d":"281,-174v2,17,-20,15,-33,15v-61,0,-129,-31,-186,-47r-38,164v91,31,202,72,316,42v57,-14,105,-46,134,-90v27,-41,28,-113,3,-155v-42,-70,-139,-91,-219,-119v-27,-9,-21,-31,4,-31v53,1,90,25,143,26v42,1,80,-32,77,-74v-7,-90,-119,-106,-211,-106v-97,0,-178,37,-221,97v-28,39,-29,111,-4,152v41,67,137,82,216,107v13,5,19,11,19,19","w":476},"t":{"d":"194,-700v-67,0,-108,45,-111,112r0,47v-62,1,-107,30,-107,92v0,60,45,90,106,92r0,357r223,1r0,-356v62,-2,106,-30,108,-93v2,-61,-50,-93,-107,-93v8,-95,-28,-159,-112,-159","w":344},"u":{"d":"306,-183v-35,0,-54,-28,-54,-61r0,-291r-223,-1r0,293v0,178,102,254,278,254v175,0,278,-76,277,-254r0,-193v-1,-80,-77,-133,-156,-102v-39,15,-68,51,-68,104r0,190v0,33,-19,61,-54,61","w":590},"v":{"d":"267,-296r-106,-246r-185,91r184,378v22,44,47,79,110,79v55,1,84,-42,103,-79r156,-310v14,-26,20,-65,5,-96v-18,-37,-51,-68,-102,-68v-50,0,-95,31,-108,73","w":501},"w":{"d":"854,-438v0,-67,-44,-111,-111,-111v-48,0,-90,32,-104,70r-58,164r-67,-186r-187,0r-67,186r-91,-242r-182,97r166,388v17,40,49,75,104,75v53,0,88,-34,105,-74r58,-142r58,142v17,41,52,74,106,74v55,0,85,-36,104,-75r153,-310v9,-17,13,-35,13,-56","w":811},"x":{"d":"557,-390v32,-79,-23,-158,-101,-158v-37,0,-66,15,-88,44r-74,100r-143,-153r-149,142r148,134r-120,97v-30,22,-48,76,-27,120v18,38,49,72,102,72v41,0,74,-24,94,-49r95,-118r94,118v25,34,83,63,136,39v47,-21,85,-84,59,-148v-6,-14,-15,-25,-26,-34r-120,-97r92,-71v13,-9,22,-22,28,-38","w":549},"y":{"d":"522,-390v34,-81,-19,-158,-101,-158v-64,-1,-89,43,-105,91r-51,152r-92,-234r-195,88r173,397r-77,167v-12,25,-14,62,-1,87v17,34,50,60,99,60v58,0,85,-37,104,-79","w":497},"z":{"d":"544,-466v2,-52,-42,-74,-90,-75r-414,0r0,195r174,0r-183,216v-13,15,-20,34,-20,55v1,56,42,74,98,75r363,0v58,-4,96,-40,96,-98v0,-58,-40,-97,-98,-97r-130,0r184,-219v13,-15,20,-33,20,-52","w":530},"{":{"d":"96,-432v0,38,-28,72,-67,72v39,0,67,33,67,72r0,310v0,62,37,101,99,100r178,0r1,-85v-55,6,-106,-10,-105,-69r0,-234v1,-51,-42,-90,-89,-94v47,-4,89,-43,89,-94r0,-254v0,-37,22,-47,56,-48v32,-1,56,-8,56,-42v1,-23,-20,-45,-43,-44r-143,0v-63,-1,-99,37,-99,100r0,310","w":391},"|":{"d":"29,0r144,0r0,-720r-144,0r0,720","w":194},"}":{"d":"314,-288v0,-38,28,-72,67,-72v-39,0,-67,-33,-67,-72r0,-310v0,-62,-37,-101,-99,-100r-178,0r-1,85v55,-6,106,10,105,69r0,234v-1,51,42,90,89,94v-47,4,-89,43,-89,94r0,254v0,37,-22,47,-56,48v-32,1,-56,8,-56,42v-1,23,20,45,43,44r143,0v63,1,99,-37,99,-100r0,-310","w":391},"~":{"d":"385,-464v-2,25,-8,54,-33,57v-80,-11,-170,-91,-252,-37v-49,32,-70,101,-71,179r105,0v2,-26,9,-55,34,-58v76,14,170,91,251,37v49,-32,70,-101,71,-178r-105,0","w":506},"\u00a0":{"w":290},"\u00a1":{"d":"208,-712v-102,-40,-200,53,-160,161v20,53,91,90,160,63v53,-20,92,-90,64,-159v-13,-29,-34,-53,-64,-65xm272,-345v-4,-67,-45,-112,-112,-112v-66,0,-110,45,-110,111r0,364r222,1r0,-364","w":285},"\u00a2":{"d":"311,-629v-9,0,-18,6,-18,16r0,71v-120,13,-208,75,-251,167v-29,63,-30,145,0,210v43,92,126,166,253,171r0,95v0,9,8,17,17,17v10,0,19,-8,19,-18r0,-93v67,-4,138,-23,201,-33r-18,-194r-92,16v-31,5,-61,10,-92,14r0,-156v37,5,74,21,115,21v79,0,117,-102,69,-157v-36,-43,-110,-59,-185,-60r0,-70v0,-10,-9,-17,-18,-17xm294,-195v-28,-13,-55,-38,-55,-77v0,-44,24,-55,55,-70r0,147","w":513},"\u00a3":{"d":"476,-727v-213,-28,-383,65,-349,270v-66,2,-113,35,-113,101v0,61,42,95,102,98r45,0v-4,52,-43,79,-62,116v-30,61,7,142,72,142r502,0r1,-198r-291,0v1,-19,8,-40,11,-59r117,0r0,-198r-144,0v-6,-10,-9,-21,-9,-33v2,-32,30,-43,63,-43v82,0,115,70,197,70v77,0,111,-106,62,-165v-44,-53,-122,-90,-204,-101","w":670},"\u00a4":{"d":"700,-664v-84,-25,-183,-70,-291,-58v-157,17,-261,119,-311,251r-69,0r0,97r51,0r0,23r-51,0r-1,97r71,0v54,154,179,261,375,261v87,0,171,-29,214,-79v24,-27,36,-71,18,-107v-16,-32,-47,-55,-93,-55v-61,0,-99,30,-162,30v-50,0,-87,-21,-110,-50r178,0v44,-2,87,-10,94,-48v-2,-33,-52,-49,-94,-49r-213,0r0,-23r213,0v42,1,94,-16,94,-49v0,-33,-53,-48,-95,-48r-169,0v33,-32,81,-53,140,-56v51,-3,113,24,149,42","w":740},"\u00a5":{"d":"671,-392v0,-20,-13,-39,-34,-38r-88,0r110,-115v23,-23,30,-71,14,-107v-18,-40,-51,-76,-106,-76v-46,0,-78,31,-101,57r-114,138r-113,-138v-27,-37,-88,-76,-147,-47v-45,21,-83,78,-64,144v4,11,10,21,18,29r115,115r-86,1v-21,0,-40,17,-40,39v0,21,19,39,40,38r150,0r12,14r2,25r-164,0v-21,0,-41,17,-41,39v0,22,19,38,40,38r165,0r1,233r231,0r-1,-234r168,0v19,1,34,-21,34,-39v0,-18,-15,-38,-34,-37r-167,1r0,-26r11,-14r155,-1v20,1,34,-20,34,-39","w":670},"\u00a6":{"d":"291,-592v65,28,136,-24,133,-88v-3,-57,-39,-93,-96,-95v-64,-3,-116,68,-88,133v10,23,28,40,51,50xm118,-585v52,0,98,-43,96,-95v-2,-56,-39,-95,-95,-95v-56,0,-94,37,-96,92v-2,54,40,98,95,98xm539,-34v73,36,153,-34,119,-114v-5,-12,-13,-23,-22,-32r-83,-87r84,-84v16,-17,31,-40,31,-70v0,-64,-67,-106,-126,-73v-14,8,-26,18,-37,29r-126,132r-1,131r128,142v9,11,20,19,33,26xm341,-1r0,-434v-2,-51,-30,-88,-68,-103v-79,-30,-155,19,-155,102r0,434xm93,52v-49,-27,-92,17,-92,67v0,52,43,80,81,98v103,50,276,25,338,-40v43,-45,27,-144,-51,-133v-3,0,-7,1,-10,4v-44,36,-115,63,-187,40v-30,-10,-56,-23,-79,-36xm349,-653v8,10,30,11,25,29v-11,15,-30,-4,-39,-11v-10,-9,2,-27,14,-18xm153,-645v10,5,3,21,-8,19v-9,-2,-32,-22,-20,-34v14,-8,18,10,28,15","w":699},"\u00a7":{"d":"81,-628v-40,58,-23,150,17,193v-45,37,-79,97,-80,172v-1,160,129,178,245,223v29,11,63,16,63,57v-1,37,-51,22,-70,9v-27,-19,-53,-49,-82,-66v-65,-39,-152,8,-152,81v0,53,45,90,81,115v70,50,181,78,293,51v88,-21,160,-70,162,-176v0,-39,-13,-74,-39,-104v56,-36,102,-103,102,-188v0,-166,-194,-164,-304,-228v-17,-10,-25,-23,-25,-38v2,-33,30,-38,61,-21v41,23,87,47,127,72r103,-150v-61,-69,-173,-111,-296,-111v-62,0,-111,12,-148,44v-23,19,-41,41,-58,65xm255,-312v40,17,88,25,120,50v15,12,18,42,0,54r-1,3v-39,-15,-85,-28,-120,-47v-12,-7,-17,-32,-10,-47v2,-4,6,-8,11,-13","w":607},"\u00a8":{"d":"66,-775v-56,0,-93,37,-95,92v-2,54,40,98,95,98v52,0,97,-43,95,-95v-3,-56,-37,-95,-95,-95xm276,-775v-66,-3,-116,68,-88,133v14,32,44,57,88,57v56,0,96,-37,96,-95v0,-57,-39,-93,-96,-95","w":324},"\u00a9":{"d":"80,-505v-39,89,-39,201,0,290v39,90,108,160,198,199v89,39,201,39,290,0v90,-39,159,-109,198,-199v39,-89,39,-201,0,-290v-57,-127,-167,-229,-343,-229v-175,0,-286,102,-343,229xm142,-241v-31,-74,-31,-165,0,-239v46,-106,136,-189,281,-189v144,0,235,84,281,189v31,74,31,164,0,238v-46,106,-136,191,-281,191v-144,0,-235,-85,-281,-190xm535,-474v37,3,50,-54,24,-77v-42,-38,-142,-42,-201,-16v-76,33,-126,103,-126,209v0,104,49,172,122,206v63,29,165,18,208,-18v28,-23,15,-80,-23,-78v-35,2,-56,27,-94,26v-76,-2,-116,-54,-116,-131v0,-80,33,-141,113,-144v37,-1,60,20,93,23","w":850},"\u00aa":{"d":"387,-271v0,-25,-18,-48,-44,-48r-279,0r0,96r279,0v26,1,44,-23,44,-48xm323,-729v-24,0,-41,15,-41,39v-29,-40,-106,-52,-158,-24v-68,37,-115,137,-82,236v21,63,65,118,147,118v41,0,74,-18,92,-44v0,29,18,44,47,44v25,1,48,-22,47,-47r0,-274v1,-27,-26,-48,-52,-48xm204,-447v-54,0,-79,-43,-79,-97v0,-54,24,-98,79,-98v54,0,75,44,75,97v0,53,-23,98,-75,98","w":421},"\u00ab":{"d":"290,-404v35,-80,-49,-153,-121,-112v-13,8,-25,18,-34,30r-103,133v-13,17,-26,39,-26,67v0,49,43,96,71,132v32,39,77,88,110,118r108,-111v-36,-48,-70,-98,-112,-140r84,-85v9,-9,17,-20,23,-32xm554,-404v36,-74,-47,-156,-121,-112v-13,8,-25,18,-34,30r-103,133v-28,34,-33,83,-4,129v41,67,105,137,158,188r109,-111v-36,-48,-70,-98,-112,-140r84,-85v9,-9,17,-20,23,-32","w":552},"\u00ac":{"d":"29,-360r468,0r0,144r108,0r0,-288r-576,0r0,144","w":620},"\u00ad":{"d":"24,-296v-2,50,42,89,91,89r340,0r1,-179r-341,0v-54,3,-89,35,-91,90","w":456},"\u00ae":{"d":"80,-505v-39,89,-39,201,0,290v39,90,108,160,198,199v89,39,201,39,290,0v90,-39,159,-109,198,-199v39,-89,39,-201,0,-290v-57,-127,-167,-229,-343,-229v-175,0,-286,102,-343,229xm142,-241v-31,-74,-31,-165,0,-239v46,-106,136,-189,281,-189v144,0,235,84,281,189v31,74,31,164,0,238v-46,106,-136,191,-281,191v-144,0,-235,-85,-281,-190xm615,-428v0,-94,-63,-142,-156,-142r-201,0r0,366v-1,37,32,69,69,69v37,0,69,-31,69,-68r0,-101r125,185r117,-73r-87,-120v35,-29,64,-57,64,-116xm478,-424v0,13,-11,26,-25,25r-57,0r0,-51r60,0v13,-1,22,13,22,26","w":850},"\u00af":{"d":"401,-668v0,-36,-32,-68,-68,-68r-271,0v-35,-1,-64,33,-63,67v0,34,25,70,62,70r271,0v38,1,69,-31,69,-69","w":364},"\u00b0":{"d":"117,-722v-63,25,-110,103,-77,188v24,63,107,109,189,76v62,-25,110,-106,77,-188v-25,-62,-107,-109,-189,-76xm173,-497v-55,0,-94,-37,-94,-93v0,-56,37,-94,94,-94v56,0,94,38,94,94v0,56,-39,93,-94,93","w":351},"\u00b4":{"d":"312,-686v37,-55,-19,-133,-86,-107r-182,72v-24,9,-46,36,-46,67v-1,48,50,88,100,68r182,-74v13,-5,24,-14,32,-26","w":283},"\u00b6":{"d":"607,-681v0,-22,-20,-39,-41,-39r-319,0v-102,3,-168,60,-201,135v-23,52,-23,118,0,170v33,75,98,131,200,134r61,0r0,504r85,0r2,-864r56,0r-1,864r86,0r0,-864v39,1,72,-2,72,-40","w":631},"\u00b7":{"d":"201,-386v-101,-40,-201,52,-161,159v20,53,91,92,161,65v53,-21,93,-91,65,-160v-13,-29,-35,-52,-65,-64","w":273},"\u00b8":{"d":"14,63v-18,48,3,104,52,107v17,0,30,-7,39,-22r100,-179r-138,0v-18,31,-39,59,-53,94","w":207},"\u00ba":{"d":"29,-271v0,28,29,48,55,48r276,0r0,-96r-276,0v-26,0,-55,20,-55,48xm132,-716v-77,34,-128,136,-90,242v23,65,74,115,160,115v85,0,137,-51,160,-116v38,-105,-14,-208,-90,-241v-42,-18,-98,-19,-140,0xm278,-546v0,55,-22,102,-77,102v-56,0,-76,-49,-76,-105v0,-52,26,-95,78,-95v52,0,75,46,75,98","w":409},"\u00bb":{"d":"278,-137v-35,80,48,153,120,112v13,-8,25,-18,34,-30r103,-133v13,-17,26,-39,26,-67v0,-49,-43,-97,-71,-133v-31,-39,-78,-87,-110,-117r-108,111r54,72v19,24,38,47,58,68r-84,85v-9,9,-16,20,-22,32xm14,-137v-36,74,46,156,120,112v13,-8,25,-18,34,-30r103,-133v28,-34,33,-82,5,-128v-43,-69,-104,-131,-159,-189r-109,111r54,72v19,24,38,47,58,68r-84,85v-9,9,-16,20,-22,32","w":552},"\u00bf":{"d":"384,-569v40,-102,-53,-202,-161,-161v-53,20,-93,91,-65,161v21,53,90,93,160,65v30,-12,54,-35,66,-65xm277,-174v-22,0,-50,-9,-47,-34v4,-29,49,-27,74,-36v42,-15,75,-40,75,-98v0,-21,-1,-43,-2,-65r-4,-65r-218,3r4,96v-83,23,-152,74,-152,175v0,118,79,176,173,203v128,36,264,-9,324,-83v18,-21,26,-45,26,-73v1,-46,-35,-91,-83,-89v-71,3,-97,66,-170,66","w":522},"\u00c0":{"d":"408,-767v63,25,125,-48,86,-106v-8,-12,-19,-21,-32,-26r-182,-74v-64,-26,-129,48,-88,109v8,12,20,21,34,26xm102,11v77,0,99,-58,120,-115r243,0r34,127r226,-56r-208,-567v-25,-71,-83,-126,-174,-126v-91,0,-146,57,-174,126r-172,440v-9,21,-13,41,-13,61v0,69,49,110,118,110xm289,-303r54,-192r54,192r-108,0","w":663},"\u00c1":{"d":"497,-865v37,-55,-19,-133,-86,-107r-182,72v-24,9,-46,36,-46,67v-1,48,50,88,100,68r182,-74v13,-5,24,-14,32,-26xm102,11v77,0,99,-58,120,-115r243,0r34,127r226,-56r-208,-567v-25,-71,-83,-126,-174,-126v-91,0,-146,57,-174,126r-172,440v-9,21,-13,41,-13,61v0,69,49,110,118,110xm289,-303r54,-192r54,192r-108,0","w":663},"\u00c2":{"d":"460,-768v69,29,132,-44,92,-106v-8,-12,-19,-21,-33,-26r-155,-63v-20,-7,-42,1,-57,7r-141,57v-24,9,-43,34,-43,66v0,51,50,89,105,67v39,-15,78,-34,116,-49r74,32v15,6,29,9,42,15xm102,11v77,0,99,-58,120,-115r243,0r34,127r226,-56r-208,-567v-25,-71,-83,-126,-174,-126v-91,0,-146,57,-174,126r-172,440v-9,21,-13,41,-13,61v0,69,49,110,118,110xm289,-303r54,-192r54,192r-108,0","w":663},"\u00c3":{"d":"545,-847v0,-36,-32,-68,-68,-68r-271,0v-35,-1,-64,33,-63,67v0,34,25,70,62,70r271,0v38,1,69,-31,69,-69xm102,11v77,0,99,-58,120,-115r243,0r34,127r226,-56r-208,-567v-25,-71,-83,-126,-174,-126v-91,0,-146,57,-174,126r-172,440v-9,21,-13,41,-13,61v0,69,49,110,118,110xm289,-303r54,-192r54,192r-108,0","w":663},"\u00c4":{"d":"160,-811v-39,0,-72,34,-72,72v0,38,32,70,70,70v39,0,72,-33,72,-72v0,-38,-32,-70,-70,-70xm527,-811v-40,0,-71,33,-71,72v0,38,35,70,72,70v38,0,70,-33,70,-71v0,-38,-33,-71,-71,-71xm102,11v77,0,99,-58,120,-115r243,0r34,127r226,-56r-208,-567v-25,-71,-83,-126,-174,-126v-91,0,-146,57,-174,126r-172,440v-9,21,-13,41,-13,61v0,69,49,110,118,110xm289,-303r54,-192r54,192r-108,0","w":663},"\u00c5":{"d":"222,-856v-33,58,8,128,59,142v-56,18,-90,61,-112,114r-172,440v-9,21,-13,41,-13,61v0,69,49,110,118,110v77,0,99,-58,120,-115r243,0r47,123r213,-89r-208,-530v-20,-52,-59,-94,-110,-116v52,-14,95,-83,61,-142v-27,-48,-99,-78,-170,-56v-33,10,-60,31,-76,58xm289,-303r54,-192r54,192r-108,0xm345,-789v-14,0,-25,-11,-25,-25v0,-13,11,-24,24,-24v14,0,27,10,27,24v0,14,-12,25,-26,25","w":661},"\u00c6":{"d":"763,-520v72,0,120,-67,92,-138v-14,-35,-45,-62,-92,-62r-474,0v-62,1,-87,26,-106,74r-212,559r208,103r44,-127r157,5v19,26,20,65,47,84v18,12,43,21,71,22r371,0r-1,-200r-259,0r0,-59r140,0v60,-3,99,-41,99,-101v0,-60,-41,-99,-101,-99r-139,0r0,-61r155,0xm293,-303r84,-237r0,237r-84,0","w":860},"\u00c7":{"d":"640,-664v-84,-25,-183,-69,-291,-58v-146,15,-251,110,-303,228v-35,78,-34,175,-2,256v47,119,143,206,278,236r-20,20v-20,22,-52,46,-55,81v-4,47,63,74,95,37r101,-119r-17,-10v82,-5,161,-33,204,-81v33,-37,28,-107,-7,-134v-18,-14,-40,-26,-70,-26v-61,1,-99,31,-162,30v-96,-2,-145,-64,-145,-160v0,-111,80,-155,183,-163v51,-4,113,24,149,42","w":644},"\u00c8":{"d":"328,-767v63,25,125,-48,86,-106v-8,-12,-19,-21,-32,-26r-182,-74v-64,-26,-129,48,-88,109v8,12,20,21,34,26xm517,-620v0,-59,-38,-100,-97,-100r-391,1r0,601v2,54,33,89,71,108v14,7,29,10,44,10r369,0r-1,-200r-252,0r0,-62r131,0v60,-4,103,-37,106,-97v2,-55,-53,-99,-107,-99r-130,0r0,-61r158,0v60,-3,99,-41,99,-101","w":504},"\u00c9":{"d":"417,-865v37,-55,-19,-133,-86,-107r-182,72v-24,9,-46,36,-46,67v-1,48,50,88,100,68r182,-74v13,-5,24,-14,32,-26xm517,-620v0,-59,-38,-100,-97,-100r-391,1r0,601v2,54,33,89,71,108v14,7,29,10,44,10r369,0r-1,-200r-252,0r0,-62r131,0v60,-4,103,-37,106,-97v2,-55,-53,-99,-107,-99r-130,0r0,-61r158,0v60,-3,99,-41,99,-101","w":504},"\u00ca":{"d":"380,-768v69,29,132,-44,92,-106v-8,-12,-19,-21,-33,-26r-155,-63v-20,-7,-42,1,-57,7r-141,57v-24,9,-43,34,-43,66v0,51,50,89,105,67v39,-15,78,-34,116,-49r74,32v15,6,29,9,42,15xm517,-620v0,-59,-38,-100,-97,-100r-391,1r0,601v2,54,33,89,71,108v14,7,29,10,44,10r369,0r-1,-200r-252,0r0,-62r131,0v60,-4,103,-37,106,-97v2,-55,-53,-99,-107,-99r-130,0r0,-61r158,0v60,-3,99,-41,99,-101","w":504},"\u00cb":{"d":"160,-954v-56,0,-93,37,-95,92v-2,54,40,98,95,98v52,0,97,-43,95,-95v-3,-56,-37,-95,-95,-95xm370,-954v-66,-3,-116,68,-88,133v14,32,44,57,88,57v56,0,96,-37,96,-95v0,-57,-39,-93,-96,-95xm517,-620v0,-59,-38,-100,-97,-100r-391,1r0,601v2,54,33,89,71,108v14,7,29,10,44,10r369,0r-1,-200r-252,0r0,-62r131,0v60,-4,103,-37,106,-97v2,-55,-53,-99,-107,-99r-130,0r0,-61r158,0v60,-3,99,-41,99,-101","w":504},"\u00cc":{"d":"207,-767v63,25,125,-48,86,-106v-8,-12,-19,-21,-32,-26r-182,-74v-64,-26,-128,48,-87,109v8,12,19,21,33,26xm29,1r231,0r0,-612v-1,-54,-30,-92,-70,-107v-82,-32,-161,20,-161,106r0,613","w":265},"\u00cd":{"d":"296,-865v37,-55,-19,-133,-86,-107r-182,72v-24,9,-46,36,-46,67v-1,48,50,88,100,68r182,-74v13,-5,24,-14,32,-26xm29,1r231,0r0,-612v-1,-54,-30,-92,-70,-107v-82,-32,-161,20,-161,106r0,613","w":265},"\u00ce":{"d":"260,-768v69,29,132,-44,92,-106v-8,-12,-20,-21,-34,-26r-155,-63v-20,-7,-42,1,-57,7r-141,57v-24,9,-43,34,-43,66v0,51,49,88,104,67v39,-15,79,-33,117,-49r74,32v15,6,30,9,43,15xm29,1r231,0r0,-612v-1,-54,-30,-92,-70,-107v-82,-32,-161,20,-161,106r0,613","w":265},"\u00cf":{"d":"39,-954v-56,0,-93,37,-95,92v-2,54,40,98,95,98v52,0,97,-43,95,-95v-3,-56,-37,-95,-95,-95xm249,-954v-66,-3,-115,68,-87,133v14,32,43,57,87,57v56,0,96,-37,96,-95v0,-57,-39,-93,-96,-95xm29,1r231,0r0,-612v-1,-54,-30,-92,-70,-107v-82,-32,-161,20,-161,106r0,613","w":265},"\u00d1":{"d":"562,-3v81,34,166,-19,165,-104r0,-504v-1,-55,-32,-90,-71,-107v-66,-29,-130,12,-150,62v-6,14,-10,29,-10,45r0,235r-254,-298v-28,-35,-86,-74,-144,-46v-39,19,-69,54,-69,109r0,492v1,57,28,100,69,117v82,34,162,-20,162,-106r0,-244r262,318v11,13,25,24,40,31xm578,-847v0,-36,-32,-68,-68,-68r-271,0v-35,-1,-64,33,-63,67v0,34,25,70,62,70r271,0v38,1,69,-31,69,-69","w":731},"\u00d2":{"d":"52,-506v-42,88,-42,204,0,292v60,126,175,224,351,224v176,0,291,-99,351,-224v42,-88,42,-204,0,-292v-60,-126,-175,-224,-351,-224v-176,0,-291,99,-351,224xm339,-205v-67,-32,-112,-124,-79,-219v20,-59,66,-105,143,-105v77,0,123,47,144,106v33,95,-13,189,-82,219v-38,17,-89,17,-126,-1xm466,-767v63,25,125,-48,86,-106v-8,-12,-19,-21,-32,-26r-182,-74v-64,-26,-129,48,-88,109v8,12,20,21,34,26","w":774},"\u00d3":{"d":"52,-506v-42,88,-42,204,0,292v60,126,175,224,351,224v176,0,291,-99,351,-224v42,-88,42,-204,0,-292v-60,-126,-175,-224,-351,-224v-176,0,-291,99,-351,224xm339,-205v-67,-32,-112,-124,-79,-219v20,-59,66,-105,143,-105v77,0,123,47,144,106v33,95,-13,189,-82,219v-38,17,-89,17,-126,-1xm555,-865v37,-55,-19,-133,-86,-107r-182,72v-24,9,-46,36,-46,67v-1,48,50,88,100,68r182,-74v13,-5,24,-14,32,-26","w":774},"\u00d4":{"d":"52,-506v-42,88,-42,204,0,292v60,126,175,224,351,224v176,0,291,-99,351,-224v42,-88,42,-204,0,-292v-60,-126,-175,-224,-351,-224v-176,0,-291,99,-351,224xm339,-205v-67,-32,-112,-124,-79,-219v20,-59,66,-105,143,-105v77,0,123,47,144,106v33,95,-13,189,-82,219v-38,17,-89,17,-126,-1xm518,-768v69,29,132,-44,92,-106v-8,-12,-19,-21,-33,-26r-155,-63v-20,-7,-42,1,-57,7r-141,57v-24,9,-43,34,-43,66v0,51,50,89,105,67v39,-15,78,-34,116,-49r74,32v15,6,29,9,42,15","w":774},"\u00d5":{"d":"52,-506v-42,88,-42,204,0,292v60,126,175,224,351,224v176,0,291,-99,351,-224v42,-88,42,-204,0,-292v-60,-126,-175,-224,-351,-224v-176,0,-291,99,-351,224xm339,-205v-67,-32,-112,-124,-79,-219v20,-59,66,-105,143,-105v77,0,123,47,144,106v33,95,-13,189,-82,219v-38,17,-89,17,-126,-1xm603,-847v0,-36,-32,-68,-68,-68r-271,0v-35,-1,-64,33,-63,67v0,34,25,70,62,70r271,0v38,1,69,-31,69,-69","w":774},"\u00d6":{"d":"52,-506v-42,88,-42,204,0,292v60,126,175,224,351,224v176,0,291,-99,351,-224v42,-88,42,-204,0,-292v-60,-126,-175,-224,-351,-224v-176,0,-291,99,-351,224xm339,-205v-67,-32,-112,-124,-79,-219v20,-59,66,-105,143,-105v77,0,123,47,144,106v33,95,-13,189,-82,219v-38,17,-89,17,-126,-1xm109,-806v-40,0,-73,30,-73,71v0,38,35,71,72,71v37,0,72,-33,72,-71v0,-38,-33,-71,-71,-71xm696,-806v-37,0,-69,35,-69,71v0,38,33,71,71,71v37,0,72,-33,72,-71v0,-40,-35,-71,-74,-71","w":774},"\u00d8":{"d":"780,-682v22,-21,10,-48,-16,-51v-35,10,-62,49,-88,71r-21,22v-64,-52,-146,-91,-251,-91v-177,0,-293,100,-353,226v-21,45,-31,94,-31,146v1,103,42,184,99,240r-98,96r39,42r99,-97v85,79,252,118,387,60v91,-39,167,-105,208,-194v21,-45,31,-93,31,-144v-1,-96,-43,-186,-88,-245r54,-50v11,-11,20,-22,29,-31xm272,-269v-25,-38,-30,-104,-13,-155v25,-72,103,-128,198,-96v17,6,34,16,49,27xm311,-227r227,-217v36,68,14,156,-26,200v-33,36,-97,69,-160,44v-15,-6,-29,-15,-41,-27","w":776},"\u00d9":{"d":"447,-767v63,25,125,-48,86,-106v-8,-12,-19,-21,-32,-26r-182,-74v-64,-26,-128,48,-87,109v8,12,19,21,33,26xm385,-189v-76,0,-126,-52,-125,-127r0,-405r-231,0r0,398v2,166,87,264,213,309v85,29,199,29,284,0v127,-45,214,-142,214,-309r0,-288v-1,-55,-31,-92,-71,-109v-67,-28,-131,12,-151,62v-6,14,-9,29,-9,45r0,297v1,75,-49,127,-124,127","w":738},"\u00da":{"d":"536,-865v37,-55,-19,-133,-86,-107r-182,72v-24,9,-46,36,-46,67v-1,48,50,88,100,68r182,-74v13,-5,24,-14,32,-26xm385,-189v-76,0,-126,-52,-125,-127r0,-405r-231,0r0,398v2,166,87,264,213,309v85,29,199,29,284,0v127,-45,214,-142,214,-309r0,-288v-1,-55,-31,-92,-71,-109v-67,-28,-131,12,-151,62v-6,14,-9,29,-9,45r0,297v1,75,-49,127,-124,127","w":738},"\u00db":{"d":"500,-768v69,29,132,-44,92,-106v-8,-12,-20,-21,-34,-26r-155,-63v-20,-7,-42,1,-57,7r-141,57v-24,9,-43,34,-43,66v0,51,49,88,104,67v39,-15,79,-33,117,-49r74,32v15,6,30,9,43,15xm385,-189v-76,0,-126,-52,-125,-127r0,-405r-231,0r0,398v2,166,87,264,213,309v85,29,199,29,284,0v127,-45,214,-142,214,-309r0,-288v-1,-55,-31,-92,-71,-109v-67,-28,-131,12,-151,62v-6,14,-9,29,-9,45r0,297v1,75,-49,127,-124,127","w":738},"\u00dc":{"d":"297,-810v-43,0,-79,41,-68,88r-200,1r0,398v2,166,87,264,213,309v85,29,198,29,283,0v126,-45,215,-142,215,-309r0,-288v-1,-55,-31,-93,-71,-109v-82,-32,-160,22,-160,107r0,297v1,75,-49,127,-124,127v-76,0,-126,-52,-125,-127r0,-364v47,31,108,-8,108,-60v0,-38,-33,-70,-71,-70xm471,-810v-38,0,-70,33,-70,71v0,38,32,70,70,70v38,0,71,-33,71,-71v0,-38,-33,-70,-71,-70","w":738},"\u00df":{"d":"503,-429v31,-32,57,-78,57,-135v0,-109,-70,-171,-156,-197v-162,-48,-308,30,-354,151v-13,35,-21,73,-21,115r0,733r222,0r0,-743v0,-44,11,-80,56,-80v28,1,54,10,54,39v0,28,-33,34,-51,46v-27,18,-52,38,-52,88v0,73,54,83,107,101v21,7,39,19,37,47v-3,58,-71,57,-105,86v-20,17,-37,36,-37,74v0,69,50,112,118,112v72,-1,128,-44,166,-87v38,-42,74,-105,74,-175v0,-87,-49,-148,-115,-175","w":607},"\u00e0":{"d":"381,-588v63,25,125,-48,86,-106v-8,-12,-19,-21,-32,-26r-182,-74v-64,-26,-128,47,-87,108v8,12,19,22,33,27xm505,-549v-46,2,-86,20,-91,64v-35,-72,-157,-80,-236,-41v-92,45,-158,133,-158,263v0,128,68,211,161,251v53,23,126,30,179,6v21,-10,39,-27,54,-50v-3,17,-1,38,0,56r193,0r0,-439v0,-64,-35,-112,-102,-110xm316,-179v-71,2,-95,-97,-55,-147v12,-15,29,-28,55,-28v47,-2,79,41,77,87v-2,49,-27,86,-77,88","w":613},"\u00e1":{"d":"470,-686v37,-55,-19,-133,-86,-107r-182,72v-24,9,-46,36,-46,67v-1,48,50,88,100,68r182,-74v13,-5,24,-14,32,-26xm505,-549v-46,2,-86,20,-91,64v-35,-72,-157,-80,-236,-41v-92,45,-158,133,-158,263v0,128,68,211,161,251v53,23,126,30,179,6v21,-10,39,-27,54,-50v-3,17,-1,38,0,56r193,0r0,-439v0,-64,-35,-112,-102,-110xm316,-179v-71,2,-95,-97,-55,-147v12,-15,29,-28,55,-28v47,-2,79,41,77,87v-2,49,-27,86,-77,88","w":613},"\u00e2":{"d":"434,-588v69,29,132,-44,92,-106v-8,-12,-20,-22,-34,-27r-155,-63v-20,-7,-42,1,-57,7r-141,57v-24,9,-43,34,-43,66v0,51,49,90,104,67v27,-11,59,-23,86,-35r31,-14r74,32v15,6,30,10,43,16xm505,-549v-46,2,-86,20,-91,64v-35,-72,-157,-80,-236,-41v-92,45,-158,133,-158,263v0,128,68,211,161,251v53,23,126,30,179,6v21,-10,39,-27,54,-50v-3,17,-1,38,0,56r193,0r0,-439v0,-64,-35,-112,-102,-110xm316,-179v-71,2,-95,-97,-55,-147v12,-15,29,-28,55,-28v47,-2,79,41,77,87v-2,49,-27,86,-77,88","w":613},"\u00e3":{"d":"518,-668v0,-36,-32,-68,-68,-68r-271,0v-35,-1,-64,33,-63,67v0,34,25,70,62,70r271,0v38,1,69,-31,69,-69xm505,-549v-46,2,-86,20,-91,64v-35,-72,-157,-80,-236,-41v-92,45,-158,133,-158,263v0,128,68,211,161,251v53,23,126,30,179,6v21,-10,39,-27,54,-50v-3,17,-1,38,0,56r193,0r0,-439v0,-64,-35,-112,-102,-110xm316,-179v-71,2,-95,-97,-55,-147v12,-15,29,-28,55,-28v47,-2,79,41,77,87v-2,49,-27,86,-77,88","w":613},"\u00e4":{"d":"229,-761v-64,0,-117,69,-87,133v15,32,43,55,87,57v52,1,96,-43,96,-95v0,-52,-44,-95,-96,-95xm436,-762v-65,0,-115,70,-86,134v14,31,44,57,89,57v56,0,91,-40,94,-96v2,-52,-45,-95,-97,-95xm505,-549v-46,2,-86,20,-91,64v-35,-72,-157,-80,-236,-41v-92,45,-158,133,-158,263v0,128,68,211,161,251v53,23,126,30,179,6v21,-10,39,-27,54,-50v-3,17,-1,38,0,56r193,0r0,-439v0,-64,-35,-112,-102,-110xm316,-179v-71,2,-95,-97,-55,-147v12,-15,29,-28,55,-28v47,-2,79,41,77,87v-2,49,-27,86,-77,88","w":613},"\u00e5":{"d":"224,-720v-16,27,-14,65,0,92v25,48,96,76,164,55v54,-17,104,-82,70,-147v-25,-48,-95,-78,-163,-56v-31,10,-56,29,-71,56xm341,-647v-14,0,-29,-13,-29,-28v0,-16,13,-27,29,-27v14,0,27,13,27,27v0,14,-13,29,-27,28xm505,-549v-46,2,-86,20,-91,64v-35,-72,-157,-80,-236,-41v-92,45,-158,133,-158,263v0,128,68,211,161,251v53,23,126,30,179,6v21,-10,39,-27,54,-50v-3,17,-1,38,0,56r193,0r0,-439v0,-64,-35,-112,-102,-110xm316,-179v-71,2,-95,-97,-55,-147v12,-15,29,-28,55,-28v47,-2,79,41,77,87v-2,49,-27,86,-77,88","w":613},"\u00e6":{"d":"496,10v27,0,50,-11,65,-26v84,42,227,32,317,2r-24,-170v-57,8,-133,19,-189,1v-21,-7,-38,-19,-52,-38r267,0v51,0,88,-24,85,-78v-5,-98,-58,-159,-119,-203v-42,-30,-97,-50,-164,-50v-46,0,-86,8,-121,23v-36,-42,-157,-40,-156,32v-36,-62,-163,-66,-233,-29v-87,46,-152,133,-152,259v0,128,65,213,156,255v71,34,187,31,230,-26v2,43,46,48,90,48xm392,-276v1,46,-30,90,-78,88v-49,-1,-73,-37,-73,-85v0,-49,27,-87,77,-87v49,0,73,36,74,84xm615,-332v2,-28,30,-57,60,-57v35,0,56,25,60,57r-120,0","w":953},"\u00e7":{"d":"520,-506v-92,-26,-214,-55,-314,-16v-103,40,-186,118,-186,256v0,110,62,182,132,228v26,16,54,28,84,35v-18,22,-48,39,-51,75v-4,47,65,72,96,36r86,-101v84,-9,171,-29,171,-120v0,-44,-28,-73,-60,-87v-49,-22,-101,10,-155,10v-46,0,-83,-31,-83,-79v0,-48,40,-75,86,-75v52,0,107,20,153,29","w":512},"\u00e8":{"d":"373,-588v63,25,125,-48,86,-106v-8,-12,-19,-21,-32,-26r-182,-74v-64,-26,-128,47,-87,108v8,12,19,22,33,27xm474,-184v-52,10,-117,23,-170,4v-20,-7,-38,-19,-51,-37r260,0v59,-1,93,-17,91,-79v-4,-124,-90,-194,-184,-232v-114,-45,-248,-1,-311,57v-49,46,-89,111,-89,201v0,146,91,223,205,260v85,26,194,22,273,-4xm255,-325v6,-30,27,-58,63,-58v34,0,54,27,56,58r-119,0","w":589},"\u00e9":{"d":"462,-686v37,-55,-19,-133,-86,-107r-182,72v-24,9,-46,36,-46,67v-1,48,50,88,100,68r182,-74v13,-5,24,-14,32,-26xm474,-184v-52,10,-117,23,-170,4v-20,-7,-38,-19,-51,-37r260,0v59,-1,93,-17,91,-79v-4,-124,-90,-194,-184,-232v-114,-45,-248,-1,-311,57v-49,46,-89,111,-89,201v0,146,91,223,205,260v85,26,194,22,273,-4xm255,-325v6,-30,27,-58,63,-58v34,0,54,27,56,58r-119,0","w":589},"\u00ea":{"d":"426,-588v69,29,132,-44,92,-106v-8,-12,-20,-22,-34,-27r-155,-63v-20,-7,-42,1,-57,7r-141,57v-24,9,-43,34,-43,66v0,51,49,90,104,67v27,-11,59,-23,86,-35r31,-14r74,32v15,6,30,10,43,16xm474,-184v-52,10,-117,23,-170,4v-20,-7,-38,-19,-51,-37r260,0v59,-1,93,-17,91,-79v-4,-124,-90,-194,-184,-232v-114,-45,-248,-1,-311,57v-49,46,-89,111,-89,201v0,146,91,223,205,260v85,26,194,22,273,-4xm255,-325v6,-30,27,-58,63,-58v34,0,54,27,56,58r-119,0","w":589},"\u00eb":{"d":"205,-775v-56,0,-93,37,-95,92v-2,54,40,98,95,98v52,0,97,-43,95,-95v-3,-56,-37,-95,-95,-95xm415,-775v-66,-3,-115,68,-87,133v14,32,43,57,87,57v56,0,96,-37,96,-95v0,-57,-39,-93,-96,-95xm474,-184v-52,10,-117,23,-170,4v-20,-7,-38,-19,-51,-37r260,0v59,-1,93,-17,91,-79v-4,-124,-90,-194,-184,-232v-114,-45,-248,-1,-311,57v-49,46,-89,111,-89,201v0,146,91,223,205,260v85,26,194,22,273,-4xm255,-325v6,-30,27,-58,63,-58v34,0,54,27,56,58r-119,0","w":589},"\u00ec":{"d":"200,-588v63,25,125,-48,86,-106v-8,-12,-19,-21,-32,-26r-182,-74v-64,-26,-129,47,-88,108v8,12,20,22,34,27xm32,-2r223,1r0,-434v-2,-51,-30,-88,-68,-103v-79,-30,-155,19,-155,102r0,434","w":244},"\u00ed":{"d":"289,-686v37,-55,-19,-133,-86,-107r-182,72v-24,9,-46,36,-46,67v-1,48,50,88,100,68r182,-74v13,-5,24,-14,32,-26xm32,-2r223,1r0,-434v-2,-51,-30,-88,-68,-103v-79,-30,-155,19,-155,102r0,434","w":244},"\u00ee":{"d":"252,-588v69,29,132,-44,92,-106v-8,-12,-19,-22,-33,-27r-155,-63v-20,-7,-42,1,-57,7r-141,57v-24,9,-43,34,-43,66v0,51,50,90,105,67r116,-49r74,32v15,6,29,10,42,16xm32,-2r223,1r0,-434v-2,-51,-30,-88,-68,-103v-79,-30,-155,19,-155,102r0,434","w":244},"\u00ef":{"d":"32,-775v-56,0,-93,37,-95,92v-2,54,40,98,95,98v52,0,97,-43,95,-95v-3,-56,-37,-95,-95,-95xm242,-775v-66,-3,-116,68,-88,133v14,32,44,57,88,57v56,0,96,-37,96,-95v0,-57,-39,-93,-96,-95xm32,-2r223,1r0,-434v-2,-51,-30,-88,-68,-103v-79,-30,-155,19,-155,102r0,434","w":244},"\u00f1":{"d":"137,-550v-66,2,-108,47,-108,114r0,436r222,0r0,-310v-1,-30,26,-56,56,-56v30,0,57,26,56,56r0,208v4,68,45,111,113,111v52,0,84,-32,102,-69v6,-13,9,-28,9,-43r0,-256v-2,-98,-63,-152,-139,-177v-86,-29,-187,-8,-224,55v-8,-38,-42,-71,-87,-69xm508,-668v0,-36,-32,-68,-68,-68r-271,0v-35,-1,-64,33,-63,67v0,34,25,70,62,70r271,0v38,1,69,-31,69,-69","w":592},"\u00f2":{"d":"44,-380v-31,67,-32,158,0,225v46,95,137,166,272,166v136,0,226,-73,272,-169v32,-67,32,-157,0,-224v-46,-96,-135,-168,-272,-168v-136,0,-227,73,-272,170xm316,-175v-52,-2,-78,-41,-78,-93v0,-50,27,-89,78,-89v51,0,78,39,78,89v0,48,-26,95,-78,93xm379,-588v63,25,125,-48,86,-106v-8,-12,-19,-21,-32,-26r-182,-74v-64,-26,-128,47,-87,108v8,12,19,22,33,27","w":601},"\u00f3":{"d":"44,-380v-31,67,-32,158,0,225v46,95,137,166,272,166v136,0,226,-73,272,-169v32,-67,32,-157,0,-224v-46,-96,-135,-168,-272,-168v-136,0,-227,73,-272,170xm316,-175v-52,-2,-78,-41,-78,-93v0,-50,27,-89,78,-89v51,0,78,39,78,89v0,48,-26,95,-78,93xm468,-686v37,-55,-19,-133,-86,-107r-182,72v-24,9,-46,36,-46,67v-1,48,50,88,100,68r182,-74v13,-5,24,-14,32,-26","w":601},"\u00f4":{"d":"44,-380v-31,67,-32,158,0,225v46,95,137,166,272,166v136,0,226,-73,272,-169v32,-67,32,-157,0,-224v-46,-96,-135,-168,-272,-168v-136,0,-227,73,-272,170xm316,-175v-52,-2,-78,-41,-78,-93v0,-50,27,-89,78,-89v51,0,78,39,78,89v0,48,-26,95,-78,93xm432,-588v69,29,132,-44,92,-106v-8,-12,-20,-22,-34,-27r-155,-63v-20,-7,-42,1,-57,7r-141,57v-24,9,-43,34,-43,66v0,51,49,90,104,67v27,-11,59,-23,86,-35r31,-14r74,32v15,6,30,10,43,16","w":601},"\u00f5":{"d":"44,-380v-31,67,-32,158,0,225v46,95,137,166,272,166v136,0,226,-73,272,-169v32,-67,32,-157,0,-224v-46,-96,-135,-168,-272,-168v-136,0,-227,73,-272,170xm316,-175v-52,-2,-78,-41,-78,-93v0,-50,27,-89,78,-89v51,0,78,39,78,89v0,48,-26,95,-78,93xm516,-668v0,-36,-32,-68,-68,-68r-271,0v-35,-1,-64,33,-63,67v0,34,25,70,62,70r271,0v38,1,69,-31,69,-69","w":601},"\u00f6":{"d":"44,-381v-31,67,-32,158,0,225v46,95,137,167,272,167v136,0,226,-73,272,-169v32,-67,32,-157,0,-224v-46,-96,-135,-168,-272,-168v-136,0,-227,72,-272,169xm315,-175v-51,-2,-77,-40,-77,-91v0,-52,27,-91,79,-91v51,0,77,40,77,89v0,49,-27,95,-79,93xm213,-760v-66,-3,-116,69,-88,134v17,40,72,73,125,50v33,-14,58,-43,58,-88v0,-57,-38,-93,-95,-96xm420,-760v-53,-2,-98,44,-96,97v2,57,40,94,96,94v56,0,96,-37,96,-95v0,-57,-38,-94,-96,-96","w":601},"\u00f8":{"d":"616,-537v0,-12,-4,-25,-18,-24v-40,11,-64,51,-92,77v-63,-65,-196,-89,-300,-48v-104,41,-186,121,-186,260v0,78,32,145,73,189r-72,70r32,29r71,-69v67,59,197,87,301,45v103,-41,185,-123,185,-261v0,-77,-32,-142,-72,-186r44,-41v12,-13,29,-27,34,-41xm244,-231v-19,-60,8,-124,70,-126v17,0,32,5,47,16xm386,-305v23,69,-18,152,-97,125v-9,-3,-17,-8,-22,-13","w":601},"\u00f9":{"d":"369,-588v63,25,125,-48,86,-106v-8,-12,-19,-21,-32,-26r-182,-74v-64,-26,-128,47,-87,108v8,12,19,22,33,27xm306,-183v-35,0,-54,-28,-54,-61r0,-291r-223,-1r0,293v0,178,102,254,278,254v175,0,278,-76,277,-254r0,-193v-1,-80,-77,-133,-156,-102v-39,15,-68,51,-68,104r0,190v0,33,-19,61,-54,61","w":590},"\u00fa":{"d":"458,-686v37,-55,-19,-133,-86,-107r-182,72v-24,9,-46,36,-46,67v-1,48,50,88,100,68r182,-74v13,-5,24,-14,32,-26xm306,-183v-35,0,-54,-28,-54,-61r0,-291r-223,-1r0,293v0,178,102,254,278,254v175,0,278,-76,277,-254r0,-193v-1,-80,-77,-133,-156,-102v-39,15,-68,51,-68,104r0,190v0,33,-19,61,-54,61","w":590},"\u00fb":{"d":"422,-588v69,29,132,-44,92,-106v-8,-12,-20,-22,-34,-27r-155,-63v-20,-7,-42,1,-57,7r-141,57v-24,9,-43,34,-43,66v0,51,49,90,104,67v27,-11,59,-23,86,-35r31,-14r74,32v15,6,30,10,43,16xm306,-183v-35,0,-54,-28,-54,-61r0,-291r-223,-1r0,293v0,178,102,254,278,254v175,0,278,-76,277,-254r0,-193v-1,-80,-77,-133,-156,-102v-39,15,-68,51,-68,104r0,190v0,33,-19,61,-54,61","w":590},"\u00fc":{"d":"202,-756v-65,-3,-117,68,-88,133v14,32,43,55,87,57v52,1,98,-43,96,-95v-2,-56,-39,-92,-95,-95xm411,-756v-53,-3,-97,45,-95,97v2,57,39,93,97,93v57,0,94,-39,94,-95v0,-58,-40,-92,-96,-95xm306,-183v-35,0,-54,-28,-54,-61r0,-291r-223,-1r0,293v0,178,102,254,278,254v175,0,278,-76,277,-254r0,-193v-1,-80,-77,-133,-156,-102v-39,15,-68,51,-68,104r0,190v0,33,-19,61,-54,61","w":590},"\u00ff":{"d":"159,-775v-56,0,-93,37,-95,92v-2,54,40,98,95,98v52,0,97,-43,95,-95v-3,-56,-37,-95,-95,-95xm369,-775v-66,-3,-115,68,-87,133v14,32,43,57,87,57v56,0,96,-37,96,-95v0,-57,-39,-93,-96,-95xm522,-390v34,-81,-19,-158,-101,-158v-64,-1,-89,43,-105,91r-51,152r-92,-234r-195,88r173,397r-77,167v-12,25,-14,62,-1,87v17,34,50,60,99,60v58,0,85,-37,104,-79","w":497},"\u0152":{"d":"668,-720v-38,1,-68,9,-67,51v-79,-87,-286,-85,-391,-19v-104,65,-190,172,-190,330v0,175,107,285,234,344v107,50,269,33,347,-28v14,32,20,41,63,42r299,3v48,-1,80,-26,93,-61v27,-72,-18,-140,-92,-140r-174,0r0,-58r137,0v59,-4,99,-40,99,-99v0,-61,-39,-101,-99,-101r-138,0r0,-61r230,0r0,-203r-351,0xm407,-188v-128,-1,-179,-113,-148,-238v16,-64,59,-114,139,-114v80,0,127,48,149,108v23,65,6,151,-27,190v-25,30,-61,54,-113,54","w":1035},"\u0153":{"d":"202,-8v96,36,221,23,288,-32v93,69,273,56,398,26r-24,-170v-66,10,-149,47,-216,15v-18,-9,-32,-23,-43,-44r271,0v51,0,86,-25,83,-77v-6,-104,-61,-170,-129,-213v-43,-28,-100,-45,-166,-45v-78,-1,-121,21,-172,49v-55,-29,-97,-51,-174,-51v-135,0,-225,73,-272,168v-33,67,-33,159,-2,226v31,68,87,121,158,148xm314,-181v-48,2,-76,-43,-76,-87v0,-49,28,-84,77,-87v45,-2,77,41,76,84v-1,51,-25,88,-77,90xm606,-325v2,-48,67,-81,103,-41v12,12,18,26,17,41r-120,0","w":953},"\u0178":{"d":"215,-954v-56,0,-93,37,-95,92v-2,54,40,98,95,98v52,0,97,-43,95,-95v-3,-56,-37,-95,-95,-95xm425,-954v-66,-3,-115,68,-87,133v14,32,43,57,87,57v56,0,96,-37,96,-95v0,-57,-39,-93,-96,-95xm205,-108v4,70,46,118,116,118v55,0,88,-33,106,-73v6,-14,9,-29,9,-45r0,-230r191,-207v24,-23,30,-71,14,-108v-18,-41,-51,-75,-106,-75v-46,0,-78,31,-101,57r-114,138r-160,-197r-176,144r221,248r0,230","w":598},"\u02c6":{"d":"332,-588v69,29,132,-44,92,-106v-8,-12,-20,-22,-34,-27r-155,-63v-20,-7,-42,1,-57,7r-141,57v-24,9,-43,34,-43,66v0,51,49,90,104,67v27,-11,59,-23,86,-35r31,-14r74,32v15,6,30,10,43,16","w":374},"\u02dc":{"d":"400,-668v0,-36,-32,-68,-68,-68r-271,0v-35,-1,-64,33,-63,67v0,34,25,70,62,70r271,0v38,1,69,-31,69,-69","w":362},"\u2013":{"d":"65,-359v0,50,27,90,77,90r452,0r0,-179r-452,0v-51,2,-77,40,-77,89"},"\u2014":{"d":"31,-252r527,0r-1,-204r-526,0r0,204","w":567},"\u2018":{"d":"-32,-412r189,87r130,-266v30,-77,-18,-153,-98,-153v-46,0,-82,29,-98,63","w":289},"\u2019":{"d":"287,-647r-189,-87r-130,266v-30,78,18,154,99,154v47,0,81,-30,97,-64","w":289},"\u201a":{"d":"-21,34v-31,72,19,151,92,149v44,-1,83,-29,97,-62r124,-269r-196,-90","w":259},"\u201c":{"d":"293,-591v32,-78,-20,-152,-99,-153v-46,0,-82,28,-97,63r-107,255r189,87xm571,-591v31,-78,-19,-153,-98,-153v-46,0,-82,28,-97,63r-107,255r189,87","w":533},"\u201d":{"d":"571,-647r-189,-87r-114,252v-28,65,8,126,56,146v59,24,121,-12,140,-56xm292,-647r-189,-87r-113,252v-30,78,16,153,98,154v46,0,82,-29,97,-64","w":533},"\u201e":{"d":"-21,34v-31,72,19,151,92,149v44,-1,82,-29,97,-62r133,-284r-196,-90xm384,-253r-126,287v-29,75,14,149,92,149v43,0,83,-30,97,-62r132,-284","w":499},"\u2022":{"d":"117,-492v-63,25,-110,103,-77,188v24,63,107,109,189,76v62,-25,110,-106,77,-188v-25,-62,-107,-109,-189,-76","w":351},"\u2026":{"d":"102,6v89,35,178,-47,142,-142v-18,-47,-80,-82,-142,-58v-47,19,-83,81,-58,142v11,26,32,48,58,58xm390,6v89,35,178,-47,142,-142v-18,-47,-80,-82,-142,-58v-47,19,-83,81,-58,142v11,26,32,48,58,58xm678,6v89,35,178,-47,142,-142v-18,-47,-80,-82,-142,-58v-47,19,-83,81,-58,142v11,26,32,48,58,58","w":799},"\u2039":{"d":"310,-383v34,-74,-43,-153,-118,-111v-14,8,-26,18,-37,29r-126,132r-1,131r128,142v16,19,41,36,73,36v64,-1,104,-61,79,-124v-5,-12,-13,-23,-22,-32r-83,-87r84,-84v9,-9,17,-20,23,-32","w":318},"\u203a":{"d":"153,-498v-74,-35,-154,35,-120,115v5,11,13,22,22,31r83,87r-84,85v-23,21,-40,63,-24,102v17,40,74,71,122,42v13,-8,25,-18,34,-30r106,-133r1,-131r-108,-141v-9,-11,-19,-21,-32,-27","w":318},"\u2122":{"d":"286,-684v0,-19,-17,-37,-36,-36r-192,0v-19,-1,-37,17,-36,36v-1,44,53,37,93,36r0,266r78,0r0,-266v39,1,93,8,93,-36xm264,-391r78,10r32,-213r64,219r83,0r64,-219r32,213r78,-10r-49,-292v-3,-24,-27,-41,-52,-41v-26,0,-43,13,-52,40r-63,207r-62,-207v-6,-34,-53,-53,-85,-30v-11,7,-17,18,-19,31","w":746}}});
